//Layer1 Weights 
float flayer1_weight[] = {
-0.17579903f,-0.14782079f,-0.15209721f,0.15691386f,0.092760906f,
0.080140606f,0.124936596f,-0.1905951f,-0.16881962f,-0.14171976f,
-0.19828697f,-0.028052066f,0.16404143f,0.0010141712f,0.15552989f,
-0.024917891f,-0.17362599f,-0.056807827f,0.06933724f,0.009406962f,
-0.04653138f,0.1526857f,0.008364603f,0.009916298f,-0.006261678f,
0.071685895f,0.002609805f,0.1152646f,0.0033470443f,0.20473129f,
0.1803204f,0.06970859f,-0.005352455f,0.0022363274f,-0.03270777f,
-0.023242902f,0.17409736f,-0.19445938f,-0.045030314f,0.09732091f,
-0.23083521f,-0.05313168f,0.14967331f,-0.06275996f,0.03302142f,
0.1718322f,-0.10925211f,0.113923915f,-0.10487812f,-0.034353264f,
0.13830821f,-0.14775226f,-0.1177241f,-0.13742429f,-0.15804832f,
-0.20637776f,0.1881851f,0.123055674f,0.009987164f,0.14867027f,
-0.039328385f,0.20562021f,-0.12317189f,-0.045849502f,-0.19871993f,
0.19891609f,0.1581079f,-0.054824192f,0.1429695f,0.13843027f,
0.028261593f,-0.110113814f,-0.15275049f,-0.025019273f,0.1260645f,
0.037888892f,-0.21047789f,0.16685203f,0.054246735f,-0.041685633f,
0.1595509f,-0.1184921f,0.06425093f,0.04612335f,-0.013667861f,
0.025843136f,-0.20554851f,0.071595535f,0.11223942f,-0.12362032f,
0.15620406f,-0.08611604f,0.0210607f,0.16206996f,-0.039264284f,
-0.20236118f,0.12807345f,-0.10239444f,-0.040475547f,-0.158186f,
-0.03640972f,-0.13112043f,-0.09858752f,0.1297538f,-0.11589097f,
-0.1337896f,0.079274274f,0.07812727f,-0.14746131f,0.0026936433f,
0.11819601f,-0.19046062f,0.029713886f,-0.005381331f,-0.17723803f,
0.093927786f,-0.096444435f,-0.17911565f,0.11007503f,-0.07643293f,
0.04022023f,0.18016422f,0.18903895f,-0.09098172f,0.0014939007f,
-0.12920794f,-0.16898608f,-0.19433564f,0.1184857f,0.15387033f,
0.056801654f,0.20773317f,-0.18631513f,-0.08553903f,0.19399917f,
-0.16204196f,-0.012319937f,0.15168644f,0.043267403f,-0.054906994f,
0.19752868f,0.1325092f,-0.13122417f,0.015813263f,0.15781368f,
0.15556915f,0.084022745f,-0.109750085f,0.15905353f,-0.01722827f,
-0.1429922f,0.13050878f,-0.20577803f,0.10661415f,-0.14566857f,
0.166889f,-0.029459432f,-0.12669463f,0.13720712f,0.19350243f,
0.124646805f,0.06757039f,-0.0638457f,0.0041378117f,0.055432215f,
0.1451835f,0.08070155f,-0.08608168f,-0.071222834f,-0.12934445f,
0.09138193f,-0.13142264f,-0.17244078f,0.11893954f,-0.018136445f,
-0.15169257f,-0.18478943f,-0.10144064f,-0.1333819f,-0.17652434f,
-0.18587148f,-0.15511987f,-0.075794116f,0.078534156f,0.0007828027f,
0.10373052f,0.10068603f,0.12894884f,0.07073348f,-0.13486078f,
0.03199132f,0.1640249f,-0.04031225f,-0.10302623f,-0.1803509f,
0.12192232f,0.024299925f,0.09903508f,0.06046197f,0.06318954f,
0.1008111f,-0.026464162f,-0.04978282f,0.14926511f,-0.1439978f,
0.07590422f,0.1333639f,-0.057174116f,-0.09447124f,-0.10579859f,
0.10215899f,-0.11872924f,0.030121017f,-0.1633516f,-0.17618577f,
-0.16082168f,-0.1794598f,0.07286507f,0.12857702f,0.13297878f,
0.08904192f,-0.11090703f,-0.042941973f,-0.12457662f,-0.07250106f,
0.09449027f,-0.06821073f,-0.13482708f,-0.10399654f,0.044764463f,
-0.13777854f,0.059485927f,0.17387618f,0.12949409f,-0.09435884f,
0.031977743f,-0.14916906f,0.20421658f,-0.13981506f,-0.003935547f,
-0.077364534f,-0.14803421f,0.15848914f,0.16108973f,-0.18804187f,
0.096553825f,-0.10242276f,-0.081886575f,0.08347554f,-0.16436556f,
-0.123417266f,0.05886653f,-0.037453834f,-0.0017160897f,-0.07489513f,
-0.075491026f,0.025104485f,-0.13843864f,-0.014811954f,-0.14311005f,
-0.105836146f,0.022787211f,0.14442088f,0.15114126f,-0.17400879f,
0.16942495f,-0.06645343f,0.17913464f,-0.17580381f,0.13614863f,
0.19452731f,0.06300345f,-0.13791277f,-0.11726628f,0.18623756f,
0.046858646f,-0.008012161f,0.22321586f,0.21037857f,-0.15793517f,
0.026676081f,-0.06732995f,-0.028495055f,-0.1742511f,-0.19177613f,
0.12153327f,0.18407801f,0.019582342f,0.08869037f,0.07654487f,
-0.1996971f,-0.015526471f,0.19898993f,0.080569446f,-0.11283147f,
0.059204884f,0.062074423f,0.008942253f,0.08378504f,-0.19534661f,
0.04368291f,0.114143066f,-0.08362379f,0.14995742f,-0.11526517f,
-0.15455996f,0.14514297f,0.082793765f,0.048778564f,0.15615489f,
-0.05066071f,-0.13930042f,0.033183984f,0.174353f,0.08006592f,
-0.028030336f,-0.11776776f,-0.10623705f,-0.19702348f,0.0031931298f,
-0.07676228f,0.0056188265f,-0.2063176f,0.06577053f,-0.12150967f,
-0.077796355f,0.110723086f,0.196277f,-0.14708173f,-0.11279118f};
float flayer1_bias[] = {
-0.08581615f,0.21964847f,-0.107772924f,0.009928191f,-0.22319528f,0.11712896f,-0.095025994f,-0.018027902f,0.004131591f,0.089899f,-0.18853663f,-0.06026186f,-0.14539456f,-0.123278834f,0.15491678f};
//Layer2 Weights 
float flayer2_weight[] = {
-0.057018355f,-0.018902034f,0.045750767f,0.15661281f,-0.17134511f,
-0.0025574267f,-0.1450162f,-0.25305218f,0.07092324f,0.22642958f,
0.008493692f,0.03221047f,0.050305992f,-0.031397f,-0.20980912f,
0.122565635f,-0.09258687f,-0.16288145f,-0.14542466f,0.108826794f,
-0.24802575f,0.17672704f,-0.23754628f,-0.22642353f,0.1386386f,
-0.07257688f,0.17858796f,0.22306709f,0.042075194f,-0.006927333f,
0.08770651f,0.1882974f,-0.23245265f,-0.032284692f,-0.16205333f,
-0.20434782f,-0.17189944f,0.16429071f,-0.00391213f,-0.13860026f,
0.25603837f,-0.15070431f,-0.18551166f,-0.11908873f,-0.06281828f,
-0.22779433f,0.07521298f,-0.1711163f,0.14388423f,0.14131822f,
0.2270744f,0.2296105f,0.07989121f,-0.113722764f,-0.060887225f,
-0.21647836f,0.21806292f,-0.15378873f,0.15858743f,-0.06877415f,
0.010526149f,-0.032836143f,0.014971771f,-0.16531962f,-0.23401886f,
-0.095151946f,0.089625835f,0.18864226f,-0.23423526f,0.14868064f,
-0.08994709f,0.18087606f,0.1479058f,0.07151468f,0.2114851f,
-0.17449065f,0.2099269f,0.054102384f,0.19819555f,-0.07511695f,
0.21041505f,-0.13155644f,0.17911601f,0.2462269f,-0.015063332f,
-0.14213347f,-0.0035687722f,0.13141634f,0.045438692f,-0.18790606f,
0.109352365f,-0.24845685f,0.22285438f,0.17223865f,0.16854575f,
0.23969585f,-0.089058354f,-0.059719894f,-0.2207433f,0.087455414f,
0.0023279032f,-0.11405719f,0.012640598f,-0.22734642f,-0.26314095f,
0.002400801f,-0.22943835f,-0.20748694f,0.2511908f,0.0974609f,
0.24568886f,-0.19836721f,0.15426077f,0.12130897f,-0.22820981f,
0.24753872f,-0.25749904f,-0.081976995f,-0.046000488f,0.01601845f,
0.038111374f,-0.21430527f,-0.14599858f,-0.013303817f,0.120256715f,
0.043135628f,0.11602937f,0.04682562f,-0.02970303f,-0.25379127f,
-0.1378676f,0.09966082f,-0.021654865f,0.15380067f,-0.18484437f,
0.10211082f,-0.262395f,-0.21244158f,0.14752293f,0.15448184f,
0.18519217f,-0.18214016f,-0.043407913f,0.15188827f,-0.026620071f,
0.22217013f,-0.112776674f,0.04412043f,-0.0935091f,0.0993578f,
0.09591084f,-0.14916557f,0.09249821f,-0.24841875f,0.22475483f,
-0.019215923f,0.14977328f,-0.23778312f,-0.124907434f,-0.027776316f,
-0.12225775f,-0.059839692f,-0.08335093f,-0.127494f,0.2384198f};
float flayer2_bias[] = {
-0.16022068f,0.14120549f,0.25150806f,-0.0926326f,-0.25137967f,0.08011209f,0.2416625f,0.22118792f,0.19034253f,0.007762089f,-0.1841015f};
//Classifier Weights 
float fclassifier_weight[] = {
0.26430094f,0.17423731f,0.26009816f,-0.10449784f,0.031438537f,
-0.13803858f,-0.085446574f,0.1864493f,0.15514405f,-0.13273942f,
0.27848345f,-0.12500489f,-0.19944912f,0.285851f,-0.08706057f,
-0.28131157f,-0.19540063f,0.1951216f,-0.2852759f,0.07871693f,
-0.21844848f,0.2664611f,0.13162047f,0.019277407f,-0.04079732f,
-0.26661843f,-0.059551828f,0.06510214f,0.22540593f,0.2916097f,
-0.046142675f,-0.19569682f,-0.24143867f,0.1672113f,-0.08359287f,
0.16060773f,-0.15114535f,-0.18056005f,0.26679283f,0.173976f,
-0.13748536f,-0.15059157f,-0.12705792f,-0.12780462f,-0.09554453f,
-0.20783755f,0.06951478f,0.26127183f,-0.1304181f,0.062855855f,
-0.03347687f,0.12115201f,-0.20794795f,-0.07622693f,0.13359314f,
0.21543097f,-0.19533119f,-0.08436084f,0.11194194f,-0.054987885f,
-0.18588574f,0.24629003f,-0.0774841f,-0.26948288f,-0.0032430817f,
-0.090087116f,-0.035038263f,0.10945425f,0.027446039f,0.010502025f,
-0.23246102f,-0.25469851f,-0.23492397f,0.005231982f,0.07311122f,
-0.089120954f,-0.16709462f,-0.069604754f,-0.20271634f,-0.057294767f,
-0.09421579f,-0.09693449f,0.21714167f,-0.20818996f,-0.062625125f,
-0.12244954f,0.0025315008f,-0.19510226f,0.053426623f,-0.10670137f,
0.10484436f,0.1074585f,-0.29292223f,0.19948876f,0.118343376f,
0.20632944f,0.2397628f,0.09646148f,-0.078873955f,-0.08470385f,
0.0413563f,-0.052973907f,0.25434467f,0.022122249f,-0.2822237f,
-0.15615629f,-0.12560132f,0.19246425f,-0.040327393f,-0.09917433f,
0.15984097f,-0.03535746f,0.112864114f,-0.088474125f,-0.0101068225f,
-0.080058925f,0.25489366f,0.04086702f,-0.01941223f,-0.20952132f,
0.25832415f};
float fclassifier_bias[] = {
0.21425176f,0.23133162f,0.1473009f,-0.13039741f,-0.040822223f,0.15707539f,-0.15337707f,0.15496343f,0.20392959f,0.09347854f,-0.082018174f};
