//Layer1 Weights 
float layer1_weight[] = {
-0.027946267277002335f,-0.0007287051412276924f,0.006106002256274223f,-0.03923575580120087f,-0.05201511085033417f,
-0.0399148166179657f,-0.040632084012031555f,0.007603405974805355f,-0.05327403545379639f,-0.00967406202107668f,
-0.03899259865283966f,-0.040793150663375854f,-0.017296168953180313f,0.011195368133485317f,-0.016830407083034515f,
0.013990147970616817f,-0.03543158620595932f,-0.00013515132013708353f,-0.02733948826789856f,-0.0023113784845918417f,
-0.027893532067537308f,-0.03749389201402664f,-0.0065519921481609344f,-0.05303692817687988f,-0.008805327117443085f,
-0.03341331332921982f,-0.014658967964351177f,-0.041029393672943115f,-0.026593603193759918f,-0.00918743759393692f,
-0.05028954893350601f,0.009140058420598507f,-0.01912838965654373f,-0.0300038643181324f,-0.021312646567821503f,
0.000306649599224329f,0.0012209543492645025f,0.004634397104382515f,-0.04307771101593971f,-0.05680466443300247f,
-0.03369450196623802f,-0.051896993070840836f,-0.010625499300658703f,-0.043133366852998734f,0.0061027854681015015f,
-0.0358404815196991f,0.003915310371667147f,-0.04537218064069748f,0.0059996964409947395f,-0.03644564002752304f,
-0.05139683932065964f,-0.0028445778880268335f,-0.031540192663669586f,-0.0392414852976799f,-0.032422374933958054f,
-0.05094937980175018f,-0.04134134203195572f,-0.017431646585464478f,-0.005114960018545389f,0.002272018464282155f,
-0.02418436110019684f,0.007702446077018976f,-0.011687043122947216f,-0.05582500994205475f,-0.02645505592226982f,
-0.053884852677583694f,-0.017603948712348938f,-0.05163366347551346f,-0.04894980415701866f,-0.05589357390999794f,
-0.06945763528347015f,-0.023404181003570557f,-0.0631103366613388f,-0.05526696890592575f,-0.020604487508535385f,
-0.03083145245909691f,-0.014477351680397987f,-0.046336594969034195f,0.006073581986129284f,-0.05528021976351738f,
-0.0029624414164572954f,-0.04276052117347717f,0.008226046338677406f,-0.005319627933204174f,-0.012584495358169079f,
-0.00817169714719057f,0.01230603363364935f,-0.05345913767814636f,-0.056407514959573746f,-0.0030193417333066463f,
0.010428335517644882f,-0.03677850216627121f,0.03081466443836689f,0.0034274484496563673f,0.018809933215379715f,
0.028044046834111214f,0.025153689086437225f,0.003717840649187565f,0.03201976418495178f,0.009960184805095196f,
-0.011130821891129017f,-0.12213846296072006f,-0.11275837570428848f,-0.011651096865534782f,-0.02667364291846752f,
-0.012429670430719852f,-0.03429802879691124f,-0.023895764723420143f,-0.021386070176959038f,-0.02680831030011177f,
-0.04484856128692627f,0.009681914933025837f,0.01352198701351881f,0.002552814083173871f,-0.022108642384409904f,
-0.016483286395668983f,0.017992092296481133f,-0.01351228542625904f,0.040009982883930206f,0.043113578110933304f,
0.08135301619768143f,0.08718831837177277f,0.08591455966234207f,0.11188668757677078f,0.005462804343551397f,
-0.03496131673455238f,-0.032168496400117874f,0.03877083212137222f,-0.020939934998750687f,-0.09187313169240952f,
0.07036331295967102f,-0.04577549546957016f,-0.043230295181274414f,0.020486310124397278f,0.006690141279250383f,
-0.048658955842256546f,0.05365809053182602f,-0.018370097503066063f,0.01630212739109993f,-0.0033851785119622946f,
-0.025434914976358414f,-0.04280029982328415f,-0.029892537742853165f,0.005751066841185093f,-0.02781333029270172f,
0.07483828067779541f,0.051822565495967865f,0.06757162511348724f,0.059443149715662f,0.05063382908701897f,
0.14601777493953705f,0.10207457840442657f,0.07002715766429901f,-0.03211237117648125f,0.005842439830303192f,
-0.04087722674012184f,-0.06137043982744217f,0.0662277340888977f,0.024677028879523277f,0.009486585855484009f,
0.04155237600207329f,-0.039610590785741806f,-0.021655084565281868f,0.01980391889810562f,0.03371741250157356f,
-0.003250843146815896f,0.02957427129149437f,-0.003816130105406046f,-0.032208822667598724f,-0.028400246053934097f,
-0.038807619363069534f,0.03203550726175308f,-0.0019121859222650528f,0.04659847915172577f,0.0991111770272255f,
0.13689400255680084f,0.15689454972743988f,0.10615702718496323f,0.14615443348884583f,0.11908826231956482f,
0.08834918588399887f,0.061184290796518326f,0.02985840104520321f,0.08291877806186676f,0.030115190893411636f,
0.14753606915473938f,0.07346278429031372f,0.062341563403606415f,0.026889070868492126f,-0.039553068578243256f,
-0.03962589055299759f,-0.009581674821674824f,0.057043902575969696f,-0.00663790013641119f,0.007621726021170616f,
-0.028019271790981293f,0.013864804990589619f,-0.0012780296383425593f,-0.0019002034096047282f,-0.004349465947598219f,
0.055513400584459305f,0.09191754460334778f,0.0957023873925209f,0.14216376841068268f,0.15316548943519592f,
0.09021978080272675f,0.1469423919916153f,0.14647403359413147f,0.09580455720424652f,0.14809180796146393f,
0.2972872853279114f,0.1966114491224289f,0.22474829852581024f,0.1148640438914299f,0.13292346894741058f,
0.06705403327941895f,0.1152651235461235f,0.021381186321377754f,-0.04893317446112633f,-0.018243495374917984f,
-0.004973407834768295f,0.05380759388208389f,0.01383674331009388f,0.010786655358970165f,-0.0037913257256150246f,
-0.03655415028333664f,0.005364252720028162f,0.03141583502292633f,0.04894092679023743f,-0.018055571243166924f,
0.007503598462790251f,0.023578349500894547f,0.06079375743865967f,0.07287167012691498f,0.1432061642408371f,
0.08599260449409485f,0.23145699501037598f,0.25415316224098206f,0.2583850622177124f,0.27636417746543884f,
0.1710984855890274f,-0.005411913152784109f,0.07969668507575989f,0.012510817497968674f,0.08151018619537354f,
0.06079374998807907f,0.030339151620864868f,-0.05514969676733017f,-0.025869231671094894f,0.04527480900287628f,
-0.036858927458524704f,0.00021451131033245474f,-0.00811256468296051f,-0.04071900248527527f,0.004569463897496462f,
-0.011619320139288902f,0.12625525891780853f,0.057517945766448975f,0.10802610218524933f,0.12133762240409851f,
0.16978450119495392f,0.13001221418380737f,-0.046993836760520935f,-0.05000883340835571f,-0.014759577810764313f,
-0.04566777125000954f,0.013365277089178562f,-0.035029660910367966f,0.031111344695091248f,0.008480671793222427f,
-0.10234788060188293f,-0.04812292382121086f,-0.005425834096968174f,-0.02175430953502655f,0.02973499521613121f,
-0.029405156150460243f,0.009332259185612202f,0.02988521382212639f,0.0009933774126693606f,-0.0016829690430313349f,
0.0039212885312736034f,-0.04519281163811684f,0.0034999779891222715f,0.028406314551830292f,0.0567331425845623f,
0.060337916016578674f,0.11126341670751572f,0.054565079510211945f,0.07373161613941193f,-0.06330627202987671f,
-0.14364157617092133f,-0.15902450680732727f,-0.1477172076702118f,-0.22996358573436737f,-0.19819621741771698f,
-0.2485085427761078f,-0.07774928212165833f,-0.1257779896259308f,-0.15421831607818604f,-0.17465588450431824f,
-0.014098936691880226f,-0.02273385226726532f,-0.0021302662789821625f,-0.03484716638922691f,-0.03724706172943115f,
-0.007548412308096886f,-0.0058561149053275585f,-0.015516836196184158f,0.009139851666986942f,-0.051954492926597595f,
-0.005502047948539257f,0.041732873767614365f,0.04944431409239769f,-0.0259131770581007f,-0.008263393305242062f,
-0.08784153312444687f,-0.10992129147052765f,-0.08093150705099106f,-0.12809424102306366f,-0.09605374187231064f,
-0.09456463903188705f,-0.0938606783747673f,-0.19554181396961212f,-0.18161943554878235f,-0.14406807720661163f,
0.03867984190583229f,-0.03358089551329613f,-0.1194947361946106f,-0.07348142564296722f,-0.12412142008543015f,
-0.07173817604780197f,-0.06269468367099762f,-0.05198404937982559f,-0.021468350663781166f,0.01941286213696003f,
-0.036429282277822495f,-0.052680082619190216f,-0.04561825841665268f,-0.022257475182414055f,-0.015730302780866623f,
0.009911774657666683f,-0.09224190562963486f,-0.03865034878253937f,-0.12453313171863556f,-0.09504388272762299f,
-0.08509840071201324f,-0.06300310045480728f,-0.02103560045361519f,0.045465536415576935f,-0.02581394650042057f,
0.07728251069784164f,-0.10994257032871246f,-0.05700182542204857f,-0.08791840076446533f,0.01658797636628151f,
-0.12049829214811325f,-0.04421647638082504f,-0.023737585172057152f,-0.06075219437479973f,-0.05492031201720238f,
-0.11654430627822876f,-0.029464317485690117f,-0.031456537544727325f,-0.012758930213749409f,0.0037271184846758842f,
-0.021817633882164955f,-0.004068275913596153f,-0.013129515573382378f,-0.08364518731832504f,-0.13615424931049347f,
-0.07459549605846405f,-0.08462922275066376f,-0.09681590646505356f,-0.04866923391819f,0.05513855442404747f,
0.08481407165527344f,0.06720121204853058f,0.11257350444793701f,0.1129334419965744f,-0.1241663247346878f,
-0.016626400873064995f,-0.00039648893289268017f,0.11716115474700928f,-0.04035191610455513f,-0.0038104872219264507f,
-0.0023546586744487286f,-0.019431021064519882f,-0.030802762135863304f,-0.009080777876079082f,-0.07110129296779633f,
-0.03081139735877514f,0.008106515742838383f,-0.018335025757551193f,-0.01310125645250082f,-0.03737134858965874f,
-0.047515835613012314f,-0.11366894841194153f,-0.15185889601707458f,-0.11738155037164688f,-0.012832554057240486f,
0.051464345306158066f,0.030110828578472137f,-0.013258574530482292f,-0.027905648574233055f,0.07684478908777237f,
0.08070944994688034f,0.10112765431404114f,-0.02458842471241951f,-0.07200082391500473f,-0.06438086926937103f,
-0.01836824230849743f,-0.0803193524479866f,-0.037369254976511f,0.10427671670913696f,0.11619849503040314f,
0.11415998637676239f,0.009011215530335903f,-0.040940772742033005f,-0.056728851050138474f,-0.005852196365594864f,
-0.036136776208877563f,-0.01805577054619789f,-0.016106704249978065f,-0.0547424852848053f,-0.09754588454961777f,
-0.12575891613960266f,-0.12436563521623611f,-0.12127777934074402f,-0.043477628380060196f,-0.06207645684480667f,
-0.021831844002008438f,0.03509030118584633f,0.07688149809837341f,0.020838940516114235f,0.030948009341955185f,
0.03694649413228035f,-0.05147499218583107f,-0.1165449470281601f,-0.07007056474685669f,-0.031379759311676025f,
0.06539139896631241f,0.17678096890449524f,0.07681804150342941f,0.1228506788611412f,0.04592262953519821f,
-0.056528862565755844f,-0.045005250722169876f,-0.0562681145966053f,-0.01269585732370615f,0.012711317278444767f,
0.008373135700821877f,-0.028352290391921997f,-0.00910220481455326f,-0.1177544891834259f,-0.11786694079637527f,
-0.08384758979082108f,-0.15222640335559845f,-0.11828263103961945f,0.019166981801390648f,0.0031563073862344027f,
0.0764610543847084f,0.14777041971683502f,0.05892036110162735f,-0.1519249677658081f,-0.12701302766799927f,
-0.08282911777496338f,0.060166727751493454f,0.07536136358976364f,0.04763409495353699f,0.11545121669769287f,
0.1340036541223526f,0.06660577654838562f,0.0800090804696083f,-0.08493053913116455f,-0.017768429592251778f,
-0.04258579760789871f,-0.03284927085042f,-0.04058554768562317f,-0.026371687650680542f,0.03526609390974045f,
-0.014204115606844425f,-0.13448578119277954f,-0.174135223031044f,-0.039854396134614944f,-0.025948086753487587f,
-0.1190929114818573f,-0.20637133717536926f,-0.1769225299358368f,-0.06377305090427399f,0.03938969597220421f,
-0.15282000601291656f,-0.17945589125156403f,-0.19822251796722412f,-0.0014860319206491113f,0.0807810053229332f,
0.10549256950616837f,0.023699261248111725f,0.0859677717089653f,0.05504496768116951f,0.09292910248041153f,
0.018165264278650284f,-0.028941398486495018f,-0.0501435250043869f,-0.0438239723443985f,-0.007481785491108894f,
-0.003049136372283101f,0.028546147048473358f,0.05033202841877937f,-0.0359099917113781f,-0.08914991468191147f,
-0.1343810260295868f,-0.12297996133565903f,-0.14720574021339417f,-0.19319243729114532f,-0.2587723135948181f,
-0.3089645504951477f,-0.34278643131256104f,-0.31480032205581665f,-0.33175423741340637f,-0.14657194912433624f,
0.05665423721075058f,0.025779228657484055f,-0.025425685569643974f,0.13446573913097382f,0.06703987717628479f,
0.1429843008518219f,0.14339888095855713f,0.05517008900642395f,0.008254227228462696f,-0.010214126668870449f,
-0.047893598675727844f,-0.034643299877643585f,0.0009401441784575582f,0.005292263347655535f,-0.019533175975084305f,
0.08085932582616806f,0.028354482725262642f,-0.01704723946750164f,-0.0977988988161087f,-0.1589260846376419f,
-0.13065481185913086f,-0.12717702984809875f,-0.04559529200196266f,-0.03313261270523071f,-0.011390922591090202f,
-0.12243732064962387f,-0.13685385882854462f,-0.08537469059228897f,0.032816383987665176f,-0.006940748542547226f,
0.13421346247196198f,0.04952816665172577f,0.05907361954450607f,0.1842709183692932f,0.1640242636203766f,
0.10459457337856293f,-0.00578778563067317f,0.017770446836948395f,-0.046038638800382614f,-0.017126508057117462f,
0.0005578321870416403f,-0.02202613651752472f,-0.02360440045595169f,0.04073755070567131f,0.04883727803826332f,
0.029951103031635284f,-0.002442287979647517f,-0.04440632089972496f,-0.009375032968819141f,0.07393980771303177f,
0.010782629251480103f,0.07938128709793091f,-0.0017267478397116065f,0.10342873632907867f,0.060368362814188004f,
0.015467789955437183f,0.02161053568124771f,-0.013296210207045078f,0.023976298049092293f,-0.012386869639158249f,
0.09147965908050537f,0.11357175558805466f,0.10151231288909912f,0.07312549650669098f,-0.048075392842292786f,
-0.005079717840999365f,-0.015315731056034565f,-0.05012866109609604f,-0.051297590136528015f,0.012645798735320568f,
-0.03397401422262192f,0.04937940835952759f,0.1108212098479271f,0.0010990151204168797f,-0.007220285013318062f,
0.16689442098140717f,0.09921949356794357f,0.04226179048418999f,0.016900451853871346f,0.05410057306289673f,
0.13019977509975433f,0.14100301265716553f,0.08491529524326324f,0.1360711306333542f,0.15551668405532837f,
-0.07010998576879501f,-0.056013308465480804f,-0.010534682311117649f,0.10197704285383224f,0.0915626510977745f,
0.04574459046125412f,0.024853864684700966f,-0.03577987477183342f,0.01566215604543686f,-0.033506449311971664f,
0.0013682085555046797f,0.0010876052547246218f,-0.03327080234885216f,0.0021310520824044943f,-0.006369733717292547f,
0.06090080738067627f,0.06502137333154678f,0.03237181901931763f,0.08011002838611603f,0.09494934976100922f,
-0.04117901623249054f,-0.06167365238070488f,0.11841759830713272f,0.12831278145313263f,-0.01618463359773159f,
0.007810472510755062f,0.1128835380077362f,0.0745815634727478f,0.03588028624653816f,0.05829163268208504f,
0.05012405291199684f,0.011875268071889877f,-0.02215532958507538f,0.09231624007225037f,-0.006736432202160358f,
0.001836999668739736f,-0.030860206112265587f,-0.03335873410105705f,-0.001814819872379303f,-0.010888778604567051f,
-0.007645073812454939f,0.02304024063050747f,0.02233860082924366f,0.04717438668012619f,0.1480088084936142f,
0.18058088421821594f,0.14012496173381805f,0.05559643357992172f,0.07931715250015259f,0.0961121991276741f,
0.15952551364898682f,0.034356821328401566f,0.09364505857229233f,0.10582773387432098f,0.1323302537202835f,
0.01790803112089634f,0.07509949803352356f,-0.02748512290418148f,-0.03705428168177605f,0.002495028544217348f,
-0.023238932713866234f,-0.05558548867702484f,0.010145921260118484f,-0.009348085150122643f,-0.0040103062056005f,
-0.021404091268777847f,-0.024827782064676285f,-0.01038613636046648f,-0.0028317810501903296f,-0.04444997385144234f,
0.002048840979114175f,0.0874221995472908f,0.08155827224254608f,0.1704462617635727f,0.1942097246646881f,
0.08637601137161255f,0.1184040978550911f,0.1531018614768982f,0.11621376872062683f,0.16923263669013977f,
0.20733965933322906f,0.07374352961778641f,0.07380703836679459f,-0.03190894052386284f,0.10574851930141449f,
-0.0016885822406038642f,-0.13103652000427246f,-0.07206202298402786f,-0.0587216354906559f,0.005020317155867815f,
0.004008130170404911f,-0.054714348167181015f,-0.052101440727710724f,-0.020338304340839386f,-0.038465939462184906f,
-0.049892887473106384f,-0.050981104373931885f,-0.05422292277216911f,0.0029757267329841852f,-0.036848653107881546f,
0.01473503652960062f,0.11706829071044922f,0.17337417602539062f,0.20302504301071167f,0.19151994585990906f,
0.1370859593153f,0.14666274189949036f,0.24409274756908417f,0.20613236725330353f,-0.01575719192624092f,
0.07168780267238617f,0.09234727919101715f,0.021672764793038368f,0.0061516170389950275f,0.08059313893318176f,
0.01947684958577156f,0.010156978853046894f,-0.033201731741428375f,-0.013674658723175526f,-0.001231196685694158f,
0.011926734820008278f,-0.025220099836587906f,0.007280623074620962f,-0.022242240607738495f,-0.03738786280155182f,
-0.029366642236709595f,0.004547360353171825f,-0.05474331974983215f,-0.002576487371698022f,-0.050766535103321075f,
-0.015195967629551888f,-0.05337079241871834f,-0.04503902792930603f,-0.01448097825050354f,0.03092346526682377f,
0.019112637266516685f,0.07199835777282715f,0.028675800189375877f,0.07180148363113403f,0.06711932271718979f,
-0.009660306386649609f,0.015139824710786343f,0.0005541659775190055f,0.017556583508849144f,0.02606104500591755f,
-0.013651308603584766f,-0.016198210418224335f,-0.0038272812962532043f,-0.052053116261959076f,-0.051004454493522644f,
-0.057117290794849396f,-0.030664898455142975f,-0.04978276044130325f,-0.03653593361377716f,-0.030645329505205154f,
-0.05096963793039322f,-0.018160998821258545f,-0.018392503261566162f,-0.00493239751085639f,-0.03498975560069084f,
-0.015239143744111061f,0.004821885842829943f,-0.02724592573940754f,-0.0016092073637992144f,-0.010852500796318054f,
-0.03964829072356224f,-0.019108353182673454f,-0.04069608077406883f,-0.024453628808259964f,-0.006875899154692888f,
-0.026732759550213814f,-0.04512506723403931f,-0.035836972296237946f,0.0038265385664999485f,-0.022459860891103745f,
-0.03730437159538269f,-0.0197332464158535f,-0.010281066410243511f,-0.014627424068748951f,0.04717149958014488f,
-0.009747479110956192f,0.0009191301069222391f,0.004907501861453056f,0.007437031716108322f,0.019381558522582054f,
0.01358236838132143f,0.03938864544034004f,-0.003182033309713006f,-0.010225956328213215f,0.0021443066652864218f,
0.03776223585009575f,0.046722423285245895f,-0.009913768619298935f,0.02605031244456768f,0.01808965392410755f,
0.013639776036143303f,-0.005727736279368401f,0.05456859990954399f,0.033961813896894455f,0.01159148383885622f,
0.004152936860918999f,0.028181137517094612f,0.021609345450997353f,-0.004136803559958935f,0.05003209784626961f,
0.021080078557133675f,-0.008591479621827602f,0.025460822507739067f,0.047478970140218735f,0.0044113462790846825f,
0.024017246440052986f,-0.011367623694241047f,0.030697250738739967f,-0.012396569363772869f,-0.009047908708453178f,
0.04109915718436241f,0.02731507457792759f,0.0018803520360961556f,-0.0029268839862197638f,-0.023792017251253128f,
-0.008676969446241856f,0.0455949567258358f,0.033554885536432266f,0.010909205302596092f,0.04662976413965225f,
0.007525010034441948f,-1.6584650438744575e-05f,-0.010147207416594028f,0.03844424709677696f,0.02102135308086872f,
0.0023529857862740755f,0.017127783969044685f,-0.0010071770520880818f,0.04094506427645683f,0.007324147969484329f,
0.05319025740027428f,0.051023926585912704f,-0.005816463381052017f,0.05874331668019295f,0.057216476649045944f,
-0.0001837803574744612f,0.05263103172183037f,0.015995297580957413f,-0.0028650835156440735f,-0.020633267238736153f,
-0.0018613048596307635f,-0.03443052992224693f,-0.004873994272202253f,-0.026990843936800957f,-0.04069437086582184f,
-0.022303959354758263f,0.015648365020751953f,-0.022977491840720177f,-0.0056329877115786076f,0.04268937557935715f,
0.013437694869935513f,0.027764683589339256f,0.03200536593794823f,0.039028819650411606f,0.00311699858866632f,
0.0578567273914814f,-3.2402931537944824e-05f,0.009470460005104542f,0.04015890881419182f,0.0013508977135643363f,
0.0384763665497303f,0.023305421695113182f,0.019581032916903496f,-0.005488935858011246f,0.005265636369585991f,
0.015189570374786854f,-0.010197663679718971f,-0.03545350953936577f,-0.012318171560764313f,-0.05107684060931206f,
-0.004978489596396685f,-0.04222734645009041f,-0.09767594188451767f,-0.0575464591383934f,-0.06304329633712769f,
0.023315459489822388f,0.07643290609121323f,0.04898505657911301f,0.030977696180343628f,0.038995228707790375f,
-0.014008819125592709f,0.017054270952939987f,-0.023198170587420464f,0.05511440709233284f,-0.006019050255417824f,
0.03421039506793022f,0.004848378710448742f,-0.0029242245946079493f,0.008775703608989716f,0.027569426223635674f,
-0.008065811358392239f,0.007357126101851463f,0.028226209804415703f,-0.01821129210293293f,-0.05271705612540245f,
-0.08942060172557831f,-0.10658380389213562f,0.007012224290519953f,-0.09022436290979385f,0.0417698435485363f,
-0.008540353737771511f,0.025423767045140266f,0.015493055805563927f,-0.01706334948539734f,0.09610328823328018f,
0.07910117506980896f,-0.01236478891223669f,-0.004920660983771086f,0.037950776517391205f,0.06697098165750504f,
0.05377556383609772f,0.007947446778416634f,-0.00997448805719614f,0.03869209066033363f,0.04557853564620018f,
0.02458670176565647f,0.056318625807762146f,0.04907122999429703f,0.05004217475652695f,0.01259679440408945f,
0.04966732859611511f,-0.02345792017877102f,-0.06168131157755852f,0.0035936750937253237f,0.0477774515748024f,
0.007387880701571703f,-0.02229723520576954f,-0.010453847236931324f,-0.030314158648252487f,0.028703298419713974f,
-0.03499623388051987f,-0.03036653995513916f,-0.08419054746627808f,-0.13401103019714355f,-0.06897319853305817f,
-0.1145392507314682f,-0.03927053138613701f,0.06674417853355408f,0.02046353742480278f,0.04843496158719063f,
-0.01846679486334324f,0.04055192694067955f,0.026684748008847237f,0.02715487591922283f,0.016386302188038826f,
0.007540506310760975f,-0.012678883969783783f,0.007749594282358885f,-0.023931896314024925f,-0.01699213683605194f,
-0.02405737340450287f,0.02036217227578163f,0.04945537820458412f,0.146351620554924f,0.04369724914431572f,
0.05684279650449753f,0.09549327194690704f,-0.04736998304724693f,-0.05786559730768204f,0.035234563052654266f,
-0.025583183392882347f,-0.06100605055689812f,-0.052852291613817215f,0.018890012055635452f,-0.01677163876593113f,
-0.022616995498538017f,-0.028505710884928703f,0.017513902857899666f,0.03886320814490318f,0.019555967301130295f,
0.01132653933018446f,0.050108566880226135f,0.013727543875575066f,0.018177732825279236f,-0.022937508299946785f,
0.0029284516349434853f,-0.054968785494565964f,-0.024979446083307266f,-0.03419347479939461f,0.08847583085298538f,
0.11812425404787064f,0.05639677122235298f,0.08380699902772903f,0.08617513626813889f,0.16488738358020782f,
-0.12594963610172272f,0.07809292525053024f,-0.041824694722890854f,0.0039394311606884f,-0.04443596675992012f,
0.012787136249244213f,-0.020337723195552826f,-0.027482951059937477f,-0.021019699051976204f,-0.01712970621883869f,
-0.02293923869729042f,-0.012099790386855602f,0.030821815133094788f,0.0073454976081848145f,0.006088566966354847f,
0.01744479313492775f,0.021965391933918f,-0.003038757247850299f,-0.022825315594673157f,-0.050237275660037994f,
0.002082982799038291f,0.053324002772569656f,0.0680069699883461f,0.016882121562957764f,-0.05359714478254318f,
0.013503755442798138f,0.07733339071273804f,0.038951169699430466f,0.053086504340171814f,0.002694745548069477f,
0.08092997223138809f,0.00447839917615056f,-0.02119341492652893f,-0.06272590160369873f,-0.06920298933982849f,
-0.020403919741511345f,-0.09292241930961609f,-0.009827395901083946f,0.02421426773071289f,0.03147350251674652f,
-0.008133003488183022f,-0.006999790668487549f,0.018693989142775536f,0.01564415544271469f,0.04427109286189079f,
-0.041600871831178665f,-0.038228586316108704f,-0.017164943739771843f,-0.02881097048521042f,0.023605460301041603f,
-0.02590159699320793f,-0.005361373536288738f,-0.09331579506397247f,-0.053113874047994614f,0.02705853432416916f,
0.06820893287658691f,0.13687588274478912f,0.06528320908546448f,0.06745094060897827f,0.04297373443841934f,
0.01736646331846714f,-0.015490199439227581f,-0.05252745375037193f,-0.060701049864292145f,-0.10926993191242218f,
0.0673556998372078f,0.029518840834498405f,0.019085971638560295f,0.014345431700348854f,-0.0011445303680375218f,
0.05661151558160782f,0.015699690207839012f,0.04911402612924576f,-0.014056160114705563f,-0.027880819514393806f,
-0.09694260358810425f,-0.09277169406414032f,-0.031786080449819565f,-0.010997634381055832f,-0.06873729825019836f,
-0.06517388671636581f,-0.08485440909862518f,-0.055032599717378616f,-0.051009658724069595f,-0.02365144155919552f,
-0.0437549464404583f,-0.0460377037525177f,0.016704965382814407f,0.07728300243616104f,0.04548963904380798f,
-0.03638549521565437f,-0.049599383026361465f,0.007229868322610855f,0.09466410428285599f,0.1348988264799118f,
0.03877006843686104f,0.009063498117029667f,0.05882507190108299f,0.04472677782177925f,0.0261954627931118f,
0.051902756094932556f,0.033783167600631714f,-0.01264512911438942f,-0.10229217261075974f,-0.06492151319980621f,
0.01657004840672016f,-0.05161193385720253f,-0.021298855543136597f,-0.04158007353544235f,-0.016733497381210327f,
-0.0028277100063860416f,-0.0609084814786911f,-0.039189234375953674f,-0.0496491938829422f,-0.02007162757217884f,
0.04114338755607605f,0.05556478723883629f,0.045446645468473434f,0.07060184329748154f,0.012210984714329243f,
0.06530401855707169f,0.05166235193610191f,0.04001452028751373f,0.029490504413843155f,0.03610878437757492f,
0.05211414024233818f,0.03909319266676903f,0.05720483139157295f,-0.005427362862974405f,0.031032782047986984f,
-0.047825030982494354f,-0.049610503017902374f,0.047983281314373016f,-0.03947709500789642f,-0.014978528022766113f,
0.0675194188952446f,0.004292245488613844f,0.05363744497299194f,0.09578149020671844f,0.012840201146900654f,
-0.04070362076163292f,-0.042953260242938995f,-0.03285403922200203f,-0.043237194418907166f,-0.10357600450515747f,
0.04082709178328514f,-0.050936877727508545f,-0.07120762020349503f,0.017055483534932137f,0.00661449646577239f,
-0.0009834612719714642f,0.002832849510014057f,0.030644012615084648f,0.03095681220293045f,0.039397429674863815f,
0.014444486238062382f,-0.0002104348677676171f,0.013943270780146122f,-0.05994609743356705f,-0.026416808366775513f,
0.0692194253206253f,-0.013961078599095345f,0.09756231307983398f,0.12757991254329681f,0.0631224662065506f,
0.1169302761554718f,0.09049174189567566f,0.09542609751224518f,0.01965019479393959f,-0.04780330881476402f,
-0.03727605938911438f,-0.20204834640026093f,-0.14111410081386566f,-0.022583262994885445f,-0.06414004415273666f,
-0.08483076095581055f,-0.04663359746336937f,-0.03980332240462303f,-0.029455866664648056f,-0.04865824431180954f,
0.01935003139078617f,0.054578233510255814f,-0.0013042223872616887f,0.05609380453824997f,0.06867057085037231f,
0.0474185086786747f,0.037483371794223785f,-0.005464774090796709f,0.0438932441174984f,0.11102630943059921f,
0.21337053179740906f,0.1280604749917984f,-0.001761323888786137f,0.09987340867519379f,0.01010192185640335f,
0.06068980693817139f,0.08966323733329773f,-0.020712994039058685f,-0.07324352115392685f,-0.08551914989948273f,
-0.1391695737838745f,-0.01000887993723154f,-0.07021251320838928f,-0.02635667659342289f,-0.07857245206832886f,
-0.08752771466970444f,-0.07318782806396484f,0.0038595155347138643f,0.010305291973054409f,0.03144150972366333f,
0.009859378449618816f,0.04866699129343033f,0.04931457340717316f,0.009590975940227509f,0.04156584292650223f,
0.011367326602339745f,-0.03710442781448364f,0.12527981400489807f,0.21725162863731384f,0.2658650279045105f,
0.17675523459911346f,0.1557752937078476f,0.026716480031609535f,-0.02262490801513195f,0.04473041743040085f,
0.052083611488342285f,0.021761607378721237f,-0.010537893511354923f,-0.050561871379613876f,-0.02386687695980072f,
-0.007191767916083336f,0.01494566723704338f,-0.04409042373299599f,-0.15295745432376862f,-0.08991260081529617f,
0.00614816602319479f,-0.010403339751064777f,0.031140314415097237f,-0.006046794354915619f,0.027236662805080414f,
-0.03983553498983383f,-0.0024485362228006124f,-0.03842759504914284f,-0.13539062440395355f,-0.05962027609348297f,
0.08396114408969879f,0.11909623444080353f,0.1853121966123581f,0.19314824044704437f,0.14804847538471222f,
0.088306725025177f,0.03147102892398834f,-0.035584546625614166f,0.03946366161108017f,-0.07184542715549469f,
0.009405518881976604f,-0.010974840261042118f,-0.05969782546162605f,0.026962745934724808f,-0.09865269809961319f,
-0.13415484130382538f,-0.14935557544231415f,-0.11365938931703568f,-0.040868353098630905f,0.04077177122235298f,
0.04174816235899925f,0.03487227484583855f,0.01023404486477375f,0.018634876236319542f,-0.0684262290596962f,
-0.09102936834096909f,-0.23766031861305237f,-0.231016606092453f,-0.16374832391738892f,-0.043417975306510925f,
0.025301240384578705f,0.027788439765572548f,0.08975661545991898f,0.07965406030416489f,0.02953016757965088f,
0.10736603289842606f,-0.05002224072813988f,-0.10922148823738098f,-0.0650557279586792f,-0.062431029975414276f,
-0.03186226636171341f,-0.05802381411194801f,-0.13124161958694458f,-0.1544819176197052f,-0.07657548785209656f,
-0.06868905574083328f,0.004076453857123852f,0.02344723790884018f,0.03361355885863304f,0.0473284088075161f,
0.03625190630555153f,-0.04175526276230812f,-0.0791594386100769f,-0.1563495546579361f,-0.23778723180294037f,
-0.40618810057640076f,-0.48210006952285767f,-0.3554530143737793f,-0.2710186541080475f,-0.0684492364525795f,
-0.06536412984132767f,-0.0013484216760843992f,0.04164323955774307f,-0.11465197056531906f,-0.07608912885189056f,
-0.07339880615472794f,-0.10910177230834961f,-0.1544758379459381f,-0.03264444321393967f,-0.10219796746969223f,
-0.12235575914382935f,-0.15262459218502045f,-0.10898023843765259f,-0.0012206179089844227f,0.0557456910610199f,
0.041764579713344574f,-0.01120859943330288f,-0.009739925153553486f,0.03314581885933876f,0.005921758245676756f,
-0.05902194231748581f,-0.19938024878501892f,-0.20824582874774933f,-0.3368069529533386f,-0.3849988877773285f,
-0.41481053829193115f,-0.35535943508148193f,-0.22258207201957703f,-0.14899714291095734f,-0.06104619801044464f,
-0.06497308611869812f,-0.05951821431517601f,-0.05591197311878204f,-0.12975934147834778f,-0.114210344851017f,
-0.08042977005243301f,-0.13131403923034668f,-0.10029303282499313f,-0.17409977316856384f,-0.11436212062835693f,
-0.07973918318748474f,0.024798337370157242f,0.049149032682180405f,0.05771327018737793f,0.03990526124835014f,
0.01702355407178402f,0.02511528879404068f,0.016208216547966003f,-0.06487259268760681f,-0.07945045083761215f,
-0.09430509805679321f,-0.1111387312412262f,-0.16396751999855042f,-0.1065426617860794f,-0.14524145424365997f,
-0.1362139731645584f,-0.16067834198474884f,-0.04028176888823509f,-0.011925062164664268f,-0.02096962369978428f,
-0.07959116995334625f,-0.045993342995643616f,-0.03781060129404068f,-0.05054843798279762f,-0.10791494697332382f,
-0.10430058091878891f,-0.017545735463500023f,-0.08070649951696396f,-0.026959985494613647f,-0.018032575026154518f,
0.0023797962348908186f,-0.011238371953368187f,0.0540107898414135f,-0.011679543182253838f,0.0015072071691974998f,
-0.02648361213505268f,0.030532298609614372f,0.04493064060807228f,0.045987825840711594f,0.12093527615070343f,
0.044884078204631805f,0.09871745854616165f,0.14986194670200348f,0.0309101864695549f,0.04844054579734802f,
-0.07815853506326675f,-0.051512133330106735f,0.005533338058739901f,-0.025381993502378464f,-0.1580410599708557f,
-0.0918118879199028f,-0.1337290108203888f,-0.1077905222773552f,-0.0457482784986496f,-0.050510652363300323f,
-0.08225845545530319f,0.018965590745210648f,0.040400996804237366f,0.010872635059058666f,0.02978779748082161f,
0.05843715742230415f,-0.0121209267526865f,-0.006568438373506069f,0.04076315462589264f,0.0006368816248141229f,
0.08035064488649368f,0.12016342580318451f,0.12381861358880997f,0.12776334583759308f,0.11403533071279526f,
0.16089731454849243f,0.11013124883174896f,0.059148065745830536f,-0.05200918763875961f,-0.09686106443405151f,
-0.07012542337179184f,-0.12506192922592163f,-0.10099510848522186f,-0.11959832161664963f,-0.1405407041311264f,
-0.07550870627164841f,-0.10259825736284256f,-0.05113920196890831f,-0.028887087479233742f,0.032727912068367004f,
0.010064355097711086f,0.029443033039569855f,0.01465373020619154f,-0.0038457815535366535f,0.015898456797003746f,
-0.006688847206532955f,0.035564154386520386f,0.0806979313492775f,0.08554372936487198f,0.12044931203126907f,
0.10708115994930267f,0.14097905158996582f,0.10730818659067154f,0.0969465970993042f,0.06405264884233475f,
-0.008248894475400448f,-0.0019943099468946457f,-0.03106423281133175f,-0.09416910260915756f,-0.10704874247312546f,
-0.020902736112475395f,-0.0985974669456482f,-0.041869014501571655f,-0.06360006332397461f,-0.08880121260881424f,
-0.026639282703399658f,0.0011306940577924252f,0.01720944605767727f,0.011193380691111088f,0.034336939454078674f,
-0.009265088476240635f,-0.0007589452434331179f,0.028639627620577812f,0.057555392384529114f,0.020783167332410812f,
0.09341348707675934f,0.09636596590280533f,0.1050189957022667f,0.13380958139896393f,0.12491923570632935f,
0.10036439448595047f,0.11405626684427261f,-0.048270612955093384f,-0.17417337000370026f,-0.09250229597091675f,
-0.10002604871988297f,-0.11652427166700363f,-0.21099822223186493f,-0.10165470093488693f,-0.05839666351675987f,
-0.03385627269744873f,0.0027675942983478308f,0.028498800471425056f,0.06790760159492493f,0.05842870473861694f,
0.027481485158205032f,0.0364004485309124f,0.04133996739983559f,0.003172685159370303f,0.0074002500623464584f,
0.02140202932059765f,0.03807902708649635f,0.05654865875840187f,0.024686699733138084f,0.025045005604624748f,
0.04068142920732498f,0.04469802603125572f,0.11390101909637451f,0.07282297313213348f,-0.018483100458979607f,
-0.028364459052681923f,0.00512887816876173f,0.0033615005668252707f,-0.015657635405659676f,0.004955310374498367f,
-0.008439789526164532f,0.0030916589312255383f,0.019856570288538933f,0.050306349992752075f,0.07794319093227386f,
0.07234616577625275f,0.07134165614843369f,0.004526641219854355f,-0.010758626274764538f,-0.002211672719568014f,
0.01742647774517536f,0.03309985622763634f,0.015403876081109047f,0.030555618926882744f,0.036286186426877975f,
0.0051646241918206215f,0.041401494294404984f,0.061142101883888245f,0.05707280710339546f,0.07612312585115433f,
0.033502429723739624f,0.10995599627494812f,0.10999780148267746f,0.08144992589950562f,0.10798655450344086f,
0.11506015807390213f,0.10138203203678131f,0.1288667768239975f,0.09810411185026169f,0.10047025233507156f,
0.0696367472410202f,0.02830105647444725f,0.08715303242206573f,0.08418872207403183f,0.009562862105667591f,
-0.0036758449859917164f,0.019798429682850838f,0.00739478413015604f,0.02111797221004963f,0.051443006843328476f,
0.007098735310137272f,0.017413577064871788f,0.012598571367561817f,0.02979399636387825f,0.017848750576376915f,
0.007775386795401573f,-0.0032604902517050505f,0.021838050335645676f,-0.00116843287833035f,0.017279336228966713f,
0.0076538980938494205f,0.04972422868013382f,0.018849696964025497f,0.022825011983513832f,0.0659763440489769f,
0.009970273822546005f,0.03499605506658554f,0.05469134449958801f,0.055191367864608765f,0.05148083716630936f,
0.05828209966421127f,0.013005922548472881f,0.007138925604522228f,0.025969432666897774f,0.05878410115838051f,
0.0044259605929255486f,-0.005409776233136654f,0.04596356675028801f,0.03144967183470726f,0.004505859687924385f,
-0.02285657823085785f,0.00039890618063509464f,-0.003976235631853342f,0.017023488879203796f,-0.014371871016919613f,
-0.017931688576936722f,0.012382784858345985f,0.00721273897215724f,-0.02298608422279358f,-0.016479935497045517f,
-0.017609745264053345f,-0.011143483221530914f,-0.017369527369737625f,-0.019490238279104233f,-0.014030471444129944f,
-0.019711758941411972f,0.0011813315795734525f,0.0011626144405454397f,0.03222793713212013f,-0.02272024005651474f,
0.026816997677087784f,0.003976308740675449f,-0.02340053766965866f,-0.01539712492376566f,-0.019880425184965134f,
0.014927146956324577f,0.015101008117198944f,0.003456635633483529f,-0.031960710883140564f,0.005320413503795862f,
-0.005156949628144503f,0.008664765395224094f,-0.006203921977430582f,0.02045968919992447f,-0.025163371115922928f,
0.010271787643432617f,0.014339601621031761f,-0.01896246150135994f,0.03554117679595947f,0.006819332949817181f,
-0.011688279919326305f,-0.028965450823307037f,0.0006089251837693155f,-0.009202907793223858f,0.0038073391187936068f,
0.0038123822305351496f,0.00920074712485075f,-0.013022223487496376f,0.007528503891080618f,-0.014777212403714657f,
0.017241021618247032f,0.02941511943936348f,0.005632199812680483f,0.0169010479003191f,-0.015896057710051537f,
0.001865755650214851f,-0.02896837145090103f,0.03054717741906643f,-0.017958106473088264f,0.018610229715704918f,
0.020130494609475136f,0.0336492694914341f,-0.004022920038551092f,-0.03860338777303696f,0.0018364239949733019f,
-0.02330133132636547f,-0.02234959974884987f,-0.030272141098976135f,-0.037975311279296875f,-0.025771068409085274f,
0.0013826278736814857f,0.058558929711580276f,0.011759091168642044f,0.014416026882827282f,-0.01055981032550335f,
-0.023063093423843384f,0.030482390895485878f,-0.001258184784092009f,-0.024134362116456032f,-0.0033833521883934736f,
0.030110303312540054f,0.004566339310258627f,0.017552286386489868f,-0.028096526861190796f,-0.02403310500085354f,
0.023019583895802498f,0.014602815732359886f,-0.03216395527124405f,-0.016395794227719307f,-0.023952879011631012f,
0.013591310009360313f,-0.036627233028411865f,-0.0325634591281414f,-0.0637388825416565f,-0.012183640152215958f,
-0.025590229779481888f,0.009374422952532768f,0.04848499596118927f,0.01631750725209713f,0.07787903398275375f,
0.10564794391393661f,0.07646480947732925f,0.0974588692188263f,0.028537973761558533f,0.05859264358878136f,
0.02527339942753315f,-0.019787944853305817f,0.01064976118505001f,0.005433622747659683f,-0.014178520068526268f,
0.026646379381418228f,0.02227932959794998f,0.013014428317546844f,0.015855226665735245f,0.016397668048739433f,
-0.02574917860329151f,-0.06591499596834183f,-0.025331279262900352f,-0.0912134051322937f,-0.07831079512834549f,
-0.036680467426776886f,-0.06555729359388351f,-0.048232302069664f,-0.13710179924964905f,0.052372582256793976f,
0.12145205587148666f,0.13906648755073547f,0.14290264248847961f,0.09752985835075378f,0.05519595369696617f,
0.06841161847114563f,0.10203256458044052f,0.06649915874004364f,0.057755693793296814f,0.09165138751268387f,
0.02842818945646286f,0.003597865579649806f,-0.009532148018479347f,0.017385153099894524f,0.012276550754904747f,
-0.0022014144342392683f,-0.04059901088476181f,-0.06756722927093506f,-0.0464792475104332f,-0.06309445947408676f,
-0.11080335825681686f,-0.06017424911260605f,-0.024919364601373672f,0.015543998219072819f,-0.03765973448753357f,
0.014578579925000668f,0.0807613879442215f,0.05576985701918602f,0.009229056537151337f,0.013886785134673119f,
0.1409938782453537f,0.09553255885839462f,0.07137634605169296f,0.17149484157562256f,0.07164040207862854f,
0.1360706090927124f,0.08040177822113037f,0.04343219846487045f,0.030929528176784515f,-0.018308933824300766f,
-0.027744343504309654f,0.0007260109996423125f,-0.013426292687654495f,-0.03012997657060623f,-0.00615001330152154f,
-0.03813941031694412f,-0.07867918163537979f,-0.14630606770515442f,-0.1223631277680397f,-0.0355493426322937f,
-0.06596992164850235f,-0.05422871559858322f,0.004373169969767332f,-0.02501799166202545f,0.03690730780363083f,
0.1082635372877121f,0.11135917156934738f,0.08370119333267212f,0.12295997887849808f,0.08926613628864288f,
0.14734551310539246f,0.15720273554325104f,0.04839133843779564f,0.054307032376527786f,0.06520581245422363f,
0.0652928575873375f,0.050526559352874756f,-0.0030226183589547873f,0.0331035777926445f,-0.029853984713554382f,
-0.0018124566413462162f,0.021645691245794296f,-0.030161647126078606f,-0.07415847480297089f,-0.08831273019313812f,
-0.11979728937149048f,-0.13675400614738464f,-0.06386912614107132f,-0.08359992504119873f,-0.004664044827222824f,
-0.04644189774990082f,-0.020795904099941254f,0.035821594297885895f,0.13912925124168396f,0.1671474575996399f,
0.14995485544204712f,0.07974234968423843f,0.09280050545930862f,0.1363910734653473f,0.14735066890716553f,
0.10700033605098724f,0.10864593088626862f,0.06982944160699844f,0.012316931039094925f,0.014769421890377998f,
0.0010261870920658112f,0.015495376661419868f,-0.015757720917463303f,-0.025866510346531868f,-0.01601017452776432f,
-0.020674940198659897f,-0.04727105051279068f,-0.08461473882198334f,-0.06685753166675568f,-0.09458506107330322f,
-0.012532244436442852f,-0.0451260544359684f,-0.07284769415855408f,0.04524202644824982f,0.007323702331632376f,
0.0012631178833544254f,-0.029971593990921974f,0.03535952419042587f,0.03831499069929123f,-0.033327750861644745f,
0.031590256839990616f,0.015380888245999813f,0.07240334898233414f,0.0872109904885292f,0.04064613953232765f,
0.03708498552441597f,0.10284724086523056f,0.061605311930179596f,-0.012730970978736877f,-0.004754029680043459f,
0.0026829021517187357f,-0.0010426949011161923f,-0.012959416024386883f,0.01523967832326889f,-0.035098716616630554f,
-0.09297686815261841f,-0.021937062963843346f,-0.041831184178590775f,0.0075226123444736f,0.005987822078168392f,
0.06576132029294968f,0.03960435464978218f,0.004774135071784258f,0.03678862750530243f,-0.11404625326395035f,
-0.3035150468349457f,-0.28675758838653564f,-0.19529855251312256f,-0.18515045940876007f,-0.1948690265417099f,
-0.08405568450689316f,-0.015842653810977936f,-0.026138266548514366f,0.053718406707048416f,0.14718961715698242f,
0.09019212424755096f,0.006050596944987774f,-0.041316449642181396f,0.014522997662425041f,0.019845886155962944f,
0.0014751168200746179f,-0.0027733398601412773f,-0.0351841114461422f,-0.03387440741062164f,-0.05981118232011795f,
-0.030991561710834503f,0.08090093731880188f,0.12170832604169846f,0.03279896453022957f,0.09547886997461319f,
0.15729540586471558f,-0.04791652783751488f,-0.06431932002305984f,-0.27631235122680664f,-0.2685755789279938f,
-0.22063082456588745f,-0.08175556361675262f,-0.1664949655532837f,-0.012960508465766907f,-0.08727557957172394f,
-0.020258348435163498f,0.011408885009586811f,0.06351137906312943f,0.04706067964434624f,-0.027907542884349823f,
-0.025078635662794113f,0.02780652604997158f,0.023731203749775887f,0.006254913285374641f,-0.01862136647105217f,
-0.0012140176258981228f,-0.06608554720878601f,-0.04652668163180351f,0.04816218093037605f,0.0611172579228878f,
0.030304042622447014f,0.03173239156603813f,0.06521453708410263f,0.05376863107085228f,-0.018011655658483505f,
-0.05242902413010597f,-0.05478084459900856f,0.029038170352578163f,0.03410448506474495f,0.12124530225992203f,
0.010282212868332863f,-0.017801176756620407f,-0.10816027224063873f,-0.08322581648826599f,0.0012289868900552392f,
0.06699875742197037f,-0.005464897025376558f,-0.014022116549313068f,-0.0017309783725067973f,-0.0207535233348608f,
0.020304933190345764f,-0.017409328371286392f,0.003303897799924016f,-0.00759917963296175f,0.0011839623330160975f,
-0.02930409647524357f,-0.05011046677827835f,-0.029733633622527122f,-0.053706277161836624f,-0.07608673721551895f,
0.006638370919972658f,-0.10913784801959991f,-0.02553393505513668f,0.10170019418001175f,0.01900891773402691f,
-0.01679445616900921f,0.10874425619840622f,0.1022961437702179f,0.08543269336223602f,0.019986577332019806f,
-0.04068968817591667f,0.022575870156288147f,0.04808887466788292f,0.03217410296201706f,-0.005416952073574066f,
0.03695021569728851f,0.027910292148590088f,0.003841432509943843f,0.02373902127146721f,-0.03132746368646622f,
-0.03448270261287689f,-0.002834003884345293f,-0.06220570206642151f,-0.09061387926340103f,-0.0010852861450985074f,
-0.027581095695495605f,-0.01834518276154995f,-0.030391985550522804f,0.04478088393807411f,-0.0011464377166703343f,
0.07388298213481903f,0.09655900299549103f,0.1046995148062706f,0.07263091951608658f,0.029570112004876137f,
-0.011633836664259434f,0.0943700447678566f,-0.01700308360159397f,-0.08274288475513458f,-0.0422012060880661f,
-0.021515345200896263f,-0.032695088535547256f,-0.004029219504445791f,-0.030100231990218163f,-0.004490571562200785f,
0.03222303092479706f,-0.020431742072105408f,-0.0255499929189682f,-0.013060915283858776f,-0.009219218045473099f,
-0.05610186979174614f,-0.08942005038261414f,-0.10895153135061264f,-0.12906920909881592f,-0.10126876831054688f,
-0.0138363316655159f,0.05695349723100662f,-0.010137543082237244f,0.0352177694439888f,0.051374927163124084f,
0.08363819867372513f,-0.007903178222477436f,-0.03488535061478615f,-0.053462136536836624f,-0.032423652708530426f,
-0.03954164311289787f,-0.039143893867731094f,-0.06048719957470894f,-0.012569664046168327f,0.006916244979947805f,
-0.06299500167369843f,-0.022111432626843452f,0.017295535653829575f,-0.0023599027190357447f,-0.007973961532115936f,
0.003063586773350835f,-0.0103502431884408f,-0.029526615515351295f,-0.052028805017471313f,-0.11160336434841156f,
-0.16765616834163666f,-0.2145020216703415f,-0.12550805509090424f,-0.06973112374544144f,-0.06271471828222275f,
0.04566643759608269f,-0.00333687337115407f,-0.012404661625623703f,-0.052193738520145416f,0.05454735830426216f,
0.005833508912473917f,0.045987725257873535f,-0.08675168454647064f,0.014628732576966286f,-0.08507551997900009f,
-0.08201249688863754f,0.023894647136330605f,-0.010424723848700523f,-0.04082515835762024f,-0.0029845794197171926f,
0.02431553229689598f,0.0193586777895689f,0.03237614780664444f,0.007938171736896038f,-0.0016621494432911277f,
-0.043262191116809845f,-0.0154937244951725f,-0.07791522890329361f,-0.16513825953006744f,-0.16801759600639343f,
-0.1970544457435608f,-0.16726800799369812f,-0.10483497381210327f,-0.011837205849587917f,-0.0378662571310997f,
0.006456572562456131f,0.10139518976211548f,0.008373790420591831f,0.07145362347364426f,-0.0020631123334169388f,
-0.0770919993519783f,-0.035168230533599854f,-0.11250083893537521f,-0.014721584506332874f,-0.0784124806523323f,
-0.03615833446383476f,-0.031174350529909134f,-0.0014051515609025955f,-0.008924046531319618f,-0.020537126809358597f,
0.0010750674409791827f,-0.034281905740499496f,0.020279986783862114f,-0.011400764808058739f,-0.014565180987119675f,
-0.01089695654809475f,-0.013931883499026299f,-0.10689418017864227f,-0.09735068678855896f,-0.07673686742782593f,
-0.027330489829182625f,-0.1187744066119194f,-0.08704748004674911f,-0.05172232538461685f,0.17310978472232819f,
0.07438348978757858f,0.10256525874137878f,-0.018769921734929085f,-0.04816465824842453f,-0.056295108050107956f,
-0.02415289916098118f,-0.02578381821513176f,-0.03131795674562454f,-0.03249645605683327f,-0.042359545826911926f,
-0.008310574106872082f,-0.015562888234853745f,0.014371620491147041f,-0.019461529329419136f,-0.031222209334373474f,
0.007985693402588367f,0.009302119724452496f,0.006578200962394476f,0.02349170669913292f,0.09392138570547104f,
0.001712882425636053f,-0.02907339110970497f,-0.006642245687544346f,-0.0004899431951344013f,-0.16129302978515625f,
-0.14970485866069794f,-0.02445327490568161f,0.13027149438858032f,0.09225493669509888f,0.09131301194429398f,
-0.0711907222867012f,-0.09254245460033417f,-0.068711057305336f,-0.09280399233102798f,-0.09633676707744598f,
-0.09104450047016144f,-0.10345634073019028f,-0.02588251605629921f,0.013845270499587059f,0.03094705007970333f,
0.007019696291536093f,-0.023853380233049393f,0.03664667531847954f,0.013850598596036434f,0.01945415325462818f,
0.08216434717178345f,0.10039452463388443f,0.07099100947380066f,0.11577971279621124f,-0.06326621025800705f,
0.04412781074643135f,-0.05945143476128578f,0.052074238657951355f,-0.06729104369878769f,0.04788525402545929f,
0.037177927792072296f,0.04643087834119797f,0.03083009645342827f,-0.009859154000878334f,-0.0404917411506176f,
-0.03005402535200119f,-0.05231625586748123f,-0.019453339278697968f,-0.03538370877504349f,-0.020424209535121918f,
0.008491162210702896f,-0.041217949241399765f,-0.03446006774902344f,-0.01651649922132492f,0.019721688702702522f,
-0.001449373085051775f,-0.040163855999708176f,0.011851026676595211f,0.1459372490644455f,0.06297415494918823f,
0.04961888864636421f,0.0926903784275055f,0.1517789363861084f,0.04464661702513695f,0.08168315142393112f,
0.018013061955571175f,0.06745680421590805f,0.01723095215857029f,0.010283016599714756f,-0.004697185009717941f,
0.054225075989961624f,0.025524813681840897f,-0.020928317680954933f,-0.1046859472990036f,-0.10817689448595047f,
-0.04590478911995888f,-0.06028210371732712f,-0.03774091973900795f,0.015338744036853313f,-0.0013394069392234087f,
0.01369636319577694f,0.009959056973457336f,0.033287107944488525f,-0.01932244934141636f,-0.017282849177718163f,
0.007222217041999102f,0.10965058952569962f,0.030723366886377335f,0.09770621359348297f,0.023542607203125954f,
0.11427509784698486f,0.05257750302553177f,0.12051977962255478f,0.107170969247818f,0.13298486173152924f,
0.036561548709869385f,0.062453292310237885f,0.02932376228272915f,0.06500298529863358f,0.014788375236093998f,
-0.04996111989021301f,-0.09420771151781082f,-0.07021303474903107f,-0.10640984773635864f,-0.026636669412255287f,
0.024547750130295753f,0.012732730247080326f,-0.003214723663404584f,0.02137412130832672f,-0.029142532497644424f,
0.03450951725244522f,-0.02237490378320217f,-0.0201179888099432f,0.006556092295795679f,-0.02552311308681965f,
-0.010336140170693398f,-0.024039190262556076f,-0.009499872103333473f,-0.04279116541147232f,0.012217337265610695f,
0.10824767500162125f,0.09123961627483368f,0.07348563522100449f,0.13941994309425354f,0.1690625548362732f,
0.005195715930312872f,0.02377450279891491f,-0.030951736494898796f,-0.048337019979953766f,-0.1598447859287262f,
-0.15641383826732635f,-0.12186243385076523f,-0.004852235317230225f,0.00120341416914016f,-0.027609899640083313f,
0.02875153347849846f,-0.01998911425471306f,-0.018196146935224533f,0.02926206961274147f,-0.007962159812450409f,
0.038570184260606766f,-0.010832378640770912f,0.03689175844192505f,0.0004800883471034467f,-0.03995632752776146f,
-0.004604848101735115f,-0.020646778866648674f,0.05481796711683273f,0.05378396809101105f,0.030071523040533066f,
0.04707885533571243f,0.15159183740615845f,0.1083424910902977f,0.009083802811801434f,-0.04996068775653839f,
-0.04483364149928093f,-0.0675380602478981f,-0.10133406519889832f,-0.09786205738782883f,-0.04013827443122864f,
-0.00933809857815504f,-0.03037450462579727f,0.018705982714891434f,-0.03325847163796425f,-0.010244712233543396f,
-0.0348038375377655f,-0.034241676330566406f,-0.012068494223058224f,0.04090425372123718f,-0.0013294643722474575f,
-0.06294352561235428f,-0.045168545097112656f,0.01723874919116497f,0.020945077762007713f,0.09720812737941742f,
0.10172682255506516f,-0.010019799694418907f,0.06266073137521744f,0.03716430813074112f,0.006536182947456837f,
0.003729603486135602f,-0.03139312565326691f,-0.09549851715564728f,-0.00940191000699997f,-0.010916340164840221f,
-0.02067028172314167f,-0.05667956918478012f,-0.024045411497354507f,-0.02717670053243637f,-0.023572398349642754f,
0.019209904596209526f,-0.03519222512841225f,-0.02027473971247673f,-0.0038131491746753454f,-0.03285226970911026f,
-0.016906749457120895f,0.019277693703770638f,-0.049682945013046265f,-0.02443620190024376f,-0.018401669338345528f,
-0.023238638415932655f,0.06275653839111328f,0.1043228730559349f,0.11398164927959442f,0.06967759877443314f,
0.11754688620567322f,0.11167857050895691f,0.06462056934833527f,0.07113686203956604f,0.12136849761009216f,
0.1419687718153f,0.0557543970644474f,0.046878162771463394f,0.020625069737434387f,0.06309052556753159f,
0.0008730385452508926f,0.013580789789557457f,-0.007554391399025917f,0.020681777969002724f,0.031502846628427505f,
0.00817711278796196f,-0.011135615408420563f,0.0028963626828044653f,-0.014548156410455704f,0.00661788834258914f,
-0.010320079512894154f,-0.009706811048090458f,0.0011305445805191994f,0.012662965804338455f,0.009277447126805782f,
0.06438799947500229f,0.023120418190956116f,0.05189772695302963f,0.04924270883202553f,0.10320957005023956f,
0.07352585345506668f,0.10175126791000366f,0.12195946276187897f,0.09145792573690414f,0.05850359424948692f,
0.010679011233150959f,0.0065264711156487465f,-0.0219953041523695f,0.03343142569065094f,0.02062048763036728f,
-0.022876091301441193f,-0.009875381365418434f,0.010568991303443909f,0.0293593667447567f,-0.02906522899866104f,
0.021667618304491043f,-0.016494320705533028f,0.014867393299937248f,-4.6963301429059356e-05f,0.03350510820746422f,
0.02012079395353794f,0.025321662425994873f,0.011597453616559505f,0.022167759016156197f,0.01603546179831028f,
0.010513010434806347f,0.024282915517687798f,0.015408871695399284f,0.04371299594640732f,0.0022228769958019257f,
0.02110259421169758f,0.01201147772371769f,0.014984565787017345f,0.021865468472242355f,-0.03279929608106613f,
0.006617383565753698f,0.002623411826789379f,-0.012665001675486565f,0.011999787762761116f,-0.008768290281295776f,
-0.02191774919629097f,-0.025264643132686615f,0.02482566051185131f,0.036657873541116714f,0.03324886038899422f,
0.0069857146590948105f,0.007684388197958469f,-0.0076208715327084064f,-0.005584303289651871f,0.02749415673315525f,
-0.01751059480011463f,-0.032789427787065506f,-0.03415784612298012f,0.02713027410209179f,-0.020816544070839882f,
-0.012975772842764854f,0.02974945679306984f,-0.0345473438501358f,0.004071807023137808f,0.024765318259596825f,
-0.01033827755600214f,-0.020838866010308266f,0.01771358586847782f,-0.01375551987439394f,-0.02015564776957035f,
0.010147436521947384f,-0.014105248264968395f,0.002489580772817135f,-0.03335892781615257f,0.009106659330427647f,
0.006057216785848141f,-0.012566347606480122f,-0.015502274967730045f,-0.008522280491888523f,0.036105867475271225f,
0.028785740956664085f,0.022662518545985222f,0.028529956936836243f,-0.0030274612363427877f,-0.0076645007357001305f,
-0.02281617373228073f,-0.022379545494914055f,-0.04976712539792061f,-0.009033710695803165f,0.017241468653082848f,
-0.008175583556294441f,-0.02883986569941044f,0.015757374465465546f,-0.03870230168104172f,-0.0326976478099823f,
0.011208472773432732f,0.00592747563496232f,0.032061826437711716f,-0.032897353172302246f,0.0019549885764718056f,
0.003923400305211544f,-0.013757315464317799f,0.022029971703886986f,-0.02229577861726284f,0.036301251500844955f,
0.017481248825788498f,-0.0187381524592638f,0.023644711822271347f,-0.01720878668129444f,-0.0058197518810629845f,
-0.02405800111591816f,-0.02847539819777012f,-0.023328956216573715f,0.030896319076418877f,0.02060541883111f,
-0.04040946438908577f,-0.010902958922088146f,-0.009374281391501427f,-0.005141887813806534f,0.023056482896208763f,
-0.012053157202899456f,-0.004955666605383158f,-0.0069810026325285435f,-0.018453676253557205f,-0.03438802808523178f,
-0.0486505888402462f,-0.0325164869427681f,0.008443078957498074f,-0.019227806478738785f,0.0053861187770962715f,
0.020226741209626198f,0.0010748602217063308f,0.013402228243649006f,0.015847576782107353f,0.013887711800634861f,
-0.02562461420893669f,-0.03103720396757126f,-0.03930620104074478f,-0.04226330295205116f,-0.02592720277607441f,
0.01222288142889738f,-0.01597626693546772f,0.018217608332633972f,-0.009631219319999218f,-0.01258915476500988f,
-0.010689673945307732f,-0.0037786990869790316f,0.004892952740192413f,-0.036960575729608536f,-0.011505656875669956f,
-0.01979191042482853f,-0.014044090174138546f,0.0054713040590286255f,-0.05455750599503517f,-0.06869145482778549f,
-0.018106751143932343f,0.020987065508961678f,-0.026489000767469406f,0.033718373626470566f,0.03621264174580574f,
0.020985594019293785f,0.0005260662292130291f,0.01026186067610979f,-0.010971921496093273f,-0.005646154284477234f,
-0.038368623703718185f,0.008874782361090183f,-0.023939073085784912f,-0.022458236664533615f,0.058547042310237885f,
0.058126453310251236f,0.03285248950123787f,0.08539142459630966f,0.06578283756971359f,0.025936556980013847f,
-0.011047231033444405f,-0.03955331817269325f,-0.02822531759738922f,-0.044166725128889084f,-0.05972215533256531f,
-0.022380121052265167f,-0.06138337031006813f,-0.04004794731736183f,0.03506959602236748f,0.008835059590637684f,
0.0261213481426239f,-0.02947613038122654f,-0.012622206471860409f,0.010056954808533192f,-0.03194219991564751f,
-0.025955311954021454f,-0.033396314829587936f,0.03311361372470856f,0.021837256848812103f,0.04252934828400612f,
-0.03251338750123978f,-0.0205422081053257f,-0.02522713504731655f,-0.014502476900815964f,0.013784658163785934f,
-0.018099283799529076f,-0.032770704478025436f,0.01584360934793949f,0.09799317270517349f,0.039023514837026596f,
0.00916643813252449f,-0.09243640303611755f,0.031771887093782425f,0.04461628571152687f,0.047109488397836685f,
0.028103241696953773f,-0.006145135033875704f,0.005931975319981575f,-0.021215517073869705f,0.0011030812747776508f,
0.005055160727351904f,0.008508764207363129f,-0.008782090619206429f,0.023589517921209335f,0.006527762860059738f,
0.05186182260513306f,0.024365916848182678f,0.04998635873198509f,-0.0037648039869964123f,0.01148027740418911f,
-0.041122276335954666f,-0.11634393036365509f,-0.06319107860326767f,-0.018681904301047325f,-0.013223978690803051f,
-0.013841863721609116f,0.02626200206577778f,0.013990641571581364f,0.020555153489112854f,0.009315939620137215f,
-0.005811831448227167f,0.01955263316631317f,0.016598353162407875f,0.026855332776904106f,0.002213874366134405f,
-0.04113858938217163f,0.0031657132785767317f,-0.022201353684067726f,0.016106560826301575f,0.028609272092580795f,
-0.006102645769715309f,-0.02244747243821621f,0.03636001795530319f,0.0024293374735862017f,0.031744249165058136f,
-0.00250302255153656f,0.031122401356697083f,-0.056586213409900665f,-0.002314857440069318f,-0.08307528495788574f,
-0.10137981921434402f,-0.06723758578300476f,-0.00998131837695837f,0.033521197736263275f,-0.014284616336226463f,
0.03669646009802818f,-0.04844455420970917f,-0.002033973578363657f,0.023180555552244186f,-0.002613996621221304f,
0.034160006791353226f,0.026058785617351532f,0.037462081760168076f,0.018325291574001312f,0.0015631235437467694f,
0.004573776852339506f,-0.033455990254879f,-0.02036200277507305f,0.01869519241154194f,0.051064565777778625f,
-0.009604520164430141f,-0.019927510991692543f,-0.03620282933115959f,-0.07367264479398727f,-0.18184952437877655f,
-0.05286271497607231f,-0.07663939893245697f,-0.12126024812459946f,-0.07125046849250793f,-0.0905204713344574f,
-0.05121145769953728f,0.0783153548836708f,0.09047956764698029f,0.15747584402561188f,0.04696815088391304f,
0.1071586161851883f,0.03427491709589958f,0.021433494985103607f,0.06921690702438354f,0.0830378606915474f,
0.037149328738451004f,0.047883450984954834f,0.02695275843143463f,-0.029213229194283485f,-0.011246730573475361f,
-0.004371879156678915f,0.01658356934785843f,0.0019742706790566444f,0.006192678585648537f,-0.05138358473777771f,
-0.09401959925889969f,-0.09144868701696396f,-0.09889788180589676f,-0.04311603680253029f,-0.062381744384765625f,
0.04343874752521515f,0.014699594117701054f,0.01622801646590233f,0.012157110497355461f,0.05965026840567589f,
0.09624426066875458f,0.1931595653295517f,0.07579946517944336f,0.04022084176540375f,0.03790019080042839f,
0.0027251392602920532f,0.06315703690052032f,0.000515551830176264f,-0.018978985026478767f,0.0025009475648403168f,
0.025477396324276924f,0.02413376048207283f,0.0342688225209713f,0.027182264253497124f,0.016716009005904198f,
0.01323581114411354f,-0.018460188060998917f,-0.07500893622636795f,-0.08257442712783813f,-0.005619836505502462f,
-0.01119553204625845f,-0.05357171595096588f,0.0865478515625f,0.10188115388154984f,0.08361925184726715f,
-0.06906269490718842f,-0.10863734781742096f,-0.026181630790233612f,0.003559116506949067f,0.030249642208218575f,
0.04935629293322563f,-0.022725913673639297f,-0.02471051923930645f,-0.09610695391893387f,-0.02665792405605316f,
-0.05062410235404968f,-0.0007102065719664097f,-0.01972687803208828f,0.004073682706803083f,0.020602518692612648f,
0.029622530564665794f,0.026703685522079468f,-0.01044709887355566f,-0.028942156583070755f,-0.07455883920192719f,
-0.11676915735006332f,-0.05927442014217377f,-0.011922630481421947f,-0.04929644614458084f,-0.031217709183692932f,
-0.04736262187361717f,-0.09383173286914825f,-0.220692440867424f,-0.2181553691625595f,-0.1351720094680786f,
-0.07463400810956955f,0.006481956224888563f,0.0043998644687235355f,-0.019339844584465027f,0.01246590819209814f,
-0.05975082889199257f,-0.11815880239009857f,-0.004263419192284346f,-0.05784733593463898f,-0.0607072152197361f,
0.0008575493702664971f,0.006721255369484425f,-0.003630679100751877f,0.032197505235672f,0.03363415226340294f,
0.005590162705630064f,-0.007031641434878111f,-0.13291461765766144f,-0.08443088084459305f,-0.05889025703072548f,
-0.09075598418712616f,-0.1165890023112297f,-0.16572192311286926f,-0.030858857557177544f,-0.20285671949386597f,
-0.25275465846061707f,-0.18976140022277832f,-0.15290606021881104f,-0.09363824874162674f,-0.04400220513343811f,
-0.1127246618270874f,-0.1043022945523262f,0.0009252494783140719f,0.02490765042603016f,-0.02209678292274475f,
-0.08539421856403351f,-0.12445972859859467f,-0.10552603751420975f,0.019025936722755432f,0.006669489201158285f,
-0.016781289130449295f,-0.011279617436230183f,-0.003542759921401739f,0.009615093469619751f,-0.0163012333214283f,
-0.038842927664518356f,-0.05629034340381622f,-0.07133643329143524f,-0.0924370214343071f,-0.07852481305599213f,
-0.18122486770153046f,-0.08721297234296799f,-0.09418442845344543f,0.019089730456471443f,-0.04623258113861084f,
-0.167681485414505f,-0.08113161474466324f,-0.11100068688392639f,-0.05185753107070923f,-0.07637526094913483f,
-0.00039463810389861465f,-0.023822419345378876f,-0.02341359108686447f,-0.06845323741436005f,-0.08832136541604996f,
-0.04036906361579895f,0.009400608018040657f,-0.018075035884976387f,0.03890463337302208f,-0.032225560396909714f,
0.004528722260147333f,-0.024978192523121834f,0.0338384211063385f,0.03668194264173508f,-0.039508361369371414f,
0.005527519155293703f,0.05157431587576866f,-0.008223534561693668f,0.026716647669672966f,-0.013141753152012825f,
0.029537023976445198f,0.20259656012058258f,0.10775824636220932f,0.06983338296413422f,0.03649095445871353f,
0.026727136224508286f,0.09881303459405899f,0.01567903906106949f,0.03690936788916588f,0.03104996122419834f,
-0.01657142862677574f,-0.06537940353155136f,-0.12718112766742706f,0.010393399745225906f,0.0005282994243316352f,
0.020841490477323532f,-0.02874819003045559f,-0.00423044478520751f,-0.01676221750676632f,-0.0036416491493582726f,
0.06852438300848007f,0.12446527183055878f,0.07707621157169342f,0.07200746983289719f,0.022641120478510857f,
0.06728357076644897f,-0.012926914729177952f,0.07401122897863388f,0.11520412564277649f,0.14961466193199158f,
0.140339657664299f,0.13770818710327148f,0.15188822150230408f,0.11937636882066727f,0.08440566807985306f,
0.07002541422843933f,0.0015972761902958155f,-0.11630724370479584f,-0.057686030864715576f,0.0015422148862853646f,
-0.06632859259843826f,0.029792383313179016f,0.03583408519625664f,0.03263980150222778f,-0.031414858996868134f,
-0.026532454416155815f,-0.010155818425118923f,0.012289060279726982f,0.10965131223201752f,0.04597824439406395f,
0.13078224658966064f,0.2194308191537857f,0.16653746366500854f,0.0702083557844162f,0.09018319100141525f,
0.10635052621364594f,0.1641923487186432f,0.20023688673973083f,0.17958366870880127f,0.13529159128665924f,
0.19276806712150574f,0.11929987370967865f,0.06514130532741547f,0.07901600003242493f,0.08650986105203629f,
0.002108820714056492f,0.011693134903907776f,-0.02830474078655243f,0.02090817131102085f,0.012363292276859283f,
0.06412431597709656f,0.052648525685071945f,0.0020390856079757214f,-0.022004345431923866f,-0.03155090659856796f,
-0.0029109008610248566f,0.1039285734295845f,0.06039885804057121f,0.10202308744192123f,0.17909838259220123f,
0.18056946992874146f,0.1627998948097229f,0.1735352724790573f,0.19034413993358612f,0.19150638580322266f,
0.14337162673473358f,0.1169370636343956f,0.1620287448167801f,0.19488023221492767f,0.08574628829956055f,
0.0657312348484993f,0.017860138788819313f,0.012607386335730553f,-0.030332067981362343f,-0.02886386215686798f,
0.010781535878777504f,-0.042953357100486755f,-0.023912448436021805f,0.055289506912231445f,-0.007680273149162531f,
-0.02417631633579731f,0.025434037670493126f,0.030584970489144325f,0.0005763120134361088f,0.051126424223184586f,
0.10628959536552429f,0.09442751854658127f,0.11345577985048294f,0.11858664453029633f,0.10126849263906479f,
0.06670957803726196f,0.11516907066106796f,0.17748959362506866f,0.17116738855838776f,0.10344865173101425f,
0.1040605679154396f,0.08468718826770782f,0.14221292734146118f,0.01951127126812935f,0.0167984776198864f,
0.03073677234351635f,-0.04612208157777786f,-0.024979637935757637f,-0.021313974633812904f,0.02997184917330742f,
0.06433446705341339f,0.023789003491401672f,0.0376126691699028f,-0.023878805339336395f,-0.0026054270565509796f,
-0.01788805052638054f,0.015581974759697914f,0.021763060241937637f,0.10748235136270523f,0.09475250542163849f,
0.038122717291116714f,0.06509998440742493f,0.03920891508460045f,-0.07394243776798248f,-0.06645777821540833f,
-0.044242072850465775f,-0.14346253871917725f,-0.005316400900483131f,-0.026625849306583405f,0.021252429112792015f,
0.09309834241867065f,0.08075525611639023f,0.13319282233715057f,0.05518762767314911f,-0.025893744081258774f,
-0.02665811777114868f,-0.027450310066342354f,0.08698481321334839f,0.10484129935503006f,0.016977012157440186f,
-0.02029981091618538f,-0.01653229631483555f,-0.009810284711420536f,-0.015073533169925213f,0.03193666413426399f,
0.0711841955780983f,0.0847167894244194f,0.061730172485113144f,0.01089394185692072f,0.013948943465948105f,
0.04425917938351631f,-0.02119329944252968f,-0.22861863672733307f,-0.1800527423620224f,-0.29110386967658997f,
-0.21648439764976501f,-0.18411602079868317f,-0.14890404045581818f,0.015339179895818233f,0.10232272744178772f,
0.22066552937030792f,0.07303006947040558f,0.01531794760376215f,0.07900230586528778f,0.05163170397281647f,
0.08090289682149887f,0.0679025650024414f,0.03528411313891411f,0.00328869023360312f,-0.010891653597354889f,
0.00891096517443657f,0.023167867213487625f,0.03377438709139824f,0.05038827285170555f,0.07906831055879593f,
0.016995301470160484f,-0.07893438637256622f,-0.12214870750904083f,-0.07523836940526962f,-0.12842045724391937f,
-0.1773514300584793f,-0.21016699075698853f,-0.18631601333618164f,-0.23480376601219177f,-0.1949181705713272f,
-0.05225289613008499f,-0.00623042369261384f,0.0219898521900177f,0.15800094604492188f,0.11792692542076111f,
0.06986698508262634f,0.07019226998090744f,0.0444919727742672f,0.04397060349583626f,0.023179152980446815f,
0.0028595784679055214f,0.0003596110618673265f,0.029657931998372078f,0.00018101598834618926f,-0.0341576524078846f,
0.010714860633015633f,0.04094216227531433f,-0.038152918219566345f,-0.008016489446163177f,-0.11085700243711472f,
-0.11439555883407593f,-0.09392229467630386f,-0.09653069823980331f,-0.10642872750759125f,-0.10020403563976288f,
-0.07762384414672852f,-0.06697024405002594f,-0.16084113717079163f,-0.050383973866701126f,-0.11227557063102722f,
0.025588370859622955f,0.026178207248449326f,0.06941860169172287f,0.08632875233888626f,0.08668532222509384f,
0.0763288214802742f,-0.0030660293996334076f,0.02262476459145546f,0.026864247396588326f,-0.03213319554924965f,
-0.015855489298701286f,-0.01156777422875166f,0.035667624324560165f,0.028036871924996376f,0.02254781313240528f,
-0.038124993443489075f,-0.04982559755444527f,-0.05590794235467911f,-0.06194104999303818f,-0.08420825004577637f,
-0.08286352455615997f,-0.029297854751348495f,-0.030793407931923866f,-0.06164682283997536f,-0.06395106017589569f,
0.004702229052782059f,-0.03075367584824562f,-0.10346497595310211f,-0.030248304829001427f,-0.024522367864847183f,
-0.01090790331363678f,0.04358059540390968f,0.08267715573310852f,0.025178154930472374f,0.023752480745315552f,
0.03042672388255596f,-0.024850666522979736f,-0.006608635187149048f,0.03381887450814247f,0.004668387584388256f,
-0.019093388691544533f,-0.008539360947906971f,-0.023486467078328133f,-0.01773817464709282f,-0.09008380770683289f,
-0.04081890359520912f,-0.09380649775266647f,-0.014695008285343647f,0.01687721535563469f,-0.0056465864181518555f,
0.01814238540828228f,0.058570001274347305f,0.03173628821969032f,0.07702955603599548f,-0.030638717114925385f,
-0.010607723146677017f,-0.0018650585552677512f,-0.05847293883562088f,-0.07462967187166214f,0.007363204378634691f,
0.04392073675990105f,-0.03484373167157173f,-0.031548429280519485f,0.02070028893649578f,0.020429790019989014f,
0.015772158280014992f,-0.030495351180434227f,0.01867791824042797f,-0.028436841443181038f,0.0038435664027929306f,
0.0022079271730035543f,0.0140239167958498f,-0.02290252596139908f,0.009658661670982838f,0.040328700095415115f,
0.061736661940813065f,0.012448876164853573f,0.060321144759655f,0.026910223066806793f,0.009936092421412468f,
0.008376662619411945f,-0.028834274038672447f,-0.05249059200286865f,-0.0389198437333107f,-0.05994327738881111f,
-0.0857570618391037f,-0.06854895502328873f,-0.09868640452623367f,-0.01688627526164055f,0.001157409162260592f,
0.023787789046764374f,-0.00484086200594902f,-0.019558865576982498f,0.0026925678830593824f,-0.029752785339951515f,
0.03377929702401161f,-0.02249043621122837f,-0.011033506132662296f,0.0325944684445858f,-0.027265822514891624f,
-0.017963359132409096f,0.002480986760929227f,0.045192867517471313f,-0.034494172781705856f,-0.02945805713534355f,
-0.03702246770262718f,-0.017978433519601822f,-0.04607056826353073f,0.0072587826289236546f,-0.06080601364374161f,
-0.030159074813127518f,-0.02758515253663063f,-0.021662471815943718f,-0.09736078977584839f,-0.09828805178403854f,
-0.05284016951918602f,-0.013204623945057392f,-0.03958800807595253f,0.007389074191451073f,0.005939163733273745f,
-0.01007047202438116f,0.025442251935601234f,-0.016559211537241936f,-0.020387234166264534f,0.03218430280685425f,
0.002961538266390562f,0.010332112200558186f,0.017573241144418716f,-0.008141783066093922f,-0.0023669488728046417f,
-0.003635779954493046f,-0.011965147219598293f,-0.0134978536516428f,-0.013719165697693825f,0.023862158879637718f,
0.0104301106184721f,0.011168496683239937f,0.006889270152896643f,-0.027560245245695114f,-0.011768890544772148f,
-0.03615943714976311f,-0.009132624603807926f,0.02231479622423649f,-0.004374175798147917f,-0.017850937321782112f,
0.0014869734877720475f,-0.0025615282356739044f,0.013613137416541576f,0.0328226163983345f,-0.025692353025078773f,
-0.006983417086303234f,0.029614321887493134f,0.005240306723862886f,0.040091343224048615f,0.00495482562109828f,
0.004139682278037071f,-0.00018540254677645862f,-0.005201254040002823f,-0.00844223890453577f,-0.011791130527853966f,
-0.005092622712254524f,-0.021967105567455292f,-0.007721148431301117f,-0.0034484323114156723f,-0.023261060938239098f,
-0.013969757594168186f,-0.01589030772447586f,0.022348470985889435f,-0.007371848449110985f,0.020278189331293106f,
0.008526172488927841f,0.004332112148404121f,-0.010999683290719986f,-0.00770942959934473f,-0.022995688021183014f,
0.016242997720837593f,0.00451614148914814f,0.011951345950365067f,0.04005663841962814f,-0.007340111769735813f,
0.04007679224014282f,-0.017937030643224716f,-0.014430749230086803f,0.02000102773308754f,0.005908114369958639f,
0.02798628993332386f,-0.022447656840085983f,-0.008877899497747421f,0.01764487847685814f,0.012645769864320755f,
0.04757876694202423f,-0.0034328061155974865f,0.01816130429506302f,0.001076813437975943f,0.022052615880966187f,
0.04028042405843735f,-0.010373652912676334f,0.018644176423549652f,0.02681560628116131f,0.05445502698421478f,
-0.013120017014443874f,0.027036311104893684f,0.03005199134349823f,0.02706579491496086f,0.02747689187526703f,
-0.011539498344063759f,-0.020337171852588654f,0.03484469652175903f,0.011212656274437904f,-0.008399439044296741f,
-0.00907215103507042f,-0.017292721197009087f,0.004042850807309151f,0.024775948375463486f,-0.009830052964389324f,
0.0365184023976326f,-0.0012186160311102867f,0.006503056734800339f,0.008125290274620056f,-0.04322704300284386f,
-0.06472397595643997f,-0.07122993469238281f,-0.04619288071990013f,0.019271405413746834f,-0.01246106531471014f,
0.01656367816030979f,0.07327588647603989f,0.05208105221390724f,0.031169883906841278f,0.05587293952703476f,
0.05756046250462532f,0.007293825503438711f,7.865096995374188e-05f,0.013119246810674667f,0.012929031625390053f,
0.04150421917438507f,-0.008420051075518131f,0.013014577329158783f,0.033688489347696304f,0.030792009085416794f,
0.04670974239706993f,0.03822661563754082f,0.000358453078661114f,0.0631033182144165f,0.04910700023174286f,
-0.005516108591109514f,-0.06264995783567429f,-0.09187664091587067f,-0.17415329813957214f,-0.14979854226112366f,
-0.16843242943286896f,-0.06323292851448059f,-0.0545845702290535f,-0.015726815909147263f,0.05434836074709892f,
0.09511478245258331f,0.07986907660961151f,0.019516833126544952f,0.06042216345667839f,0.0017253953265026212f,
-0.011440055444836617f,-0.014678997918963432f,0.004989516455680132f,0.02084488794207573f,-0.020344853401184082f,
-0.005616351030766964f,0.0037567538674920797f,0.031104132533073425f,0.05722904950380325f,0.062152862548828125f,
0.00809849239885807f,0.018938157707452774f,0.020780473947525024f,0.00530677754431963f,-0.1070631742477417f,
-0.19964486360549927f,-0.1498788297176361f,-0.23861761391162872f,-0.1536632627248764f,-0.07567199319601059f,
-0.026333730667829514f,-0.005171998869627714f,-0.031831420958042145f,-0.07684527337551117f,-0.05011020600795746f,
-0.002011553617194295f,0.04822186753153801f,0.051463983952999115f,0.0015828786417841911f,0.033962614834308624f,
0.03162480518221855f,0.02118639275431633f,-0.022825166583061218f,0.003760373452678323f,-0.001481829327531159f,
0.06320401281118393f,0.0037271168548613787f,0.038360800594091415f,-0.030591895803809166f,-0.013057287782430649f,
-0.0478019081056118f,-0.08031722158193588f,-0.20672881603240967f,-0.28604426980018616f,-0.22335056960582733f,
-0.07404937595129013f,0.015397918410599232f,-0.02573034167289734f,0.06404895335435867f,-0.015269353054463863f,
0.04213663935661316f,0.05481822043657303f,-0.041809823364019394f,0.011620508506894112f,0.06486333906650543f,
0.05251608043909073f,-0.0023153447546064854f,-0.004512534476816654f,0.0400095172226429f,-0.010027099400758743f,
0.04237621650099754f,-0.010759798809885979f,0.009116394445300102f,0.06152503192424774f,0.06637043505907059f,
0.04925677925348282f,0.05048031732439995f,-0.017413325607776642f,0.0031294403597712517f,-0.13220679759979248f,
-0.2096346914768219f,-0.26740995049476624f,-0.22417385876178741f,-0.02740621753036976f,0.07197877019643784f,
0.10569929331541061f,-0.008446313440799713f,0.056221138685941696f,0.039616040885448456f,0.07134628295898438f,
-0.014539039693772793f,0.013454685918986797f,0.08552256971597672f,0.12533479928970337f,0.06113636493682861f,
0.044264279305934906f,0.048073023557662964f,0.020260397344827652f,0.0006327141309157014f,0.03625559061765671f,
0.02858484908938408f,0.06421635299921036f,0.1028057411313057f,0.02343788929283619f,0.011197800748050213f,
-0.01101792324334383f,0.01292042713612318f,-0.09492016583681107f,-0.2781052589416504f,-0.2607113718986511f,
-0.21309025585651398f,0.13598765432834625f,0.14794224500656128f,0.05747886374592781f,0.05303945019841194f,
-0.001199674909003079f,0.003120844252407551f,0.03395112231373787f,-0.019133392721414566f,0.018461277708411217f,
0.04577679932117462f,0.0945873036980629f,0.07124065607786179f,0.020472362637519836f,0.038132842630147934f,
-0.00666382908821106f,0.010077731683850288f,0.004298316780477762f,-0.015607122331857681f,0.006461487617343664f,
0.09124977886676788f,0.03791872784495354f,0.033089280128479004f,0.009672241285443306f,-0.02021195739507675f,
-0.05356753244996071f,-0.2945757210254669f,-0.31079915165901184f,-0.1181596964597702f,0.10254113376140594f,
0.14830279350280762f,0.133671835064888f,0.08889950066804886f,0.02749800682067871f,-0.04865900054574013f,
0.04960501566529274f,0.015542748384177685f,-0.02105819061398506f,0.0392061211168766f,0.13704976439476013f,
0.05938024818897247f,0.021204210817813873f,0.01081885863095522f,0.00044706204789690673f,0.019563013687729836f,
-0.008057071827352047f,0.01390742789953947f,0.014012091793119907f,0.11945924907922745f,0.05257239192724228f,
0.07917576283216476f,0.057827889919281006f,-0.010388156399130821f,-0.09533022344112396f,-0.32230424880981445f,
-0.35425257682800293f,-0.12788967788219452f,0.02596556581556797f,0.21036124229431152f,0.22318747639656067f,
0.1568545401096344f,0.046220812946558f,0.07856588810682297f,0.05855666473507881f,-0.0036452575586736202f,
-0.0759894847869873f,0.06451830267906189f,0.13983891904354095f,0.08731241524219513f,0.04888731241226196f,
-0.019427724182605743f,0.037643276154994965f,-0.018823785707354546f,-0.004257416818290949f,0.038936711847782135f,
0.07355259358882904f,0.0890321135520935f,0.004502851981669664f,0.015757674351334572f,0.05935220792889595f,
0.004360374063253403f,-0.15069237351417542f,-0.2708227336406708f,-0.23100212216377258f,-0.12931865453720093f,
0.06178998574614525f,0.1469293236732483f,0.08277569711208344f,0.14324882626533508f,0.013535838574171066f,
-0.009882980026304722f,-0.023780399933457375f,0.038589268922805786f,-0.0018447957700118423f,0.12164375185966492f,
0.17569956183433533f,0.05683553218841553f,0.05397418141365051f,0.020327704027295113f,0.02988867647945881f,
-0.020965011790394783f,0.023605002090334892f,-0.004669778048992157f,0.017872927710413933f,0.09331241250038147f,
0.0003978030290454626f,0.0020381242502480745f,0.0014642445603385568f,-0.05401543900370598f,-0.1103404089808464f,
-0.13586363196372986f,-0.13334107398986816f,0.011871682479977608f,-0.058820322155952454f,0.0005378558998927474f,
0.06005930155515671f,-0.015329699963331223f,-0.05844835191965103f,-0.07051148265600204f,0.009634538553655148f,
0.12669683992862701f,0.07329516112804413f,0.0746687576174736f,0.07621369510889053f,0.03545285761356354f,
-0.021997222676873207f,-0.02226366475224495f,0.040262289345264435f,0.03145170584321022f,0.043286774307489395f,
0.03380114585161209f,-0.011733164079487324f,0.02044696733355522f,0.03202737122774124f,-0.03787088394165039f,
-0.01702108420431614f,-0.023189479485154152f,-0.025355570018291473f,-0.05646171048283577f,-0.02758009359240532f,
0.16985681653022766f,0.07059355825185776f,0.03824659064412117f,-0.0307598989456892f,-0.02771035023033619f,
-0.05769715830683708f,-0.01767062395811081f,0.017124615609645844f,0.02301979437470436f,-0.014983084052801132f,
-0.0073528531938791275f,0.0014052509795874357f,-0.004330729134380817f,0.02714494988322258f,0.012158511206507683f,
0.027388911694288254f,0.01009276881814003f,-0.015290158800780773f,0.014448985457420349f,-0.027850225567817688f,
0.035515379160642624f,0.026594098657369614f,0.01637626253068447f,0.02005641721189022f,0.04489609971642494f,
-0.013531409204006195f,-0.04220748692750931f,0.09361423552036285f,0.05517047271132469f,-0.0013766598422080278f,
-0.017923742532730103f,0.01191116776317358f,0.01264272816479206f,-0.07604162395000458f,-0.1097656637430191f,
-0.07314243912696838f,-0.05362628027796745f,-0.038064535707235336f,-0.006242736242711544f,0.020245220512151718f,
-0.013593699783086777f,0.013008968904614449f,0.006321403663605452f,0.01957252249121666f,0.012077059596776962f,
-0.01947019062936306f,-0.015882063657045364f,-0.0172127652913332f,0.06219973415136337f,0.05370568856596947f,
-0.020906765013933182f,0.07048352807760239f,0.064325712621212f,0.015238316729664803f,0.023533418774604797f,
0.0450109988451004f,0.090569406747818f,-0.11182630062103271f,-0.061308372765779495f,-0.017359167337417603f,
-0.012127779424190521f,-0.10009986162185669f,-0.15667107701301575f,-0.05812710523605347f,-0.07178610563278198f,
-0.026480332016944885f,0.012005164287984371f,-0.025954555720090866f,0.023873839527368546f,0.0018679676577448845f,
0.009229522198438644f,0.014576788991689682f,0.04379912465810776f,-0.00760776037350297f,0.012188417837023735f,
0.022277595475316048f,0.008306116797029972f,-0.003590642474591732f,0.04393463209271431f,0.07672981917858124f,
0.05134004354476929f,-0.05412885174155235f,-0.0949253961443901f,0.009312337264418602f,0.0811149999499321f,
-0.06358321756124496f,0.0030815638601779938f,-0.03987329453229904f,0.020221367478370667f,0.004418705124408007f,
-0.04091005027294159f,-0.057973287999629974f,-0.0636586844921112f,-0.06063484773039818f,0.06527505815029144f,
-0.01063515618443489f,-0.005366478580981493f,-0.006274006795138121f,0.03944001719355583f,-0.016969919204711914f,
0.0387851819396019f,-0.01564408466219902f,-0.01764366775751114f,0.039863768965005875f,0.06897316873073578f,
0.03959299623966217f,0.08489871770143509f,0.010581791400909424f,-0.06665495038032532f,-0.1718672662973404f,
-0.1267963945865631f,-0.03852824494242668f,0.07255819439888f,-0.019096650183200836f,0.057873278856277466f,
0.04462398216128349f,-0.0185390692204237f,0.027932988479733467f,-0.06885519623756409f,-0.05556248873472214f,
0.000131055130623281f,0.038751449435949326f,0.07533329725265503f,0.010762365534901619f,-0.02513594925403595f,
0.027523700147867203f,0.011322937905788422f,-0.015548164024949074f,0.016866136342287064f,-0.008059603162109852f,
-0.0013695672387257218f,0.05699950084090233f,0.10697609186172485f,0.07696051895618439f,0.05621182918548584f,
-0.006759310141205788f,-0.05242796242237091f,-0.03105681575834751f,-0.07341700047254562f,-0.1159205362200737f,
-0.09524308145046234f,-0.0832275003194809f,0.03097839094698429f,0.12989169359207153f,0.04235158488154411f,
-0.0141959423199296f,-0.02266835980117321f,-0.06463979184627533f,-0.03827360272407532f,-0.048447392880916595f,
-0.016158796846866608f,-0.007657965645194054f,-0.02139478735625744f,-0.009427238255739212f,-0.018719499930739403f,
0.0280511062592268f,0.029969004914164543f,-0.010835587047040462f,0.009700826369225979f,0.07565446943044662f,
0.10828860104084015f,0.08389075100421906f,0.11268331855535507f,0.023883046582341194f,0.0542307123541832f,
0.0722915455698967f,0.034124333411455154f,-0.0026911282911896706f,0.03160252422094345f,0.0409080795943737f,
0.16153214871883392f,0.08778224885463715f,0.04215564206242561f,-0.003933867439627647f,-0.03126833960413933f,
-0.07830646634101868f,-0.05463087931275368f,-0.013608867302536964f,-0.05115643888711929f,0.005685517564415932f,
-0.018315976485610008f,-0.024984613060951233f,-0.005310047417879105f,0.015550803393125534f,0.010543057695031166f,
-0.02421550638973713f,0.045764319598674774f,-0.0033405392896384f,0.10912676155567169f,0.13217653334140778f,
0.033602628856897354f,0.06456319987773895f,0.05343697965145111f,0.00927331019192934f,0.031709786504507065f,
0.002280790125951171f,0.038507625460624695f,-0.010156193748116493f,0.1381896436214447f,0.06503080576658249f,
0.03549554571509361f,0.08209004998207092f,-0.05145275592803955f,0.008494789712131023f,0.009798053652048111f,
0.031168125569820404f,-0.0521041564643383f,-0.002052314579486847f,0.043238915503025055f,-0.029146762564778328f,
0.044424403458833694f,0.0205356627702713f,-0.013202419504523277f,0.026116754859685898f,0.009796293452382088f,
-0.10171064734458923f,-0.025449953973293304f,0.10994779318571091f,0.03156834468245506f,0.057644523680210114f,
0.01624286361038685f,0.0737185850739479f,-0.025570770725607872f,-0.0347517728805542f,-0.02609199844300747f,
-0.030206242576241493f,0.03425723686814308f,0.00044258212437853217f,0.01292139571160078f,0.0647333413362503f,
-0.0908760279417038f,-0.027356864884495735f,0.010693668387830257f,0.02116602286696434f,-0.1186884194612503f,
-0.01846548542380333f,0.002963086124509573f,0.019317587837576866f,-0.01404245663434267f,0.035574257373809814f,
0.03250936418771744f,0.01638985238969326f,0.04371630400419235f,-0.05336042121052742f,0.0417909175157547f,
0.047840915620326996f,0.08432183414697647f,0.04425540193915367f,-0.007054606918245554f,-0.0038382208440452814f,
0.021989373490214348f,0.030671142041683197f,-0.01003547664731741f,0.008067814633250237f,-0.03772667050361633f,
-0.053252868354320526f,0.041821807622909546f,-0.029288792982697487f,-0.058503516018390656f,-0.07826213538646698f,
0.022112403064966202f,-0.014457597397267818f,-0.10418637841939926f,-0.06407707929611206f,0.038487136363983154f,
0.0020655798725783825f,0.017872681841254234f,-0.006651710718870163f,0.045177921652793884f,0.030313614755868912f,
0.004611358977854252f,0.0168231800198555f,-0.02436264604330063f,0.014575781300663948f,0.023626362904906273f,
0.033910587430000305f,0.0789145827293396f,-0.0008120958809740841f,0.012714840471744537f,0.0668211504817009f,
0.04607628285884857f,0.04909614473581314f,-0.0014913635095581412f,-0.04868251457810402f,-0.033952221274375916f,
-0.04849440976977348f,-0.032907772809267044f,-0.017326928675174713f,0.024027928709983826f,-0.010128350928425789f,
-0.06113073229789734f,-0.024740934371948242f,0.0012667435221374035f,0.02777181752026081f,0.03987561911344528f,
0.03310149535536766f,0.04348929226398468f,0.011688195168972015f,-0.028803836554288864f,-0.015975791960954666f,
0.011671425774693489f,-0.011526803486049175f,-0.061981502920389175f,-0.0390576533973217f,0.08225452899932861f,
0.06246030703186989f,0.017113300040364265f,-0.021271424368023872f,-0.10559307783842087f,0.006703185383230448f,
0.0360032320022583f,-0.03626212105154991f,-0.08071450144052505f,0.03694842383265495f,0.03485553711652756f,
0.05471178516745567f,-0.0018137615406885743f,0.02841944620013237f,0.008718952536582947f,-0.0013946938561275601f,
0.03701683133840561f,0.02627377025783062f,0.005591786466538906f,0.0011380795622244477f,-0.018867723643779755f,
0.005794472061097622f,0.03217931464314461f,-0.0412074513733387f,-0.0515245646238327f,-0.08083827048540115f,
-0.09919913113117218f,-0.009727063588798046f,-0.0135932806879282f,-0.0339827835559845f,-0.09513698518276215f,
-0.044378459453582764f,-0.07374239712953568f,-0.04593895748257637f,-0.08190412819385529f,-0.12708686292171478f,
-0.03776540234684944f,0.02185477688908577f,0.05571107566356659f,0.0027700751088559628f,0.01006360724568367f,
-0.02603895775973797f,0.009076877497136593f,-0.015350326895713806f,-0.002899259328842163f,-0.005941004026681185f,
0.03151775896549225f,0.021223485469818115f,0.01875874400138855f,0.03480193018913269f,0.003629196435213089f,
-0.0022017769515514374f,-0.011597775854170322f,-0.0439995713531971f,-0.09309163689613342f,-0.054765015840530396f,
-0.04514002427458763f,-0.17666199803352356f,-0.20151233673095703f,-0.14787156879901886f,-0.09568902105093002f,
-0.11739858984947205f,-0.0960722416639328f,-0.11205291748046875f,-0.014236235059797764f,-0.002513196785002947f,
0.02409215457737446f,-0.0010289241326972842f,-0.00585041893646121f,-0.018766120076179504f,0.02094770036637783f,
0.0219320859760046f,0.034377358853816986f,0.024482939392328262f,-0.006729374639689922f,0.01545293815433979f,
0.013469919562339783f,0.0013154054759070277f,-0.016444727778434753f,-0.009922733530402184f,0.006076759658753872f,
-0.02416018582880497f,-0.014645712450146675f,0.004638701677322388f,-0.01537848636507988f,-0.041882213205099106f,
-0.04756254330277443f,-0.057981327176094055f,-0.0548735037446022f,-0.04051830992102623f,-0.04701800271868706f,
-0.05366864427924156f,-0.0070576113648712635f,-0.01985248737037182f,0.0014705478679388762f,-0.020960915833711624f,
-0.03210745379328728f,-0.0008291375124827027f,0.017514200881123543f,0.042426690459251404f,0.042894937098026276f,
0.03537964075803757f,0.02821437641978264f,-0.0026829843409359455f,0.03481908142566681f,0.044717952609062195f,
0.029977601021528244f,-0.0010577734792605042f,0.030342191457748413f,-0.021509213373064995f,0.016371699050068855f,
-0.010252352803945541f,-0.011464055627584457f,0.004944229498505592f,-0.0028087212704122066f,0.01315271109342575f,
-0.012283955700695515f,-0.018487604334950447f,0.013071790337562561f,-0.003227710258215666f,0.039381902664899826f,
0.03622310981154442f,0.014151503331959248f,-0.018828418105840683f,0.03539248928427696f,0.03489720821380615f,
-0.005263638682663441f,0.04163697361946106f,0.019452417269349098f,0.03059874102473259f,-0.013938716612756252f,
0.011574872769415379f,-0.025576239451766014f,-0.022529831156134605f,0.01604006625711918f,-0.0263193529099226f,
-0.02754511870443821f,-0.03339270502328873f,-0.014871222898364067f,-0.02119351364672184f,0.008629987947642803f,
0.03229970484972f,-0.015979459509253502f,0.03354360908269882f,0.01310145203024149f,0.006071023643016815f,
-0.0132745997980237f,0.002880639396607876f,-0.02436707727611065f,0.030752135440707207f,0.03264930844306946f,
0.029475925490260124f,0.025705872103571892f,-0.00040182462544180453f,0.021923521533608437f,-0.01689068414270878f,
0.0009042798192240298f,0.017108066007494926f,-0.0067174118012189865f,-0.030955592170357704f,0.0028104614466428757f,
0.01701146923005581f,0.03593527525663376f,-0.028644556179642677f,0.0051316432654857635f,0.02608962170779705f,
-0.0015719038201496005f,0.010841981507837772f,-0.013135035522282124f,-0.006000158376991749f,-0.03338183835148811f,
-0.004128661938011646f,-0.00013077854237053543f,0.006982080638408661f,0.0011633209651336074f,0.004594599828124046f,
0.02808750607073307f,-0.0026159966364502907f,0.003916370216757059f,0.03433019667863846f,0.024030303582549095f,
0.011399366892874241f,-0.017293760553002357f,-0.0273513775318861f,-0.023451169952750206f,0.019027551636099815f,
-0.03203529492020607f,-0.009364736266434193f,0.026296110823750496f,0.012550455518066883f,-0.02131461165845394f,
0.02406594343483448f,0.03161495551466942f,-0.007354241795837879f,-0.012372692115604877f,-0.024488428607583046f,
0.032190170139074326f,0.015472758561372757f,-0.019341880455613136f,0.030190614983439445f,0.004772982560098171f,
0.035730354487895966f,0.0105191795155406f,-0.018120260909199715f,-0.02745414711534977f,-0.03099760226905346f,
-0.014763127081096172f,-0.012349097989499569f,-0.009167891927063465f,0.025452716276049614f,-0.03053935617208481f,
-0.021932242438197136f,-0.026282167062163353f,0.0011902011465281248f,-0.0047010015696287155f,-0.02809637226164341f,
-0.028485463932156563f,0.013192371465265751f,0.033163659274578094f,0.003455030731856823f,-0.0202579777687788f,
0.017134541645646095f,0.0238820668309927f,-0.02892761118710041f,-0.028926696628332138f,0.03301132842898369f,
0.03169548138976097f,0.00961976870894432f,-0.015154379419982433f,-0.01638689823448658f,-0.007898056879639626f,
-0.0320700965821743f,0.00980188138782978f,0.0018507462227717042f,-0.002553110010921955f,-0.03338997811079025f,
-0.010341648943722248f,0.012571156956255436f,0.03288961946964264f,0.025417914614081383f,0.025981197133660316f,
0.023775802925229073f,-0.034176621586084366f,0.03341660648584366f,0.02839936874806881f,-0.0010960587533190846f,
0.015234456397593021f,-0.03354908898472786f,0.034376297146081924f,-0.03363562747836113f,-0.027106083929538727f,
0.011353696696460247f,-0.020819373428821564f,0.006482950411736965f,-0.020797763019800186f,-0.006453934125602245f,
0.022131603211164474f,-0.0037427449133247137f,-0.004359344020485878f,-0.03351634368300438f,-0.0051485453732311726f,
-0.026480818167328835f,0.01073803286999464f,0.01885707676410675f,-0.00042133955867029727f,0.0052330694161355495f,
-0.03360002860426903f,0.0007165040588006377f,0.010885142721235752f,0.0009663787786848843f,-0.012399616651237011f,
0.02907515875995159f,-0.02562328241765499f,0.0155876399949193f,-0.0079742930829525f,-0.002104703802615404f,
-0.012834398075938225f,0.0005898352828808129f,0.009870525449514389f,0.0002413756592432037f,-0.02543877810239792f,
0.022573966532945633f,0.03596373274922371f,-0.006687874905765057f,-0.003688278840854764f,-0.0011510857148095965f,
0.016031688079237938f,-0.0002519903937354684f,0.0211636945605278f,-0.031216096132993698f,-0.028567099943757057f,
-0.005306807812303305f,0.02233484759926796f,-0.005030002910643816f,-0.016446297988295555f,0.006405201740562916f,
-0.0004104691615793854f,0.003472993616014719f,-0.018140925094485283f,0.007358618080615997f,0.027792396023869514f,
-0.00464255828410387f,0.01198598276823759f,0.009108013473451138f,-0.0371774323284626f,0.00519173126667738f,
0.00463079335168004f,0.01261697057634592f,-0.02400982938706875f,-0.02020220272243023f,0.045356106013059616f,
0.04338476061820984f,0.003450434422120452f,-0.02459796518087387f,-0.02845553122460842f,-0.02932269498705864f,
0.01226422656327486f,0.02331024408340454f,-0.020833004266023636f,0.02218233421444893f,-0.0056819431483745575f,
0.02130240388214588f,-0.00018976068531628698f,-0.02453901618719101f,0.021765373647212982f,-0.011304129846394062f,
0.00880600605159998f,-0.018007757142186165f,0.016244495287537575f,0.006598274689167738f,0.0022257650271058083f,
-0.021229209378361702f,-0.002996152499690652f,0.011983145959675312f,-0.005213765427470207f,0.01518531609326601f,
0.014981354586780071f,0.01248059794306755f,-0.011645815335214138f,-0.01669090986251831f,0.03783414512872696f,
-0.018873240798711777f,-0.023360736668109894f,-0.025876661762595177f,-0.02898091822862625f,0.016269592568278313f,
-0.02773899771273136f,-0.016556262969970703f,-0.0395209863781929f,-0.004333773162215948f,0.025748396292328835f,
0.009418928995728493f,-0.024384742602705956f,-0.03243979439139366f,-0.013315373100340366f,0.012368348427116871f,
-0.033465467393398285f,-0.030475856736302376f,0.0020072360057383776f,-0.030006425455212593f,-0.006783478427678347f,
-0.027967091649770737f,0.017352579161524773f,0.02734028920531273f,0.02762884646654129f,0.01335090957581997f,
-0.008837534114718437f,0.018512364476919174f,-0.023978600278496742f,0.03728586435317993f,0.03832375258207321f,
0.04158264398574829f,0.0004137658979743719f,-0.005662479437887669f,-0.00681264279410243f,-0.006947380490601063f,
-0.02334056980907917f,-0.037108175456523895f,0.03382238373160362f,-0.034142233431339264f,-0.0016124802641570568f,
-0.03347373381257057f,0.005025498569011688f,-0.019653836265206337f,0.02414349466562271f,0.015659566968679428f,
-0.009818692691624165f,0.01282742340117693f,0.017269408330321312f,0.038249142467975616f,-0.00037619692739099264f,
0.008970074355602264f,0.012118765152990818f,-0.0024728490971028805f,0.013797000981867313f,-0.019164128229022026f,
0.01411418616771698f,0.012767440639436245f,-0.024226509034633636f,0.0011691716499626637f,0.037747275084257126f,
0.028950991109013557f,0.008187725208699703f,-0.015794118866324425f,0.008477842435240746f,0.0025294856168329716f,
0.014369167387485504f,0.004461190663278103f,0.013112816959619522f,0.030757909640669823f,0.02399425394833088f,
-0.0027804949786514044f,0.003781292587518692f,0.009608215652406216f,-0.002246929332613945f,-0.00041998192318715155f,
0.042278923094272614f,0.035074152052402496f,0.03873787820339203f,-0.027698740363121033f,0.015051432885229588f,
0.000507742865011096f,-0.020842893049120903f,-0.0070319101214408875f,-0.01963941380381584f,-0.010107003152370453f,
-0.0368545800447464f,-0.015194522216916084f,0.02274519018828869f,-0.0163501538336277f,-0.0017949362518265843f,
-0.013609908521175385f,0.019544757902622223f,-0.029407542198896408f,-0.019531317055225372f,0.005821166560053825f,
0.0027004601433873177f,0.024526447057724f,-0.027328528463840485f,-0.025082921609282494f,0.0122814467176795f,
0.024564817547798157f,-0.02680094726383686f,0.005099272355437279f,0.0040554772131145f,0.045892711728811264f,
-0.004380698315799236f,0.012301962822675705f,0.022580508142709732f,-0.014070172794163227f,0.02374861016869545f,
-0.010405258275568485f,0.014798538759350777f,-0.008417658507823944f,-0.010170181281864643f,0.03419436514377594f,
0.01494959369301796f,0.005014838185161352f,-0.035213273018598557f,-0.01924499124288559f,0.027839742600917816f,
-0.022029759362339973f,0.0010182068217545748f,-0.005225351080298424f,0.0007114236941561103f,-0.013584424741566181f,
0.02677135542035103f,0.032807543873786926f,0.010950012132525444f,0.028452880680561066f,0.029332319274544716f,
0.013857594691216946f,-0.007350977044552565f,0.009054558351635933f,-0.004369290079921484f,0.017158441245555878f,
0.002179464092478156f,-0.013263053260743618f,0.03597423806786537f,0.011132419109344482f,-0.01475093886256218f,
0.00721838790923357f,-0.01994064263999462f,0.016988223418593407f,0.02629665657877922f,0.030653392896056175f,
-0.010709946975111961f,-0.030256250873208046f,0.024412689730525017f,0.020840633660554886f,-0.01862143538892269f,
0.013323945924639702f,-0.010229202918708324f,0.01828826405107975f,0.02339998073875904f,-0.016309911385178566f,
-0.025438595563173294f,-0.021623147651553154f,-0.01597592420876026f,0.01316507626324892f,-0.002432232489809394f,
-0.03545542061328888f,-0.006361995358020067f,0.01772620901465416f,-0.003972673323005438f,0.011323162354528904f,
-0.003936700522899628f,0.04510542377829552f,-0.009339923970401287f,0.009731256403028965f,-0.023240920156240463f,
-0.00021975555864628404f,0.02700885199010372f,-0.002934339689090848f,-0.01314575131982565f,0.012206174433231354f,
-0.009508509188890457f,0.014989819377660751f,-0.008662141859531403f,-0.012061660178005695f,0.006923620123416185f,
0.02940409444272518f,0.030857598409056664f,0.021134288981556892f,0.001103550079278648f,0.00651550991460681f,
-0.011729752644896507f,-0.006148048676550388f,-0.022648721933364868f,-0.03345080092549324f,-0.02476090006530285f,
-0.009319745004177094f,-0.03540188446640968f,-0.03737275302410126f,-0.01135158073157072f,0.00010967648267978802f,
-0.03415229171514511f,-0.03546949103474617f,0.0020993417128920555f,-0.03495480492711067f,-0.007730037439614534f,
-0.03602340444922447f,0.007779260165989399f,0.014557783491909504f,0.028964335098862648f,0.011432645842432976f,
-0.023930924013257027f,0.02045116201043129f,-0.01893666945397854f,-0.0167780090123415f,0.01867859996855259f,
0.01794910430908203f,0.024892931804060936f,0.02120828628540039f,-0.01257812324911356f,0.013169914484024048f,
-0.005747820716351271f,-0.021242134273052216f,0.017821747809648514f,-0.03200627490878105f,0.009508423507213593f,
0.026989508420228958f,0.0015671397559344769f,0.005839691497385502f,-0.010233337059617043f,-0.01676075905561447f,
-0.0038250028155744076f,0.009050539694726467f,-0.025728212669491768f,0.0011597570264711976f,-0.024053599685430527f,
0.04723614081740379f,0.010737882927060127f,0.03082885965704918f,0.010565320961177349f,0.03275502100586891f,
0.01785397343337536f,-0.008647394366562366f,0.010962882079184055f,-0.009873916395008564f,-0.03387819230556488f,
0.009022948332130909f,-0.033042509108781815f,0.022479334846138954f,-0.011359707452356815f,0.009741374291479588f,
-0.016798140481114388f,-0.021101346239447594f,-0.027108514681458473f,0.031279828399419785f,-0.027189528569579124f,
-0.005596279166638851f,-0.03407548367977142f,-0.005725886672735214f,-0.0346597358584404f,-0.02643950656056404f,
0.009126600809395313f,0.005594324786216021f,0.031369954347610474f,-0.018840419128537178f,-0.008648773655295372f,
0.01763857901096344f,-0.004801489412784576f,-0.023835398256778717f,0.002146128797903657f,0.003530188463628292f,
0.004276962485164404f,-0.02438969351351261f,-0.023860597983002663f,0.03287539631128311f,0.008059083484113216f,
0.025289935991168022f,0.01777850091457367f,0.013851074501872063f,0.014881877228617668f,0.036088354885578156f,
-0.030174285173416138f,-0.03438468277454376f,0.029401976615190506f,-0.005467474926263094f,-0.020484184846282005f,
-0.005715093109756708f,-0.009609626606106758f,-0.022310001775622368f,0.02768927440047264f,0.0286488588899374f,
-0.002856089733541012f,-0.0212110448628664f,-0.038174521178007126f,0.008482922799885273f,0.015709590166807175f,
-0.012041156180202961f,-0.022925836965441704f,-0.014039439149200916f,-0.023183787241578102f,0.0038063975516706705f,
0.022399762645363808f,0.0029907794669270515f,0.01904788427054882f,0.02397056296467781f,0.02566538378596306f,
-0.030474264174699783f,-0.013060560449957848f,0.015840604901313782f,-0.027729978784918785f,-0.020284458994865417f,
0.01505498867481947f,-0.024403363466262817f,0.017598632723093033f,-0.03350822627544403f,-0.00972143467515707f,
0.016873762011528015f,0.01901600882411003f,-0.025054138153791428f,-0.020088547840714455f,-0.019355904310941696f,
-0.007353668101131916f,-0.0025996726471930742f,0.005280174780637026f,0.028150882571935654f,-0.0022909215185791254f,
0.021363893523812294f,0.01951996423304081f,-0.018696637824177742f,-0.02590733952820301f,0.012459659948945045f,
-0.01166489627212286f,-0.016232162714004517f,-0.036476604640483856f,0.03203665837645531f,-0.029508961364626884f,
-0.02750268206000328f,0.004364511463791132f,-0.026586240157485008f,-0.006976657547056675f,-0.024057213217020035f,
-0.025246169418096542f,-0.046262845396995544f,0.015655668452382088f,0.00723106786608696f,0.024220310151576996f,
-0.020907320082187653f,0.014857475645840168f,0.02221522480249405f,-0.02734408713877201f,0.022416042163968086f,
-0.029918618500232697f,0.03230263292789459f,-0.01521802693605423f,-0.010572155006229877f,0.024825723841786385f,
0.016314273700118065f,0.03431056812405586f,0.011727957054972649f,0.03682988882064819f,0.01493095327168703f,
-0.037021033465862274f,0.03059280477464199f,-0.020311269909143448f,-0.0010573811596259475f,-0.018266884610056877f,
-0.024467043578624725f,0.005663149058818817f,-0.008563900366425514f,-0.03160768002271652f,0.033348582684993744f,
0.044227730482816696f,0.03575610741972923f,0.011657726019620895f,0.023318519815802574f,-0.02827315218746662f,
-0.024930087849497795f,-0.03853078559041023f,-0.005979479290544987f,0.017271442338824272f,0.01848553493618965f,
0.029848013073205948f,-0.010774138383567333f,0.03665982931852341f,-0.03177490457892418f,0.020853085443377495f,
