//Layer1 Weights 
float layer1_weight[] = {
-0.010940313f,0.059698507f,-0.058079444f,0.010673408f,-0.06716302f,
0.011943808f,-0.014513969f,-0.025932062f,0.016381063f,0.034043867f,
0.009506679f,0.12959068f,-0.0022887508f,-0.020175572f,0.08357144f,
-0.05651833f,-0.0044720164f,0.016115043f,-0.043555144f,-0.048870303f,
0.046034057f,-0.07412955f,-0.043798953f,0.06850163f,0.020750182f,
0.0055699428f,0.029024435f,-0.044134375f,0.050361738f,0.05490213f,
0.056417394f,0.051648624f,0.025719684f,0.054865997f,0.058258142f,
-0.0044058682f,-0.062310107f,0.0016377724f,0.029894678f,-0.012392986f,
0.031017348f,0.043256663f,-0.044145126f,-0.034557622f,0.018592108f,
-0.017922772f,-0.022139616f,-0.051072765f,0.031301826f,0.0014069014f,
0.011345649f,0.06513436f,0.03505373f,0.0044087754f,-0.048890077f,
0.040621687f,0.06768501f,-0.004583567f,0.04198076f,0.07268399f,
0.045461904f,0.019347578f,-0.022866223f,0.031495627f,0.019295434f,
-0.0027266592f,-0.04843315f,-0.016698193f,0.041901503f,-0.0060629556f,
0.03600294f,-0.031697314f,0.0044141775f,-0.02525576f,0.02718674f,
0.034174327f,-0.03174564f,0.021099363f,-0.0006619581f,0.06894455f,
0.04599684f,-0.013876768f,-0.040970825f,0.048616707f,-0.049011376f,
0.033842344f,-0.016664928f,-0.04855265f,-0.06435764f,0.032958865f,
0.06633877f,-0.04779282f,-0.006906323f,0.03968082f,0.016426846f,
0.049471006f,-0.013540231f,0.0031664178f,0.005747902f,0.060590833f,
0.05001995f,0.033910405f,-0.035563905f,0.025332978f,0.070222f,
-0.011194234f,0.04501718f,0.052091014f,-0.015224628f,0.028156811f,
-0.06137362f,-0.056918513f,-0.017512538f,0.04451517f,-0.007691027f,
-0.047262747f,0.015932025f,0.0014666078f,-0.020148238f,0.057993572f,
0.020995852f,-0.067601755f,0.031078657f,0.063730076f,-0.021095026f,
0.053486902f,0.04081076f,0.07183245f,-0.0066318396f,-0.021683078f,
0.057331596f,0.051776495f,-0.024595354f,0.007706673f,0.040434234f,
-0.040777434f,0.04666014f,0.02324111f,0.017622437f,0.0380333f,
-0.055220757f,-0.064700454f,0.025826648f,-0.0015397039f,-0.0085563045f,
0.0081151305f,-0.03634057f,-0.05793973f,0.047773663f,0.038608205f,
-0.05116748f,0.03729223f,0.033076584f,-0.04303127f,0.060789485f,
-0.08830226f,0.06155196f,-0.022331025f,0.048108205f,0.068839744f,
0.045759376f,0.054534215f,0.06694968f,-0.019625615f,-0.01455569f,
0.04403926f,-0.05834244f,-0.03424915f,0.030288152f,0.01822824f,
0.038097683f,-0.04821318f,-0.032466795f,-0.050015345f,-0.019805534f,
0.020852773f,-0.03780139f,0.03251184f,0.023176212f,0.00916998f,
-0.02265524f,0.063485675f,-0.0006292989f,-0.03536664f,-0.042492744f,
-0.01992725f,0.059211526f,0.0032845752f,0.04605025f,0.058469255f,
0.06013733f,-0.071384646f,0.022228785f,0.034237135f,0.020525564f,
-0.022496097f,0.036262207f,-0.077763006f,0.02840394f,-0.017741248f,
-0.063829914f,0.026267732f,0.07465523f,-0.017180614f,-0.042772274f,
0.062465407f,0.018524835f,-0.02386159f,0.07649643f,-0.07370783f,
-0.01065214f,0.08095251f,-0.036096193f,-0.00091542024f,-0.040334184f,
-0.0705261f,0.047579385f,-0.06312239f,-0.00093157665f,-0.04741327f,
-0.05066729f,0.048249718f,-0.020078186f,0.03982628f,-0.07542921f,
-0.008937193f,0.026727147f,0.05710839f,0.05186364f,0.0032831081f,
0.011175257f,-0.039038166f,-0.05843894f,-0.08315406f,-0.06606561f,
0.037044533f,-0.08453216f,-0.023519045f,-0.04540532f,-0.07982257f,
0.021697706f,-0.0458394f,0.03522871f,-0.050966617f,-0.063875966f,
-0.051054474f,0.061346248f,-0.05241544f,-0.06954461f,0.03886417f,
-0.0433816f,0.029602842f,0.06433085f,0.06688753f,-0.07392348f,
-0.040260382f,0.058995478f,-0.02073792f,0.017576175f,-0.012675994f,
-0.053288206f,0.0148225f,0.072650366f,-0.105027266f,0.031513583f,
-0.017382728f,-0.032994285f,-0.007451767f,0.009878899f,-0.007299148f,
-0.04175163f,0.03374767f,0.024213264f,0.05414092f,-0.03536427f,
-0.051169273f,-0.013474681f,0.0059058513f,0.069563255f,0.05987877f,
-0.013132322f,-0.042317428f,-0.06860472f,0.013825303f,-0.04587354f,
0.060992584f,-0.030532949f,0.04941183f,-0.014133215f,-0.040671337f,
0.020949626f,0.03639224f,0.0011891519f,-0.054436494f,-0.013439227f,
0.05256908f,-0.023082096f,-0.03561907f,0.066297814f,0.023839274f,
0.0104447715f,-0.008768705f,-0.038872283f,0.018471044f,-0.05482154f,
-0.03251654f,0.016507898f,-0.040367987f,-0.01634929f,-0.06605499f,
-0.03250224f,0.07088017f,0.0035394994f,0.017482651f,-0.039269768f,
0.040370908f,0.03185793f,-0.031564403f,-0.03138167f,0.037870757f,
-0.046584953f,-0.026493216f,-0.06401927f,-0.028912818f,-0.028902967f,
0.053622406f,0.08003121f,0.042080354f,0.032658007f,-0.014426731f,
0.062449723f,-0.05676377f,0.079110876f,0.07184776f,-0.00549258f,
-0.03586114f,-0.00022388043f,0.043586355f,0.06583778f,-0.050099213f,
0.071200594f,0.024672797f,0.047708962f,-0.034593906f,-0.04849171f,
-0.026143936f,0.04232389f,0.027841743f,0.022178417f,0.07401241f,
0.014316389f,0.015219572f,-0.0051590474f,0.0163921f,0.030025437f,
-0.038409896f,-0.05508796f,-0.03807918f,-0.05145549f,0.018528495f,
0.0021856576f,0.05800467f,-0.04418546f,0.009491632f,0.036642283f,
-0.0060739117f,-0.033998664f,0.048292488f,-0.033246655f,0.07060849f,
-0.019862112f,0.005079218f,0.036806338f,0.032383762f,0.033543f,
0.050606217f,-0.02424944f,0.07775923f,-0.040247448f,0.033548784f,
0.0249633f,-0.054338202f,0.003757967f,-0.05815609f,0.01071315f,
-0.022040742f,0.039716095f,-0.06275568f,-0.024829123f,-0.097454645f,
-0.003768573f,-0.04024609f,-0.04590314f,0.060430907f,0.068490796f,
-0.08231424f,0.06267985f,0.04378145f,-0.12483174f,-0.059355337f,
0.025332754f,0.007981703f,-0.04930696f,0.009121787f,0.061065324f,
-0.05704457f,0.03962904f,-0.046050992f,-0.014067036f,0.009201089f,
-0.026414165f,0.018799296f,0.04156378f,-0.06453583f,-0.016580867f,
0.036428377f,0.028623112f,0.022041338f,0.04294462f,-0.05903567f,
0.04921091f,0.012603551f,-0.030253317f,0.0258193f,-0.039641008f,
0.050486032f,-0.0577679f,0.07082404f,-0.010708185f,-0.02470143f,
0.058456488f,-0.0054810764f,0.048181776f,-0.042277515f,-0.021189505f,
-0.06394933f,-0.032702625f,0.04649076f,-0.04528488f,0.03150651f,
0.015365597f,0.04934748f,0.039355367f,0.012129045f,0.03265094f,
0.0669665f,-0.07238269f,0.0078542065f,0.039996263f,-0.01406258f,
0.022297658f,0.008380504f,-0.030225407f,-0.043739047f,0.050492723f,
-0.046149388f,-0.026640454f,0.049007278f,-0.111842655f,-0.06304974f,
0.041839436f,-0.009834481f,-0.03328185f,-0.01045332f,0.05477945f,
0.059254266f,-0.019526325f,-0.044159755f,-0.03562182f,0.055545364f,
0.04915983f,0.033186905f,0.03893599f,-0.013355939f,-0.054984465f,
0.038492084f,-0.00068975776f,-0.05086272f,0.012893357f,-0.05169903f,
-0.026354654f,-0.055164307f,-0.011223975f,-0.060860444f,-0.044092264f,
-0.07592888f,0.07775885f,0.019024236f,-0.07587803f,0.032467913f,
0.037800714f,0.0010602851f,0.07552362f,0.007773329f,0.060806848f,
-0.01049159f,0.000121995465f,-0.026037227f,-0.010857829f,-0.0059501757f,
-0.0023370094f,-0.04360292f,-0.060279615f,0.027856717f,0.042960312f,
-0.0073922905f,-0.06782744f,-0.048458762f,-0.020495849f,0.058261212f,
0.001622577f,0.0056953696f,-0.08483917f,0.0755672f,0.018620929f,
-0.006728283f,0.024011916f,0.06912205f,-0.0064954283f,0.071372196f,
-0.061502833f,0.036966152f,0.030157138f,0.07492935f,0.034131728f,
0.024458393f,-0.009701303f,0.009300756f,-0.006855831f,-0.036461238f,
-0.13333738f,0.062195837f,-0.02558282f,-0.13898024f,0.0052215075f,
0.03733597f,-0.062109224f,0.030967448f,0.008419874f,0.011035897f,
-0.04338791f,-0.038746145f,-0.08551648f,0.0015092973f,-0.062702395f,
-0.07936473f,0.070994444f,-0.055258714f,-0.041531764f,0.0049381293f,
-0.021316072f,-0.017345268f,0.043804646f,0.04511084f,0.041505642f,
-0.020454165f,0.044989467f,-0.009749156f,0.03206511f,0.042534027f,
-0.0136736985f,0.015313958f,-0.030173503f,-0.03500464f,0.013405624f,
0.04856898f,-0.043716427f,-0.0032858707f,0.067616284f,-0.083146706f,
-0.047661368f,0.03565254f,0.024794536f,0.048771925f,-0.003880053f,
0.019250974f,-0.0011604056f,0.0480078f,0.037188448f,0.02637623f,
0.06322327f,0.036517248f,-0.054412622f,-0.044966217f,0.048778556f,
-0.022620555f,-0.04858757f,0.038222533f,0.00297148f,-0.034925863f,
-0.06556964f,-0.069249906f,0.029570982f,-0.06348814f,0.010983209f,
0.015576326f,0.074725725f,-0.03046881f,-0.004543806f,-0.015811248f,
0.02927576f,0.023810845f,0.06048628f,-0.059165634f,0.0031734384f,
-0.016430467f,-0.03474553f,-0.00463192f,-0.028598385f,-0.06608963f,
0.01207143f,-0.07307511f,0.0740913f,0.063840464f,0.029060945f,
0.048280247f,0.034750156f,0.016957825f,-0.07376241f,0.051512916f,
0.04179259f,-0.054247078f,0.048544396f,0.052202813f,-0.07513109f,
0.052285995f,0.041719463f,-0.015766291f,-0.05150847f,0.05121882f,
0.00458035f,0.05782089f,0.039140135f,0.022995794f,-0.02471611f,
0.010783743f,0.005586702f,-0.068337366f,-0.0182563f,-0.016441429f,
-0.020061973f,0.07102022f,0.06116971f,0.04194683f,0.03775556f,
-0.06792545f,-0.069075756f,0.032062013f,0.04778957f,-0.010893072f,
0.008007897f,-0.00993633f,-0.024483953f,-0.019099547f,-0.0015613628f,
-0.07651319f,-0.05247584f,-0.018707074f,-0.03683628f,-0.013006368f,
0.017508127f,0.027464695f,0.05795175f,0.06435646f,-0.021499593f,
0.048912615f,-0.04888838f,-0.02969949f,-0.080226354f,-0.046866473f,
0.061837003f,-0.04597258f,0.0109958835f,-0.006248866f,0.00034916293f,
-0.041236755f,-0.03330255f,-0.0032364875f,-0.021291818f,0.017822377f,
0.050323002f,-0.02039459f,-0.010404002f,-0.045752026f,-0.058884323f,
-0.004835965f,0.04611577f,0.06247133f,0.06743285f,0.0517862f,
0.062450856f,-0.010537565f,-0.021361772f,0.038305484f,-0.018848237f,
0.0054647103f,-0.061990254f,0.02821409f,0.015146673f,-0.008829623f,
0.064746305f,0.0106498385f,0.024676781f,-0.0011637209f,0.041496295f,
0.029477902f,0.0063302964f,0.00036087632f,-0.035461813f,0.0679242f,
0.051608406f,0.05837685f,-0.019682221f,0.052813232f,-0.010461256f,
-0.06378511f,-0.020256683f,-0.031733647f,0.0101164505f,0.054542452f,
0.03514941f,-0.058277607f,-0.06002422f,0.0099219605f,-0.049572155f,
0.06361124f,0.009451959f,0.047545478f,0.057012085f,0.051183447f,
-0.034391392f,-0.036087133f,-0.015397906f,0.010457865f,-0.07048953f,
0.043520063f,-0.046093903f,-0.010422014f,-0.07069925f,-0.037974913f,
-0.014654487f,-0.009368146f,-0.04582114f,0.0059923586f,-0.0067453845f,
0.057624508f,-0.0019788758f,-0.018435981f,0.013214976f,-0.05700264f,
-0.023603626f,0.0018034875f,0.0055986717f,-0.037778903f,-0.02605106f,
-0.009773102f,0.031013757f,0.035699405f,-0.04123569f,0.06007746f,
0.043715857f,0.060443267f,-0.014442708f,0.060460806f,-0.01199897f,
-0.040443018f,0.024066836f,0.05857545f,-0.05732076f,-0.04828379f,
-0.017810501f,0.011715871f,-0.023698127f,0.049183685f,0.0014883521f,
0.026206052f,0.022580948f,-0.02116663f,-0.006124178f,-0.041171733f,
-0.032463547f,-0.032753333f,0.02077613f,-0.034875672f,0.05934848f,
0.02933754f,-0.03606838f,0.07052275f,-0.058776263f,0.012269422f,
-0.026763381f,-0.022303589f,0.048190583f,-0.028499328f,-0.043157797f,
0.0015180563f,0.044748843f,-0.061430026f,-0.07252798f,-0.011562783f,
0.03342379f,0.02027208f,0.01894777f,0.027403733f,-0.02821981f,
-0.04481039f,-0.010307058f,-0.013479741f,0.031841f,-0.055947293f,
0.0033177095f,-0.063514814f,-0.0017126262f,-0.006608249f,0.019247178f,
0.016196592f,0.041243583f,0.046529006f,-0.0603277f,-0.0632523f,
0.02570668f,-0.010853358f,0.055108905f,0.0448031f,-0.048933767f,
-0.0035332101f,-0.07247161f,0.03967368f,0.017299606f,0.025804412f,
-0.040725477f,0.037210315f,-0.060062826f,0.023034303f,0.032874987f,
-0.052703243f,0.050134517f,-0.0069313617f,-0.06592386f,-0.030688766f,
0.042163067f,0.04422405f,0.07938736f,-0.035559807f,0.06070388f,
-0.009444586f,-0.015781341f,-0.06380705f,0.07095955f,0.0700758f,
0.060106803f,-0.012178413f,-0.00767241f,0.022477368f,0.04978735f,
-0.0109460605f,-0.00595314f,0.01824086f,-0.066418f,0.03075029f,
-0.047024358f,0.06201528f,-0.06456698f,0.047387525f,-0.047840983f,
-0.07214037f,0.054078f,-0.06067204f,0.029099934f,0.06426783f,
0.032109026f,-0.025793616f,-0.014867897f,-0.044624176f,-0.03860254f,
-0.056739714f,0.034397744f,-0.05330779f,0.05513446f,-0.07032114f,
0.010129972f,0.066301785f,0.004625627f,0.05874565f,0.06533623f,
-0.047425896f,-0.04887021f,0.034149457f,-0.0307123f,-0.025171984f,
0.057982754f,-0.023979314f,-0.0031646008f,0.047436353f,0.015649121f,
0.04151868f,-0.047042597f,-0.072524965f,0.051099505f,-0.028994957f,
0.02970855f,0.03980605f,0.02896625f,0.065001145f,0.015843008f,
0.025334166f,0.0046965047f,0.032199666f,0.0034363638f,-0.036587812f,
0.024434108f,0.054714173f,-0.012527366f,0.017448302f,0.05645947f,
-0.019123875f,0.009807962f,-0.01485963f,-0.0353807f,0.03604366f,
-0.05178741f,-0.033987764f,-0.0066026803f,-0.009146967f,0.02277682f,
-0.0041356543f,0.0187884f,0.017558865f,0.05360132f,-0.021356346f,
-0.038806275f,-0.017764395f,-0.022856193f,0.040873703f,-0.027459497f,
0.04595462f,-0.050669882f,-0.037893414f,-0.036641713f,-0.01563055f,
0.06579147f,0.00988552f,0.051939882f,0.00667645f,0.00048709754f,
-0.017165469f,0.03161909f,-4.3754568e-05f,0.044136137f,0.0064929607f,
0.020740354f,0.054127056f,-0.04305164f,-0.04840925f,0.029830111f,
0.04911149f,0.010895493f,0.050405763f,-0.062841974f,0.06501894f,
0.044849206f,-0.033118967f,0.052493323f,-0.04334097f,-0.0016232025f,
-0.0029892083f,0.061599854f,-0.025518175f,0.0065485607f,0.004377006f,
0.037035685f,0.06090285f,-0.0017235038f,-0.041806284f,-0.005928536f,
0.030237222f,-0.03546524f,0.019424118f,-0.011527853f,-0.018638987f,
-0.014916567f,-0.036187183f,-0.047497425f,-0.017886603f,-0.07517702f,
0.04274653f,0.053480916f,0.01870187f,-0.024261862f,-0.0035781462f,
-0.06518893f,-0.024122909f,0.051886775f,-0.06563102f,0.053596105f,
0.047281593f,-0.004200989f,-0.03331796f,0.0110021625f,0.050904647f,
0.030749567f,0.037054542f,0.05592785f,-0.0029401083f,0.0681611f,
-0.0018584846f,0.023773016f,0.034917034f,-0.04364788f,-0.015964063f,
-0.014219192f,-0.059254225f,0.01619994f,-0.011072187f,0.02638093f,
0.032202434f,0.028090462f,0.040524606f,0.019431993f,0.033519574f,
-0.02886001f,-0.03178118f,0.024095839f,0.040564675f,0.04731797f,
0.03446485f,-0.052908074f,-0.050693147f,0.033820838f,-0.0070682107f,
0.0026118038f,-0.0053591235f,-0.03776011f,-0.070758104f,0.04061829f,
0.009447978f,0.03702741f,0.014569511f,0.039497774f,-0.013226237f,
0.023856718f,-0.036313772f,-0.06656337f,0.041115426f,-0.0011990257f,
0.01869805f,0.009678792f,0.056467216f,0.013745578f,-0.009958152f,
0.056464415f,-0.035334237f,-0.04082449f,0.05856127f,0.063219495f,
0.06283663f,-0.009617434f,-0.004543605f,-0.009630612f,-0.065738864f,
0.024380213f,0.013907304f,0.019333474f,-0.038540766f,0.033669267f,
-0.061016493f,-0.010120226f,-0.022353437f,0.040080715f,-0.034908395f,
0.017111108f,0.057923384f,-0.0019391513f,-0.0074759293f,-0.064214565f,
-0.050486855f,-0.022050878f,-0.047433052f,0.061833065f,-0.046908136f,
-0.059944063f,-0.018977776f,-0.04119996f,-0.026470548f,-0.050052788f,
0.022388557f,-0.033076435f,-0.0026043875f,0.06386064f,-0.06078729f,
0.0008124538f,0.00091101223f,-0.047367048f,0.034501445f,0.02844041f,
0.014317828f,-0.030112805f,0.02456277f,-0.07028476f,0.0641414f,
-0.03186644f,0.026106305f,0.021148019f,-0.044825707f,0.02708353f,
0.04516363f,0.041546784f,0.03001306f,-0.07421677f,0.03516891f,
0.016946247f,0.014815182f,-0.05699208f,0.03569434f,0.054881755f,
-0.017184258f,-0.009255538f,0.015244114f,0.015005501f,-0.072149575f,
0.010163768f,0.07104602f,0.008748567f,-0.03704704f,-0.049784847f,
-0.028738718f,-0.05665725f,-0.003932768f,-0.019085571f,-0.07690179f,
-0.009981694f,0.0581081f,0.06045124f,0.05217111f,-0.033399288f,
-0.040827576f,-0.030571543f,-0.054309633f,-0.013271557f,0.010026706f,
0.05321463f,-0.06789034f,0.015109069f,-0.049478997f,-0.05929337f,
-0.0046417504f,0.05785352f,-0.06230269f,-0.015758974f,0.04561898f,
-0.030678758f,-0.00707205f,0.05196047f,-0.005057801f,0.0006182829f,
0.004958138f,0.07251433f,0.055366255f,0.05211711f,-0.00070249813f,
0.07043127f,0.018592503f,0.07897327f,0.07583495f,0.019204577f,
-0.013325055f,0.012970085f,0.06373506f,0.063301876f,-0.06856423f,
-0.018435763f,0.07173144f,0.037993785f,0.059357367f,-0.04799402f,
-0.046964057f,0.022989117f,0.050203837f,-0.025614316f,0.03999807f,
-0.034881104f,-0.05986608f,0.0053230748f,-0.0052143703f,-0.029600076f,
0.0014949886f,0.07639934f,-0.021271903f,0.018679997f,0.08382172f,
0.05250183f,-0.034328975f,0.0043867487f,-0.033432055f,-0.0011815738f,
0.020703878f,0.024550606f,0.06933487f,-0.036631763f,0.014584254f,
-0.055942893f,0.0008143668f,0.08066234f,0.015701186f,0.0544554f,
-0.06194412f,-0.006203532f,0.026797786f,0.030865546f,0.06461947f,
-0.031922147f,-0.027137458f,-0.00069229875f,0.034804087f,-0.018592592f,
0.063036166f,0.07581061f,0.058590513f,0.070689455f,0.05731242f,
0.08035317f,0.019198105f,0.06350808f,-0.03801634f,-0.02782757f,
-0.005984692f,0.07086663f,0.029047467f,0.08389903f,0.0068406444f,
-0.038041957f,0.018707488f,-0.06379571f,-0.036628224f,0.016912326f,
-0.059280362f,0.08349222f,-0.0070331004f,-0.047512446f,-0.047280595f,
0.039124787f,-0.032934967f,-0.053329863f,-0.042233713f,-0.09691726f,
-0.02687595f,0.029577404f,-0.061910965f,0.06800278f,0.027841922f,
0.037114684f,0.028761955f,-0.029611666f,-0.013854095f,0.045871984f,
-0.018521711f,0.008239648f,0.08073884f,0.07389852f,0.0063032634f,
0.07739901f,-0.035145056f,-0.008671844f,0.05288582f,0.024599476f,
-0.066842325f,0.0017434562f,0.031005964f,-0.05915868f,-0.06188364f,
0.02983156f,0.013428175f,0.047770303f,-0.019584835f,-0.02395425f,
0.05268371f,0.06458691f,-0.029521095f,0.02242881f,0.01920094f,
0.042901937f,0.04804375f,-0.04710327f,-0.016513595f,0.059857573f,
0.071471564f,0.000457445f,-0.04479609f,-0.00045836135f,-0.07848215f,
-0.04305675f,0.034955993f,-0.07558643f,-0.041526925f,-0.0027167897f,
0.050486248f,0.04087151f,-0.034991153f,0.014281597f,-0.014032366f,
-0.04013715f,-0.008405496f,0.03487871f,0.046706393f,-0.051965926f,
-0.030130474f,-0.0017583123f,0.0028257128f,0.07441681f,0.053747065f,
0.0033845846f,-0.059606347f,-0.015244363f,0.017640512f,-0.021197315f,
0.07204493f,0.0068350737f,-0.024361406f,-0.009392039f,-0.031130113f,
0.028725285f,0.051155154f,-0.058955822f,0.03842571f,0.024547005f,
-0.026918674f,-0.034171082f,0.0305444f,0.023982085f,0.04167954f,
0.041307244f,0.061311357f,0.026821682f,0.034062307f,-0.017130982f,
-0.029857585f,0.031261858f,-0.06269494f,0.049455162f,0.016189016f,
-0.045488894f,-0.013897547f,-0.043306705f,-0.09826703f,-0.058332592f,
-0.07023567f,-0.033308614f,0.06719741f,-0.033002317f,0.045238882f,
-0.0155169815f,0.0015066637f,0.05516984f,-0.005917602f,0.014802079f,
0.06523381f,-0.04550398f,0.027170062f,0.030505687f,-0.0648474f,
-0.034838557f,-0.03956124f,0.018068597f,0.036000796f,0.06681004f,
0.016067829f,0.041265845f,0.03585319f,-0.017463204f,0.037895046f,
0.047144048f,-0.043456256f,0.00019488153f,0.021285927f,-0.04437919f,
-0.038774416f,0.017957734f,0.017801452f,0.04336325f,-0.010133962f,
0.0119424425f,-0.017466255f,0.02267934f,0.014396565f,-0.059664663f,
0.028751414f,0.06907325f,-0.06171235f,0.024217978f,0.06149644f,
-0.0033828951f,-0.014120486f,0.059255f,-0.021997558f,-0.06066486f,
-0.065709785f,-0.0036460613f,-0.039259482f,-0.0516554f,-0.022553138f,
-0.00037400846f,-0.040054265f,0.016674021f,0.06611728f,-0.0292448f,
-0.0446655f,-0.06882238f,0.034383383f,-0.003535956f,-0.043620642f,
-0.043296658f,-0.026930949f,-0.027695714f,0.046308964f,-0.043410342f,
0.066816255f,-0.019022265f,0.02185497f,-0.047556344f,-0.06705621f,
-0.016788546f,0.05569744f,-0.038079813f,-0.042953514f,0.018594867f,
0.03002415f,0.020882592f,0.03261433f,0.0031237197f,0.012020141f,
-0.06526053f,-0.014595522f,-0.006641547f,-0.002826275f,0.062818736f,
-0.048999242f,0.06494585f,-0.005573648f,0.072647505f,0.06556775f,
0.02654171f,-0.018888766f,-0.03762522f,-0.04364906f,-0.028051862f,
-0.0060625575f,0.016089454f,-0.028906759f,0.035923526f,0.06106781f,
-0.060375728f,0.050067205f,-0.006907894f,0.016021665f,-0.074045636f,
0.012085765f,0.04633638f,-0.06766442f,0.06747507f,-0.019075615f,
0.035780657f,0.036344446f,0.009244335f,0.027891403f,0.067855075f,
-0.01867722f,0.0073123514f,-0.06576212f,0.024319952f,0.03653422f,
0.00097126263f,0.025321865f,-0.059771895f,0.056417704f,0.045094028f,
-0.035132095f,-0.016226573f,-0.07204173f,0.027612686f,-0.026758764f,
0.01532027f,-0.023381695f,0.026933663f,0.0018315112f,0.049997993f,
0.04473818f,-0.047514927f,0.055006634f,-0.067787476f,-0.02707059f,
0.019639986f,0.061439607f,-0.019642109f,-0.046067275f,-0.06584879f,
-0.03313532f,0.02185666f,-0.05959924f,-0.050515927f,0.022807177f,
-0.0015003349f,-0.054354522f,-0.020088121f,-0.020244466f,-0.03182716f,
0.013384265f,0.055385523f,0.02172826f,-0.043146335f,-0.020062853f,
0.054416385f,0.048194107f,-0.032081127f,-0.011596583f,-0.035400227f,
-0.04689178f,0.033714302f,-0.025347967f,0.024442099f,0.0678606f,
-0.042462297f,-0.048817437f,-0.046864606f,0.016140964f,0.07010271f,
-0.013843872f,0.0033414073f,-0.021235423f,-0.059805382f,-0.0033752862f,
0.02192507f,0.05837155f,-0.05009831f,-0.018562486f,-0.033677913f,
0.033783153f,-0.058560744f,0.013146589f,0.045328453f,0.007645511f,
0.048217118f,0.011511708f,-0.03236763f,-0.014444062f,-0.008044137f,
0.023078805f,0.07740686f,0.0039364444f,0.013682604f,0.08941866f,
0.070573576f,0.05292988f,0.011772595f,-0.06879659f,-0.015406783f,
-0.04455537f,0.046884164f,0.00012769793f,0.023324717f,0.047254812f,
-0.02661525f,0.010005099f,0.057634596f,0.06813166f,-0.0357581f,
0.008290929f,0.04604022f,0.035919562f,-0.007177923f,-0.030130671f,
0.014989895f,0.00031593023f,0.06820307f,0.021845654f,-0.014738683f,
-0.015977923f,-0.022219688f,0.08380783f,0.033591475f,-0.054012578f,
0.020465273f,-0.063344106f,-0.053220265f,-0.0595931f,-0.025719184f,
0.016006675f,0.032521494f,-0.002937297f,-0.053286377f,-0.005114497f,
0.03852108f,-0.058745787f,0.021939473f,-0.061355177f,0.037624054f,
-0.018647337f,-0.06445099f,0.025528856f,0.0055104154f,-0.002172715f,
-0.030804336f,-0.038642272f,-0.0046433327f,-0.057163604f,0.039229076f,
0.006005164f,0.017246375f,-0.028931351f,0.03850113f,-0.021181444f,
0.048992194f,0.018916061f,0.04657635f,-0.0011594482f,0.03691034f,
0.07335573f,-0.06093459f,0.063975744f,0.014298415f,-0.04146796f,
-0.06605814f,0.06284871f,-0.04428202f,0.035988834f,0.030097794f,
-0.0010942941f,0.035762466f,-0.038220506f,0.0353797f,-0.010293804f,
-0.018879175f,-0.06507602f,0.00963901f,0.064601f,-0.080756545f,
0.015573388f,0.044790115f,0.0067122136f,0.011240028f,0.076287344f,
0.032285806f,0.07105484f,-0.01656556f,0.044629317f,0.0018488351f,
-0.059090603f,-0.04018939f,0.017283518f,-0.049328133f,0.022340288f,
0.04852967f,0.039613437f,-0.029535837f,0.060723927f,0.03510002f,
0.035870012f,0.065975934f,-0.013065485f,-0.062182926f,0.06581316f,
-0.036854293f,0.023415364f,0.029018678f,-0.041311126f,0.023004957f,
0.035181686f,0.0012308091f,0.03412766f,0.03526446f,0.015557258f,
-0.07696189f,0.0113306185f,-0.0028596115f,-0.0437421f,-0.0073496387f,
0.01145939f,0.021763874f,-0.06143542f,-0.018161647f,0.01733293f,
0.01577716f,-0.046621438f,-0.05139495f,-0.06534147f,-0.027017573f,
0.065618105f,0.058168203f,0.0167519f,0.022373639f,0.017043365f,
0.044844463f,0.00035282335f,0.0016650779f,0.0032212792f,0.073526315f,
-0.027690744f,-0.007971491f,-0.034190048f,-0.0045775576f,0.02203299f,
0.083048664f,-0.049991805f,-0.015544356f,-0.0026925968f,0.043873485f,
0.005437577f,-0.06150187f,0.010557792f,0.03389587f,0.062549666f,
0.03054286f,-0.027424512f,0.06476254f,-0.03790086f,0.05240609f,
-0.022161566f,-0.06850704f,-0.00020073979f,-0.0009582409f,0.031087287f,
0.06905268f,-0.05250656f,-0.06492877f,0.019396469f,-0.0041685f,
0.07017207f,0.04060099f,-0.055873096f,-0.0572571f,0.060269054f,
-0.05227284f,0.010437978f,0.006269842f,0.11710471f,-0.039064236f,
0.02110405f,0.0357311f,-0.063042015f,0.0392816f,0.026032802f,
-0.06332798f,-0.06495999f,0.0195839f,-0.05795864f,0.03536957f,
0.020212267f,0.04113819f,-0.0614063f,0.008941991f,0.0156511f,
-0.04664852f,0.015724998f,0.009868314f,0.054178048f,0.052454084f,
-0.045191992f,-0.08197798f,-0.0038240734f,0.06387818f,-0.057967484f,
0.0656054f,-0.035481304f,-0.016750881f,-0.044123374f,-0.034811832f,
-0.017565928f,0.06492191f,-0.027798645f,0.029103447f,0.067768514f,
-0.068610944f,-0.025488872f,0.025940888f,0.019877942f,0.026227647f,
0.05934867f,-0.042215645f,0.01806442f,-0.019221708f,0.049394917f,
-0.06367999f,-0.023437764f,-0.0061970055f,0.045818806f,0.03665836f,
0.01985906f,0.059497148f,-0.0505848f,-0.032143805f,-0.0007835942f,
-0.034962002f,0.031224154f,-0.027553525f,-0.030203072f,0.048387323f,
0.059320934f,8.5255975e-05f,0.020441309f,0.02438127f,-0.06893159f,
-0.06631759f,-0.03888784f,0.014675593f,-0.031894974f,-0.0071013113f,
0.053865943f,-0.018291803f,0.008382621f,0.0125276195f,0.046288505f,
-0.061443795f,-0.0019887642f,-0.020091f,-0.020843914f,-0.014518268f,
0.0032471512f,0.03041556f,0.068579234f,0.00082322874f,0.0098611275f,
0.032645036f,-0.0012798222f,-0.010445683f,0.035123397f,0.026663674f,
0.036555335f,-0.03696253f,-0.011936496f,0.017112529f,0.061206676f,
-0.06411732f,-0.052582074f,-0.00020576688f,-0.023371719f,0.033142105f,
-0.04128784f,-0.048647754f,-0.00617035f,0.042760152f,0.046575353f,
0.027363935f,-0.0165293f,-0.014122489f,0.009953684f,-0.032423474f,
-0.06588143f,-0.04265725f,0.031360187f,-0.041004546f,0.007694977f,
0.027015802f,0.04121809f,-0.069581315f,0.061924003f,0.063671656f,
-0.05165177f,-0.028281648f,-0.05792968f,-0.027057106f,0.05618369f,
0.024512496f,-3.7306418e-05f,-0.012727998f,-0.07303924f,-0.075885996f,
0.041655988f,-0.07313873f,-0.0049423133f,-0.06367946f,0.03438106f,
0.05036485f,0.009285283f,0.046710484f,-0.018307908f,-0.04445381f,
0.0034285404f,0.0046031177f,0.013722419f,0.015424073f,0.0010966186f,
0.056489978f,-0.059067734f,0.009735005f,-0.016463267f,-0.07619476f,
-0.00287296f,0.025235403f,0.030396825f,-0.031060016f,0.03237161f,
-0.05539759f,-0.058619447f,0.06816055f,0.046778418f,0.05775732f,
0.03685459f,0.022720234f,-0.06562832f,0.029153896f,0.053102054f,
0.018120296f,0.07523987f,-0.06503052f,-0.030542742f,-0.024037294f,
-0.0038367265f,0.0028323438f,-0.0063510435f,-0.07037237f,-0.021629065f,
0.038725115f,0.056353267f,0.06131362f,-0.014657162f,-0.015349035f,
-0.044179402f,0.05380543f,0.028417477f,0.0033235042f,-0.016731195f,
-0.06632703f,0.0031061694f,-0.06546337f,0.047187734f,0.0067514568f,
0.04177731f,-0.033049777f,-0.019882018f,0.13755813f,-0.034513775f,
-0.0070170257f,0.10316394f,0.038217913f,0.046533626f,-0.00468136f,
-0.019917663f,-0.05384964f,0.0017985393f,0.006084711f,-0.071899466f,
0.05695945f,-0.044033792f,0.0098335985f,-0.007744413f,-0.053283863f,
-0.03588142f,0.023074517f,-0.05253605f,0.07482737f,-0.05148357f,
-0.04363381f,-0.04649872f,0.036670543f,-0.016900863f,0.020186434f,
-0.004711671f,0.017689789f,0.0027015167f,-0.03223718f,0.016646948f,
0.027717626f,0.019412894f,-0.022124605f,-0.072793014f,0.017132064f,
-0.008929794f,-0.044344347f,0.056472767f,0.010011873f,0.051773675f,
0.016555665f,-0.015149654f,-0.009334378f,0.03876563f,-0.043612376f,
0.060133852f,0.033592112f,-0.049757626f,0.07054675f,0.073326394f,
-0.06948629f,-0.028544214f,-0.008552447f,0.062266693f,0.023571834f,
0.033375856f,-0.0063184565f,0.040336397f,-0.057083566f,-0.043133564f,
-0.019462252f,-0.05573163f,0.017227134f,-0.0025208967f,0.055918343f,
-0.024930065f,-0.030416993f,0.010558136f,0.021590006f,-0.04724021f,
0.07658516f,0.014144014f,0.021993859f,-0.004112619f,-0.029901298f,
0.016648121f,-0.03568936f,-0.031082897f,0.027026488f,0.054735076f,
0.014195497f,0.009173328f,0.029289868f,0.04382042f,-0.06518079f,
-8.973608e-06f,0.070859075f,0.031140726f,-0.031687498f,0.02134519f,
0.0038398579f,0.05897306f,-0.0019429699f,0.013546884f,-0.009685393f,
-0.05044828f,-0.028380228f,0.014463185f,0.057189163f,-0.035179414f,
0.020523133f,0.058282584f,-0.025623003f,0.036410276f,0.06786037f,
-0.06765249f,0.07527328f,0.022963678f,0.0031764049f,0.021269735f,
-0.011973731f,0.06430596f,0.051521834f,-0.056680113f,-0.06887642f,
0.008295204f,-0.022500228f,0.06673079f,0.06026699f,0.05000622f,
0.04446668f,0.046711627f,0.022438914f,0.00043481812f,0.021242645f,
0.06038015f,0.025547666f,-0.006505561f,0.001520728f,0.007634157f,
0.009836125f,0.04428685f,0.008353884f,0.07196944f,-0.031027908f,
-0.020795457f,0.04768562f,-0.042358305f,-0.023122452f,-0.027371988f,
0.008811408f,-0.04123453f,0.0071860766f,6.7933666e-05f,-0.023688078f,
0.045630515f,-0.020356558f,0.0375445f,-0.007685643f,-0.04900824f,
0.034215875f,0.05506136f,0.017177647f,0.049826488f,-0.0014758446f,
-0.014919048f,0.023650905f,-0.062381823f,-0.037639823f,0.02833626f,
0.06836645f,-0.03079687f,-0.07219962f,0.04459308f,-0.013110843f,
-0.015161193f,-0.017064719f,0.05615445f,-0.014242702f,0.023492241f,
0.0525728f,0.051180176f,0.0027285358f,-0.06702508f,0.06090989f,
0.0013703416f,-0.031186016f,-0.015531406f,0.02072462f,-0.0067546037f,
-0.050034627f,0.024167959f,-0.011584464f,0.042845014f,-0.086373925f,
-0.027377125f,-0.015867624f,-0.0112545565f,-0.020292757f,-0.030506631f,
0.035574704f,-0.027214656f,0.06815669f,-0.049421422f,-0.059636395f,
0.048956554f,-0.050532065f,-0.052952852f,-0.06630723f,-0.070614696f,
0.047541454f,0.06184831f,-0.053595383f,0.014228496f,-0.041529484f,
0.0039963783f,0.067169055f,-0.016101854f,-0.018703932f,0.053359732f,
0.008990702f,-0.02646238f,-0.06197345f,-0.03535413f,-0.018962169f,
-0.018626077f,0.015438403f,-0.010657899f,0.016551614f,-0.037101712f,
0.02180562f,-0.05767378f,0.05097219f,0.03231878f,0.0065607745f,
-0.049536213f,0.06348775f,0.0070006014f,-0.0046895896f,-0.06002201f,
-0.03198534f,-0.039540514f,0.017342407f,0.009330766f,-0.03310689f,
-0.056983232f,-0.009815828f,0.023188217f,-0.090298764f,0.04290894f,
0.05696452f,0.07513779f,-0.060455274f,0.058395974f,0.005992895f,
0.03232165f,-0.03343821f,-0.034010947f,0.017035432f,0.071649835f,
0.04160252f,-0.06113027f,-0.055637605f,0.032294095f,-0.0054167686f,
0.06013952f,0.06556904f,-0.05697206f,0.0045088115f,-0.06337433f,
-0.060450416f,-0.06048243f,-0.075847514f,-0.026140565f,0.015250751f,
-0.040169958f,0.038196385f,0.045651972f,-0.052045804f,-0.008507141f,
-0.059481293f,0.01035727f,0.069292985f,-0.009213813f,-0.044916227f,
-0.06961318f,-0.003796291f,-0.03695501f,-0.026751904f,-0.036168844f,
0.02799456f,-0.03898354f,-0.017628446f,0.045464016f,-0.006522991f,
-0.05088018f,-0.031902105f,-0.0637173f,-0.043664698f,-0.0031882564f,
-0.012349518f,0.046119902f,-0.077548966f,0.06270101f,0.00022799108f,
-0.035965495f,-0.0372231f,-0.06611244f,-0.0325358f,-0.048383582f,
0.046607554f,0.033329606f,0.07225811f,0.022159835f,-0.030236572f,
0.0301265f,0.012523029f,-0.11078205f,-0.04478886f,-0.008620362f,
-0.028667001f,0.038184047f,-0.037160277f,-0.06544318f,0.06334244f,
-0.031343795f,-0.07407067f,-0.047268614f,0.038969863f,-0.071893364f,
-0.011249901f,0.06310292f,-0.014660777f,0.040402986f,-0.06565134f,
-0.07004161f,-0.0035829248f,-0.010192744f,0.013295101f,-0.04248681f,
-0.040458392f,-0.032907948f,0.008614674f,0.06920831f,0.00952104f,
0.007341272f,-0.058674667f,-0.058459155f,0.0008857636f,-0.05838246f,
-0.011705347f,-0.008103568f,0.07570917f,0.050070617f,-0.041707996f,
-0.037581168f,-0.058681615f,0.055639517f,-0.021328436f,-0.060708933f,
0.043156076f,0.020437563f,-0.01325742f,0.021744484f,-0.036978655f,
-0.05716733f,0.03440602f,-0.0579637f,0.055131037f,-0.046226162f,
-0.060132485f,0.016020048f,0.021345094f,-0.06042714f,-0.015869463f,
-0.05283657f,-0.006107377f,0.046204302f,0.009381717f,0.07671401f,
-0.0588052f,0.07377688f,-0.039981388f,-0.035701137f,0.056354f,
-0.065263994f,0.04465616f,0.056082845f,0.04967644f,-0.12209601f,
-0.04993614f,-0.060978726f,-0.05481899f,-0.017089732f,0.0029800474f,
-0.10395611f,-0.0009871451f,-0.05593324f,-0.037734833f,0.02326535f,
-0.02963034f,-0.018555878f,0.06974979f,0.04191352f,0.0055870567f,
-0.0010601782f,-0.042594604f,-0.09021752f,0.01006934f,-0.051285002f,
0.032011595f,-0.05613639f,0.027003562f,-0.0033963756f,-0.047314875f,
0.061364096f,-0.061876204f,-0.010586214f,0.05564254f,0.015981762f,
0.006829859f,-0.05104704f,-0.03939256f,0.04680706f,0.0069307415f,
-0.046538964f,0.0090728775f,0.03013613f,-0.04089593f,0.00531856f,
0.07888993f,-0.017101694f,-0.01974094f,0.013746696f,0.047953043f,
-0.0050337943f,-0.04653302f,-0.05558178f,0.026090572f,-0.06455386f,
0.0031364048f,0.06683529f,0.029984655f,-0.0042105936f,0.016150547f,
-0.03955908f,0.005050827f,0.0115046045f,-0.026978916f,0.042647865f,
-0.016678056f,-0.0041859127f,0.012494765f,0.0322702f,0.00017479468f,
-0.02036261f,-0.00548139f,0.017440395f,-0.00027568435f,-0.07071471f,
0.03967665f,0.09545581f,-0.024964755f,0.0042827595f,-0.035309166f,
-0.035624523f,-0.010408931f,-0.04669346f,-0.03158276f,0.036537092f,
-0.07961242f,0.010010711f,-0.0438399f,0.06845616f,0.0321057f,
-0.054656874f,-0.07377536f,-0.015478f,0.05864641f,-0.012945896f,
0.0038127585f,-0.010962013f,-0.060927093f,-0.04515712f,0.0230219f,
-0.021768937f,0.05555479f,-0.04358762f,-0.051340457f,0.06520614f,
-0.0613432f,0.010173658f,-0.056855585f,0.028583532f,-0.059632674f,
0.03540503f,0.06589821f,-0.019944226f,-0.037008323f,0.021363396f,
-0.012834158f,0.065836936f,-0.023725513f,-0.024925768f,0.03817296f,
0.010006469f,0.024900312f,-0.020489486f,0.025725573f,0.03893967f,
-0.008891434f,-0.045099113f,0.028620372f,0.06284236f,0.0055314773f,
-0.031206662f,-0.0052496595f,-0.041631207f,0.057477422f,0.06969193f,
0.041983303f,0.0662013f,0.04758327f,-0.011902462f,0.029389257f,
0.008629087f,-0.03900028f,-0.06128282f,0.03613309f,-0.00026470478f,
-0.041186783f,-0.047586728f,-0.006266856f,-0.036672365f,-0.053093884f,
0.017396241f,-0.015878862f,-0.010451497f,-0.06477022f,-0.0026349835f,
-0.04835176f,0.059147574f,-0.046201475f,-0.02152933f,-0.06238585f,
-0.03732019f,-0.021801142f,-0.04500238f,0.00077828235f,-0.03661158f,
0.05408136f,0.06129795f,0.0023631484f,-0.053026248f,0.025794445f,
0.052462656f,0.03527626f,0.03762765f,-0.043934777f,0.0042657466f,
0.05151188f,-0.03521716f,0.02166171f,0.049532916f,-0.032650396f,
-0.029241718f,0.013582322f,-0.018456066f,0.00091095f,0.054961193f,
-0.059201766f,-0.049162477f,0.0633628f,0.07073144f,-0.03762892f,
0.02959904f,0.024551451f,-0.019455861f,-0.03482687f,-0.076924406f,
0.014486367f,0.08358827f,0.053521037f,0.019188358f,-0.017848082f,
0.0032560956f,-0.044061564f,0.045216013f,-0.06427545f,0.06802449f,
-0.023514181f,0.0669717f,0.0045857574f,-0.03706978f,0.033932675f,
-0.06079727f,0.014994071f,-0.022433342f,0.04558603f,0.04480164f,
-0.0053544454f,-0.00081583235f,0.072364196f,0.058224972f,0.036031116f,
0.06560853f,-0.071673974f,0.040157434f,-0.022425327f,0.049236484f,
0.016313959f,-0.01389802f,0.011420173f,-0.0032693762f,0.07747318f,
-0.052659325f,-0.029988853f,0.02530446f,-0.048879985f,-0.0023756437f,
0.053382892f,0.009332539f,-0.025574489f,0.054814573f,0.036856294f,
-0.047517706f,0.015501187f,0.026887901f,-0.026291536f,0.04275404f,
-0.047508843f,-0.051169496f,0.041082017f,-0.07057494f,0.01584335f,
-0.022191169f,-0.047306146f,-0.05915347f,0.04597598f,-0.0074726054f,
0.05486989f,0.053187016f,-0.040834524f,-0.017137332f,-0.004319611f,
0.025159633f,0.04951149f,-0.00900647f,-0.02893463f,0.060921516f,
0.0147494795f,0.055517945f,0.016038658f,0.049781635f,-0.06309789f,
0.023096316f,0.0025189882f,0.069831334f,-0.013174779f,0.0045540603f,
-0.03307304f,-0.061243024f,-0.012058161f,-0.044754367f,0.049690165f,
-0.058551326f,0.029853653f,-0.0116358f,0.0030564251f,0.02489663f,
0.024400711f,0.023290038f,-0.06044969f,-0.03371928f,0.051602647f,
0.051853087f,-0.028781928f,0.013827986f,0.0037089912f,0.002472264f,
0.013108233f,-0.06954356f,0.032627612f,-0.05059149f,0.017531186f,
-0.07079107f,0.05784829f,-0.013310216f,0.06909759f,0.0601009f,
-0.046846773f,0.002869756f,-0.044925746f,0.03907347f,0.031349096f,
-0.033224046f,0.045635443f,-0.03641113f,0.030377483f,-0.054596893f,
0.018653445f,0.039756306f,-0.0046859817f,0.012551195f,0.037906535f,
0.037961513f,-0.017685017f,-0.065022275f,-0.03752387f,0.047262162f,
0.015346646f,-0.064249225f,0.030962728f,0.015432982f,-0.05670084f,
-0.06877125f,0.02313049f,0.046389718f,-0.053892277f,0.0618155f,
-0.068366796f,-0.06171733f,-0.048028346f,-0.033756487f,-0.049873702f,
-0.036811363f,-0.021357471f,-0.06941094f,-0.06227021f,0.047211096f,
0.05706791f,0.06631137f,0.0089334445f,0.032723773f,0.03053037f,
0.06682091f,0.017454218f,0.03951438f,0.011020821f,-0.05926909f,
0.027513344f,-0.006933361f,-0.03971326f,-0.062713794f,0.019175518f,
0.0007462989f,-0.03563479f,-0.012091697f,-0.023842128f,0.0011422099f,
0.042586062f,-0.007821315f,0.00536107f,-0.01583103f,-0.046715543f,
0.03362181f,-0.0384766f,-0.06276541f,0.0076291924f,-0.039645057f,
-0.056866158f,0.055031944f,0.03408031f,0.023896666f,0.052987456f,
-0.014197731f,0.047481872f,-0.0055257534f,0.063869745f,-0.06091864f,
0.059299394f,0.024401713f,0.008006675f,0.07457717f,-0.023350127f,
0.029725356f,0.04388266f,-0.03781812f,-0.001831051f,0.070088714f,
-0.06256467f,0.071955144f,0.083019435f,0.061334603f,0.0015812456f,
0.013245625f,0.010933001f,0.04472919f,-0.0027439608f,-0.052693512f,
0.032028586f,0.041456584f,0.05126433f,-0.017635528f,0.008616854f,
0.060725108f,-0.035049442f,0.02066376f,-0.055453673f,-0.04529789f,
0.03255372f,-0.032701124f,-0.039430514f,-0.054791227f,-0.030395767f,
0.03338384f,0.07524093f,-0.054329507f,0.055645797f,0.048146896f,
-0.0028031906f,0.017710589f,0.06825241f,-0.022857158f,-0.036180686f,
0.06783701f,-0.051122468f,-0.015838344f,-0.0915494f,-0.043287054f,
-0.06610118f,-0.05623216f,0.02758534f,-0.022333162f,0.0035723012f,
0.031272277f,-0.043020915f,-0.029707449f,0.069799885f,-0.07324462f,
-0.008664769f,-0.042346887f,0.012836376f,0.0434849f,0.05645455f,
0.038450994f,0.005970148f,-0.035398915f,-0.047748383f,0.01903303f,
-0.06665633f,-0.06321471f,0.040850703f,-0.0073853726f,0.039001144f,
-0.00071821007f,-0.0005377626f,-0.035956144f,-0.039555263f,0.058692083f,
-0.031753924f,-0.0013185221f,-0.05110818f,-0.026999371f,0.0027858277f,
0.014030408f,0.031562805f,0.036765832f,0.0077967267f,-0.062356662f,
0.041719925f,0.027212001f,0.043147165f,0.017812015f,-0.026817834f,
0.058168553f,0.037995778f,0.042599868f,0.067257635f,0.004727733f,
-0.053411298f,-0.05193442f,-0.027546298f,0.010742908f,-0.055261675f,
0.002718315f,0.06725601f,-0.0034067156f,-0.03485959f,-0.041606072f,
-0.015470824f,0.039781354f,0.056264546f,-0.015672803f,-0.017528249f,
0.0065136347f,-0.026288737f,0.05163861f,-0.018579237f,-0.01901132f,
0.041318744f,0.030369908f,0.039942887f,0.027626036f,0.0039021077f,
0.014027805f,0.07347092f,0.009308848f,-0.060754504f,-0.053006385f,
0.029391704f,0.005807152f,0.029520083f,-0.018899066f,-0.042600617f,
-0.035123575f,0.06310597f,0.05988636f,-0.07301399f,0.05165703f,
0.023377743f,-0.023965333f,-0.026545899f,0.023226837f,-0.024273043f,
0.03927912f,-0.06273051f,0.0146757085f,0.056069214f,-0.058241095f,
-0.049423084f,0.0038087077f,0.022794342f,0.08089812f,0.058319263f,
-0.04422233f,0.050132815f,-0.019375809f,-0.008962654f,0.032136213f,
-0.007498216f,-0.07067881f,-0.056727182f,0.02908818f,0.065369666f,
-0.025598465f,-0.06566202f,-0.057567634f,-0.048949823f,-0.045505878f,
-0.06931394f,-0.06277624f,-0.009642169f,0.030654693f,-0.033376914f,
-0.06889806f,-0.07177295f,0.0005361602f,-0.061279528f,0.013921796f,
-0.062497683f,0.024491325f,-9.860804e-05f,-0.0012770066f,0.06058019f,
-0.023859192f,-0.02807461f,-0.023607615f,-0.05277384f,-0.074244656f,
-0.060903613f,-0.012850892f,-0.049937867f,0.04052595f,-0.09480824f,
0.023044553f,0.045377757f,-0.065715075f,0.0075889807f,-0.06101917f,
-0.018672489f,-0.021315394f,-0.0073138946f,0.033269208f,0.057814017f,
-0.056113962f,-0.016006384f,0.009350204f,0.061553665f,0.043440934f,
0.04664063f,-0.020999216f,-0.049800634f,0.023204882f,0.005431572f,
0.023951072f,0.032161243f,-0.07683025f,-0.068298504f,0.015548497f,
-0.043294355f,-0.056576025f,0.047305852f,-0.06303321f,0.04315376f,
0.062409803f,-0.02877587f,-0.0025296737f,-0.054160986f,-0.007086541f,
0.05676753f,0.02014176f,0.04652635f,0.007852992f,-0.014929685f,
-0.07026766f,0.018753149f,-0.013007121f,0.021089308f,0.05262536f,
0.057240546f,0.05798223f,-0.03532384f,0.015821207f,-0.028890017f,
0.050980363f,0.05769187f,0.030561225f,0.005052922f,0.0030734467f,
0.06685836f,-0.04951764f,0.05950661f,-0.01887898f,0.0023186966f,
0.049425628f,-0.059680283f,-0.05934145f,-0.057607006f,-0.00029179797f,
-0.028315209f,-0.012574446f,0.04351597f,0.037927173f,0.039194856f,
0.039041515f,0.05546762f,0.037887983f,0.023098517f,0.0032983983f,
0.0048462786f,0.055793416f,0.017514583f,0.017000861f,0.027550505f,
0.03485239f,-0.05820154f,0.06843998f,0.046923287f,-0.031056007f,
0.0021940067f,0.04429407f,-0.06708322f,0.059936512f,0.063934825f,
-0.010825452f,0.064924344f,-0.007864027f,0.014847647f,-0.0557988f,
0.013497654f,-0.0077875475f,-0.021333061f,0.059449878f,-0.06076916f,
-0.05112655f,-0.040779542f,-0.056899358f,-0.056835037f,0.042041518f,
-0.026305158f,-0.023069957f,-0.0405314f,0.054216098f,-0.01686177f,
0.014572615f,0.036552552f,0.032062594f,-0.038152423f,0.028323982f,
-0.036945652f,-0.016210828f,0.019364746f,0.05085914f,-0.075750925f,
-0.008946862f,-0.03822273f,-0.057917714f,0.023034403f,-0.06390976f,
0.01440776f,-0.0338774f,-0.0052689086f,-0.015948657f,0.009743043f,
0.044928957f,0.0058541833f,-0.0463159f,-0.04992971f,0.051068306f,
0.024811262f,-0.04073129f,-0.009947001f,0.059120916f,0.02737528f,
-0.009250958f,0.055273786f,0.0007519276f,-0.04349727f,0.02618357f,
-0.036985163f,0.02767693f,-0.009558474f,0.009500961f,0.003831269f,
-0.013793769f,-0.0509567f,-0.07666095f,0.07648628f,-0.009943578f,
-0.046600454f,-0.034088768f,-0.012824261f,0.000629661f,-0.044298094f,
-0.05324586f,-0.048164092f,0.03782546f,-0.061266214f,-0.016189791f,
-0.01977009f,0.05499039f,0.06150775f,0.04765361f,-0.0030309942f,
-0.027858803f,-0.055474874f,0.032358505f,0.017088795f,-0.036591634f,
-0.02127064f,-0.062117003f,-0.055179805f,0.04448197f,0.012445744f,
0.023301102f,-0.024818001f,-0.0008699713f,-0.03929362f,-0.036565676f,
-0.060451612f,-0.04022531f,0.042250417f,-0.059149884f,-0.004120484f,
-0.0021093385f,0.009307889f,-0.008573616f,-0.017479332f,-0.078168415f,
0.10298717f,0.018632164f,0.021466723f,0.01439422f,-0.018378854f,
0.003785421f,-0.031866483f,0.01205208f,-0.06062935f,0.08210084f,
-0.06899493f,-0.025382059f,0.00036278612f,0.026212247f,-0.023100194f,
0.053247698f,-0.025344752f,-0.024451124f,0.013461188f,0.04550728f,
0.027894255f,-0.0694371f,0.027953358f,-0.04457746f,0.06365714f,
0.042811953f,-0.010442688f,0.019894427f,-0.024099346f,-0.06438674f,
0.0127227595f,-0.0024721178f,0.022190593f,0.06875536f,0.01009316f,
-0.063552916f,0.07779234f,-0.010046017f,-0.05682724f,0.068320215f,
-0.0038615798f,0.0609623f,-0.03785965f,-0.0112596275f,-0.050240155f,
-0.018201638f,0.011628848f,-0.013331611f,-0.016174773f,0.012203875f,
-0.024232047f,0.09092599f,-0.005966943f,-0.0029719693f,0.03666802f,
-0.06250829f,0.043785747f,0.004631095f,0.007246189f,-0.009487539f,
0.08557807f,-0.07622487f,-0.009440103f,0.001975448f,-0.050857138f,
0.03879185f,0.09671234f,-0.06490699f,0.05520017f,-0.028826823f,
-0.012529336f,0.028182268f,0.05566436f,0.05162203f,-0.067099124f,
0.044653475f,0.0107314745f,-0.029854538f,-0.064636394f,-0.02696899f,
-0.041982803f,0.05074175f,0.024929957f,0.05790829f,0.055142816f,
-0.04630217f,-0.0649739f,-0.062285807f,-0.009241931f,-0.05911453f,
0.07084561f,-0.056980386f,0.05737938f,0.0518313f,0.0023588613f,
0.041072264f,-0.034351517f,-0.007285083f,0.040627144f,0.048125856f,
-0.043507453f,-0.07180729f,0.035504445f,-0.0065329974f,-0.021071022f,
-0.01432811f,-0.0072300523f,0.03989366f,0.015392111f,0.047232196f,
-0.00067271304f,-0.048962995f,0.034955457f,0.05492341f,-0.01623576f,
-0.06266454f,0.022051774f,0.013780308f,0.035065606f,-0.052759077f,
0.09248637f,-0.071753666f,-0.037767254f,0.07764313f,-0.02750138f,
0.032399066f,-0.05663991f,0.02317145f,0.014730496f,0.019232206f,
-0.051455513f,0.012333379f,0.04102506f,-0.07173008f,-0.0042374874f,
-0.0025878558f,-0.04694426f,-0.00037606555f,0.11397529f,-0.07417183f,
0.05086869f,0.026068738f,-0.059191998f,-0.005626325f,0.04805879f,
-0.07108574f,0.05805852f,0.035020452f,0.008218607f,-0.021936985f,
-0.032546442f,0.043427315f,-0.025931574f,0.007844092f,-0.039064903f,
-0.029982323f,0.053074975f,0.04794018f,0.021306308f,-0.050037727f,
0.023695806f,0.012577291f,-0.020576188f,-0.044621713f,-0.07201869f,
0.073172994f,0.041729584f,0.04299525f,0.004061313f,-0.028876038f,
-0.012783984f,0.009812006f,-0.035653733f,-0.021422017f,-0.015626103f,
0.007041148f,-0.0240635f,0.015062815f,0.06539566f,-0.051146895f,
0.06975656f,0.054529503f,-0.02890165f,0.015377238f,-0.023597466f,
0.0027213548f,0.07999873f,-0.014601753f,-0.07241829f,0.07511345f,
-0.03951016f,-0.05396831f,0.078956515f,-0.061658997f,-0.08141671f,
0.0009896387f,0.00909875f,0.018921306f,-0.017217131f,-0.03794956f,
0.053624194f,-0.037600297f,0.014030492f,-0.009717735f,0.041831117f,
-0.017069016f,0.01608122f,0.016190084f,-0.05938639f,-0.009404901f,
0.021582011f,-0.029721482f,-0.05222052f,0.07002792f,-0.0202964f,
-0.039594587f,-0.020890132f,0.044131238f,0.058505993f,0.055669405f,
0.051653516f,0.0034472337f,-0.009107358f,0.034357514f,-0.042183258f,
0.066218294f,-0.012540863f,-0.060555257f,0.042916924f,0.058461167f,
0.036476597f,0.031867005f,0.048066337f,0.000588662f,0.053606708f,
-0.054260418f,-0.05875678f,0.059863087f,-0.0074543753f,0.029549215f,
-0.045734145f,0.01035302f,0.019528598f,0.009518778f,-0.07648797f,
-0.02311721f,-0.028189495f,-0.0096395705f,0.04487246f,-0.020422792f,
0.058208976f,-0.02263695f,0.12139237f,-0.047960877f,0.045729525f,
0.017270325f,-0.083155215f,0.025028728f,0.06027457f,-0.031256642f,
-0.012731479f,-0.015175022f,0.032937665f,0.0065923505f,0.02482357f,
-0.06423319f,0.037009485f,0.0084708845f,0.040308833f,-0.0044287993f,
0.06572115f,0.019638825f,0.017981155f,-0.054409433f,-0.061758228f,
-0.024198445f,0.012933051f,-0.032609295f,-0.029340213f,-0.058814924f,
-0.0726482f,-0.057598006f,-0.038338628f,0.03635267f,-0.024712473f,
-0.017470883f,-0.048121948f,0.03108779f,-0.020592056f,-0.0064089694f,
0.011273194f,0.009415809f,0.024752324f,0.05252532f,-0.04317682f,
0.029109394f,-0.031409338f,0.06374123f,-0.00066302303f,-0.06360897f,
0.06524089f,0.030698339f,0.056990296f,0.05135126f,-0.012130676f,
0.050801035f,0.05279154f,-0.059674628f,-0.06305956f,-0.044104517f,
0.024682812f,-0.012120187f,0.016132219f,-0.06075661f,0.045055512f,
0.078704126f,-0.014354687f,-0.052935593f,0.0832382f,0.0062928693f,
0.026362095f,0.01587687f,0.032f,0.035893664f,-0.017304057f,
-0.03124827f,0.01062875f,0.07202f,-0.0034949256f,-0.07328345f,
-0.017303037f,-0.034845255f,-0.046457235f,0.034120638f,-0.07337055f,
-0.0045821858f,0.064845696f,0.025242284f,-0.008580948f,-0.018576302f,
0.023179818f,0.01723489f,0.016938802f,-0.04878132f,-0.00492461f,
0.08788081f,0.061252102f,-0.0074349674f,0.087798096f,-0.03989035f,
-0.053613156f,0.03918693f,0.014251681f,-0.023186268f,-0.013489442f,
-0.06221484f,0.0328652f,0.007095867f,-0.012840448f,0.032864746f,
0.0818517f,-0.034609433f,0.011696847f,-0.034875464f,0.013731161f,
0.02550158f,0.08992305f,-0.04928457f,0.055588376f,-0.026589228f,
-0.010214574f,0.043085214f,-0.012058706f,0.044678126f,-0.043171838f,
0.019994231f,-0.017307894f,-0.04505101f,-0.0004105259f,0.021842562f,
-0.10497008f,0.17497483f,-0.03653106f,-0.09883662f,0.20189126f,
-0.05687428f,-0.087232165f,0.10978292f,0.036053985f,0.005921685f,
0.16548663f,-0.050504725f,-0.04309342f,0.13038233f,0.030824933f,
-0.00877636f,0.05148604f,-0.08705469f,0.0144338375f,0.079006396f,
-0.015421717f,-0.10278725f,0.05486979f,0.0027650467f,0.014621006f,
0.06639632f,-0.060561646f,-0.063319914f,0.09322298f,-0.021673903f,
-0.0423162f,0.06746083f,-0.03984612f,-0.04791551f,0.12311207f,
0.03712397f,-0.086325414f,0.11202729f,-0.038034424f,0.012501602f,
0.16565031f,0.0531145f,-0.009416947f,0.13741843f,-0.044096112f,
0.03969567f,0.037209783f,-0.0065854667f,-0.04869869f,0.063849196f,
0.06240123f,-0.07058871f,0.018529337f,0.007302222f,-0.066130064f,
0.07720668f,0.05968573f,0.021385605f,0.09818805f,-0.010923978f,
0.025250714f,0.05084603f,0.008240782f,-0.06724439f,0.06747745f,
0.00716879f,-0.015268304f,0.11356705f,0.040494658f,-0.07635608f,
0.0007268179f,-0.01968542f,-0.0019652557f,-0.0022936119f,-0.081593245f,
0.044825494f,-0.043157876f,-0.07283801f,-0.038806558f,0.0518786f,
0.0374569f,0.038459145f,-0.023918469f,-0.00530616f,-0.03797112f,
-0.044582967f,0.04368423f,-0.0005335402f,0.07968135f,0.019120196f,
0.054595403f,-0.020203099f,-0.055168983f,-0.074672125f,-0.036370553f,
-0.06647467f,-0.06336551f,0.059632856f,0.05528081f,0.032625295f,
0.062479638f,-0.06299275f,-0.018871626f,0.011427965f,-0.0686017f,
-0.043324832f,-0.021473397f,-0.054834127f,0.04031048f,0.006790661f,
0.053494424f,0.04984691f,-0.047471076f,0.038343076f,0.024275219f,
0.032660853f,-0.055152092f,-0.03827854f,-0.049758688f,0.03549374f,
-0.03792041f,-0.027492274f,-0.06164873f,0.038806226f,0.016522476f,
0.008308647f,-0.02087284f,0.08657322f,-0.0071939216f,-0.07208782f,
-0.03942194f,-0.019208994f,-0.055676457f,0.06429175f,0.044153925f,
-0.07541318f,-0.02732457f,-0.017800268f,0.04990178f,0.066667855f,
0.047154006f,0.03205716f,0.05973827f,0.05792614f,-0.057924982f,
0.005392959f,-0.036275428f,-0.023214564f,0.00596146f,-0.060503814f,
0.0067150723f,0.011038457f,-0.022230722f,-0.022396313f,0.005174893f,
-0.04164992f,-0.028770572f,0.03967885f,-0.06644835f,-0.02830422f,
0.05253211f,-0.030856967f,0.044691145f,0.04857593f,-0.02586853f,
0.044466157f,-0.0020448235f,0.031189086f,-0.007773224f,0.00719722f,
0.014568933f,-0.050152514f,0.11997667f,0.0018244148f,-0.049999774f,
0.0251447f,0.01131155f,-0.03797813f,-0.04979232f,0.006503959f,
0.041227017f,-0.024312686f,0.054902658f,-0.039599035f,0.014251735f,
-0.065814696f,-0.038770452f,0.022313392f,0.030753896f,0.00080595165f,
0.0480112f,-0.0045984914f,-0.08192003f,-0.031156462f,0.017298829f,
0.011076019f,-0.0150870485f,0.034957986f,-0.05443496f,0.008576709f,
0.029478779f,-0.082381144f,-0.06508358f,-0.040127575f,0.027918246f,
0.024127789f,-0.04324555f,0.015724253f,-0.015646838f,0.032424316f,
0.012314009f,0.026362654f,0.050289057f,0.058164734f,0.012295108f,
0.04019709f,0.00940335f,-0.03297344f,0.042736594f,-0.01908504f,
0.054701455f,-0.027667677f,0.05147626f,0.011811662f,-0.07885282f,
0.025293415f,-0.0075989356f,-0.04621555f,-0.079688795f,0.034109015f,
0.049471747f,0.04751566f,0.028685823f,0.06696371f,-0.024360854f,
0.017177327f,-0.032208998f,-0.06408921f,0.010007969f,0.058680456f,
-0.07724577f,-0.0061797826f,-0.0409003f,-0.032945402f,0.049735375f,
0.051078968f,-0.011068642f,-0.0063704215f,-0.07046745f,-0.060322836f,
-0.027628127f,-0.05745843f,0.03019943f,-0.053061362f,-0.040242765f,
0.024129048f,0.07263754f,-0.039564904f,0.029553536f,0.07240966f,
0.06249789f,0.045106675f,0.0060410136f,0.018322825f,-0.014583625f,
-0.0072682896f,0.003925247f,0.030239617f,0.033631567f,-0.06956996f,
0.016428709f,0.06757979f,-0.039267097f,-0.03851126f,-0.0037271387f,
0.035206076f,-0.0026554537f,0.06734118f,-0.040475912f,-0.0612219f,
-0.017117407f,0.06626322f,0.007050345f,-0.051500056f,-0.040847205f,
0.05846447f,-0.0038756242f,-0.02273172f,0.046483725f,-0.03811671f,
0.040324714f,-0.07127786f,0.043390773f,0.03102191f,0.026690774f,
-0.015129068f,-0.038076486f,0.046924856f,0.009805385f,0.019621141f,
-0.05468226f,-0.023487119f,0.040041912f,0.022389198f,-0.047704745f,
-0.0069118137f,-0.018036019f,0.064671956f,0.016770516f,-0.013949682f,
-0.06568553f,0.05635452f,0.059466314f,0.054859437f,-0.067670606f,
-0.05558516f,0.039137058f,-0.058704175f,-0.057393987f,0.024962591f,
-0.021749597f,0.004299164f,0.0072107627f,0.055886995f,0.04337513f,
-0.06844369f,0.00675564f,0.05539406f,0.06275456f,-0.049941722f,
0.06477703f,-0.016448742f,-0.056775652f,-0.0764932f,-0.020989303f,
-0.066707864f,0.021368908f,0.038061365f,0.026277225f,0.059056718f,
0.007320214f,-0.0032088265f,-0.03240106f,0.04356711f,0.055085093f,
-0.015591695f,0.030203171f,-0.018789282f,0.038076147f,-0.05200153f,
-0.06794364f,0.01558768f,0.033462867f,-0.016538152f,-0.055291325f,
0.003618631f,-0.024206873f,0.02999931f,0.03947468f,-0.0005350878f,
0.0055545704f,-0.047143556f,0.03825132f,-0.005036619f,-0.0731727f,
0.016813138f,-0.064666085f,0.022644162f,-0.05971601f,0.022406029f,
0.024660412f,-0.026743462f,-0.017463464f,0.009631769f,0.0377498f,
0.04431947f,0.036964994f,0.06262947f,0.044593763f,-0.027796693f,
-0.02295306f,0.06497507f,0.021089941f,0.002449248f,0.070143804f,
0.03560597f,0.03602077f,0.05984357f,-0.021274967f,0.056954607f,
0.0055106455f,-0.035045873f,0.07722024f,-0.0036497673f,0.025041407f,
-0.0036946076f,-0.06267206f,-0.06769208f,-0.05412143f,0.06545969f,
-0.07527563f,-0.022369161f,0.014498806f,0.05342089f,-0.06303898f,
-0.046421885f,0.04274365f,0.03181436f,0.030574905f,0.04887875f,
0.033468552f,0.019883536f,-0.015784517f,-0.05511503f,0.031678382f,
-0.023575768f,-0.02521674f,0.064300716f,0.06658837f,0.03314554f,
0.031879157f,0.014122243f,0.0035701126f,-0.047426f,-0.069965884f,
-0.06314311f,-0.044298194f,0.07257103f,-0.04012139f,-0.026273582f,
0.028546628f,0.012218146f,0.011788685f,-0.008753778f,-0.012290043f,
0.042273104f,0.029540258f,0.037437275f,0.03949682f,-0.0048737074f,
0.03824687f,-0.020189734f,-0.02121606f,4.3087683e-05f,-0.06532201f,
-0.00461852f,-0.060802765f,-0.016288407f,-0.0038279975f,-0.064619124f,
-0.05042462f,0.0013180852f,0.037294466f,0.04782939f,0.031675044f,
0.028318454f,0.07085698f,0.012126665f,0.073140174f,0.01583554f,
0.030355396f,-0.05590346f,-0.053075556f,-0.041767664f,0.01518597f,
-0.052485153f,-0.02370018f,-0.021693919f,0.032691542f,-0.060516622f,
-0.06696738f,-0.029110216f,0.065069504f,0.056454048f,-0.054093834f,
0.008161709f,0.06756803f,0.042102743f,0.05746089f,-0.047032036f,
-0.027220225f,-0.011231213f,-0.03544928f,-0.060737483f,0.021586927f,
0.04305534f,-0.015188873f,0.07454216f,-0.018863846f,0.025207859f,
0.0007285137f,-0.0064126095f,0.006630434f,0.055380184f,-0.0027158314f,
0.0630189f,-0.023078045f,0.06909256f,-0.011825819f,0.07646808f,
0.024234502f,-0.03469104f,-0.05746151f,0.026130194f,-0.01548525f,
0.016384019f,-0.05816091f,0.035943702f,0.06245312f,0.067774005f,
-0.048773587f,-0.031399276f,-0.015641866f,-0.064302534f,0.058008444f,
0.002180921f,-0.013079383f,0.05810977f,0.005531526f,-0.005454089f,
-0.037932597f,0.058170687f,0.044494897f,-0.01444528f,0.057797216f,
-0.06862691f,0.018949205f,-0.06890335f,-0.03402737f,-0.00939926f,
-0.03680783f,0.026617613f,-0.034509767f,-0.0023545648f,0.006640714f,
0.042125147f,0.01069966f,-0.04516856f,-0.03708301f,-0.064605765f,
-0.053343818f,0.06785768f,0.007550827f,-0.010298325f,0.05345834f,
0.023392549f,0.028810533f,-0.04251477f,-0.021185406f,-0.012111571f,
-0.0072898716f,0.043905616f,0.02625634f,0.01431014f,0.056869775f,
-0.009681499f,0.05793559f,-0.04013432f,-0.0018753825f,0.062486455f,
-0.064732604f,-0.049401417f,0.073542446f,-0.0122421915f,0.02137348f,
-0.006251146f,-0.057080016f,0.04287253f,-0.014604645f,0.048422884f,
0.06180282f,-0.046185892f,0.0569528f,-0.0026892938f,0.017220333f,
0.0065790955f,0.028195009f,0.029778082f,0.016011234f,-0.09180801f,
-0.04989297f,0.034068577f,-0.05630627f,0.060508445f,0.013058755f,
0.009333189f,-0.01766651f,0.058730602f,0.027044715f,-0.00584043f,
-0.04901339f,0.05407263f,0.050462227f,0.013692566f,-0.0059455484f,
-0.05432094f,0.0076142526f,-0.007142297f,-0.05574893f,0.058316845f,
-0.05046529f,0.040320598f,0.042533033f,0.051661808f,0.05309863f,
-0.03739041f,-0.039845236f,0.057886083f,-0.010658992f,-0.011899789f,
0.047101483f,-0.07592419f,-0.0848531f,0.024974171f,0.022486122f,
0.041256096f,0.014620655f,-0.045083508f,0.00038811204f,0.037945177f,
-0.083342545f,-0.055394962f,0.0031027098f,-0.0017959753f,-0.034311064f,
0.06717633f,-0.011496649f,0.015408672f,0.0039241575f,-0.07878645f,
-0.024786867f,-0.0065026246f,0.05552894f,-0.015461508f,-0.066550784f,
-0.013488713f,-0.086680755f,0.033057358f,0.04536042f,-0.066550255f,
0.031618252f,0.007404304f,-0.052542422f,-0.00025881996f,-0.07975903f,
0.013884135f,0.03317793f,-0.079404525f,0.00040612137f,-0.013874489f,
-0.08548102f,-0.034598213f,-0.017555336f,0.020612147f,0.017924918f,
0.019523917f,-0.0048160525f,0.047174796f,0.040733706f,-0.07646459f,
0.043263476f,-0.017529238f,0.025425777f,-0.063944615f,-0.014941491f,
-0.06460367f,-0.03377361f,-0.018547421f,-0.022403331f,0.023064408f,
-0.0102954535f,0.0578672f,-0.07528085f,0.018462999f,-0.02970305f,
0.017845232f,-0.045071613f,-0.027274812f,0.05684543f,0.06407202f,
-0.079394534f,0.037822496f,-0.03464427f,-0.018691521f,-0.025476426f,
0.05488867f,0.021033399f,0.036378097f,0.042962708f,-0.03664829f,
0.04695976f,0.0453982f,0.02738644f,-0.05267552f,0.08146961f,
0.013877702f,0.02257018f,-0.015442775f,-0.08098113f,-0.024826678f,
0.07139011f,-0.026415657f,-0.023444897f,0.030501457f,0.038982417f,
0.006287766f,-0.018982686f,0.05716246f,0.017270163f,0.0793402f,
-0.06539296f,0.047662925f,0.051136628f,-0.082298085f,-0.04131086f,
0.045128025f,-0.03897235f,0.02992703f,0.118569456f,0.011104231f,
-0.01787806f,0.03261276f,0.016872719f,-0.044748973f,0.01846477f,
0.016627945f,0.004075717f,0.04992327f,0.016141355f,-0.0581547f,
0.047784124f,-0.027089376f,0.04224853f,-0.009538737f,0.016251797f,
0.020812823f,0.016803117f,-0.055852596f,0.046372794f,0.028651865f,
-0.059928935f,0.014178167f,-0.0145018f,-0.05729043f,0.0062753605f,
0.05340875f,0.0009854744f,-0.008877887f,-0.0043723374f,0.00020835547f,
-0.051440846f,-0.015117885f,-0.022768576f,-0.026861474f,0.09764573f,
-0.0035776743f,0.027818326f,0.054439448f,-0.044207375f,-0.017150443f,
0.06704375f,-0.08364905f,0.014012477f,0.0033951502f,0.013727777f,
-0.02858689f,-0.0029104373f,0.0010360463f,0.04819242f,0.016249852f,
0.06647923f,-0.022480883f,-0.031784467f,-0.02057189f,-0.05672087f,
-0.04729853f,0.048694428f,0.069284014f,0.044656668f,-0.040015705f,
0.02949122f,-0.01857599f,0.039038f,0.0021515964f,-0.031294256f,
0.056075234f,-0.04312812f,-0.0572025f,0.017601935f,-0.025548263f,
-0.060432248f,-0.05761923f,0.03913235f,-0.014585651f,-0.024044106f,
0.0008369621f,-0.07235128f,0.07156989f,0.007601794f,-0.010517944f,
0.02228359f,0.05517691f,0.013530411f,0.06334618f,-0.025607157f,
-0.12760732f,0.01141557f,-0.005448893f,-0.024958465f,0.03881768f,
0.0700006f,0.054152776f,-0.048968397f,0.009747395f,0.086028814f,
-0.005644998f,0.033439588f,-0.060440738f,0.067677945f,-0.026021052f,
0.013829031f,-0.0010887394f,-0.03937787f,-0.04551492f,0.043796215f,
0.010401334f,-0.031021746f,0.020038392f,0.072088555f,-0.040043518f,
-0.044234883f,0.0358851f,-0.04239878f,-0.05681557f,0.009751058f,
-0.07282711f,0.069978446f,-0.023825303f,-0.081053704f,0.01192049f,
0.05844671f,0.01923583f,0.06384554f,0.042765673f,-0.051375825f,
0.019404704f,0.07215659f,0.032500207f,-0.0089512095f,-0.06835917f,
0.045944143f,0.02871954f,-0.070657544f,-0.06741309f,-0.068395585f,
0.06654472f,-0.02159949f,-0.020631505f,0.017422592f,-0.074115165f,
0.04467955f,-0.057437398f,-0.057746556f,-0.010278455f,-0.05276131f,
0.06246525f,0.038565975f,-0.028539386f,0.023080027f,-0.03290362f,
-0.022373177f,-0.057568192f,-0.050978247f,0.010524072f,-0.009035981f,
-0.06792662f,-0.04820385f,0.03233473f,0.012836896f,0.03551894f,
0.005957907f,-0.005727267f,0.04380872f,-0.0188048f,-0.042050846f,
-0.03915361f,-0.045077756f,0.05700632f,-0.05221447f,0.046471857f,
-0.0102348f,0.015061974f,0.07167535f,-0.022632672f,0.057246152f,
0.005554835f,0.008374756f,-0.06372962f,0.04387798f,0.0008177788f,
0.031506024f,-0.06749231f,-0.047425173f,0.07567934f,0.03439331f,
-0.034231883f,0.064989984f,0.0155239785f,0.016215185f,-0.020619517f,
0.01787308f,-0.007820413f,0.043217517f,0.00013492987f,0.047207862f,
0.01785483f,0.047540516f,0.064285256f,-0.042527784f,-0.037677657f,
0.0030357365f,-0.05143385f,0.012493438f,-0.06101251f,0.063652076f,
0.065903895f,0.070642225f,0.05697737f,-0.06220117f,0.06558518f,
0.01564686f,0.0209664f,0.045997716f,0.06747655f,0.04049928f,
0.07028941f,-0.000757021f,0.046953917f,-0.020078924f,0.047276318f,
0.049998198f,0.035861854f,-0.066071965f,-0.038523506f,0.06535194f,
-0.014446162f,-0.016851677f,0.040673368f,0.03575866f,0.035623197f,
0.05674619f,-0.027677028f,0.0631881f,-0.04300594f,0.07083018f,
-0.0135052595f,-0.013586068f,0.040277526f,-0.016858699f,-0.05772775f,
-0.076329604f,0.1875367f,-0.013835577f,-0.081313476f,0.19435142f,
-0.0041342266f,0.017088834f,0.08305277f,-0.03956743f,-0.100995265f,
0.08302418f,-0.027489021f,0.030508565f,0.13082178f,-0.02618225f,
-0.10468011f,0.13673706f,0.034486633f,-0.014854724f,0.020112049f,
-0.065674454f,-0.05483719f,0.08057049f,-0.06605191f,-0.09551452f,
0.068165f,0.02292011f,-0.005764386f,0.038177397f,0.04643857f,
-0.023063013f,0.06473773f,-0.06983748f,-0.08176356f,0.12921584f,
-0.056359645f,-0.07372158f,0.09737848f,-0.05647686f,-0.04020558f,
0.041649565f,-0.058933765f,-0.05781267f,0.040144794f,-0.008298379f,
0.044536818f,-0.0016373175f,-0.037962444f,-0.031128144f,0.11934917f,
0.026547546f,-0.018580122f,0.11310804f,-0.050864242f,0.048057236f,
-0.034483366f,0.0432797f,-0.050704807f,0.07623556f,0.027429964f,
0.0379901f,-0.041121f,-0.032669365f,0.036194768f,-0.019659868f,
-0.030756718f,-0.0484852f,0.023583636f,-0.0003891525f,-0.05725783f,
0.045823246f,-0.038454283f,-0.01591677f,0.07749369f,-0.06766104f,
0.0075503485f,-0.007874608f,-0.045664936f,-0.03280128f,0.03774002f,
0.021259254f,0.03165441f,0.033914533f,0.039042957f,-0.014453718f,
0.024830732f,-0.07002693f,-0.044811413f,0.11772732f,0.05103606f,
0.026960693f,0.021205546f,-0.05060789f,-0.026433026f,0.011446415f,
0.037318144f,0.0037793f,-0.032814037f,-0.061822377f,-0.070704766f,
0.08657602f,-0.078595266f,-0.04776298f,-0.010222517f,0.05974332f,
-0.04402945f,0.0051336554f,-0.0678341f,0.019732343f,0.07478272f,
-0.016408067f,-0.08418241f,0.08150657f,0.020819515f,0.014486998f,
0.052866075f,-0.069940366f,-0.0862335f,0.003024213f,0.031245096f,
-0.0676912f,0.012944353f,0.03600965f,-0.022050085f,0.090519615f,
-0.084855065f,0.007830725f,0.0998492f,-0.031781662f,-0.055368196f,
0.03107455f,-0.031504445f,-0.039750732f,0.014164612f,-0.046202473f,
-0.007897535f,0.059529983f,-0.005623873f,-0.012446851f,0.06336105f,
-0.030249326f,-0.021534134f,0.07299758f,-0.026201343f,0.019804671f,
0.15819329f,-0.0473391f,-0.06573232f,0.035326164f,0.031527862f,
-0.06845123f,0.074023895f,-0.07262942f,-0.031779032f,0.049185753f,
-0.009589914f,0.043393705f,0.10332969f,-0.031483173f,0.034656122f,
0.04778036f,0.038872678f,-0.058143046f,-0.011587175f,0.043747775f,
-0.019138603f,0.031328704f,0.0027688153f,-0.045175184f,0.06304612f,
-0.04821248f,0.03213954f,0.08046832f,-0.034776475f,-0.076124184f,
0.08513472f,-0.00062907056f,0.043489434f,0.13704634f,-0.040495098f,
0.031411994f,0.023964439f,0.026847664f,-0.011816304f,0.10448063f,
0.01026087f,0.040195554f,0.026440714f,-0.027632004f,0.035943236f,
0.0627379f,-0.009585392f,-0.0036362174f,0.05765591f,-0.023520134f,
0.040981885f,0.122335084f,0.056101445f,-0.06504865f,0.06129361f,
-0.056986183f,-0.08437709f,0.08370063f,-0.042992614f,-0.054964297f,
0.08603381f,-0.0022193545f,-0.071027555f,0.100582756f,-0.035190288f,
0.013604299f,0.03150769f,0.03424357f,0.0107584745f,0.041276056f,
0.0395057f,-0.038702346f,0.06750497f,0.05539163f,0.040656894f,
0.026229322f,0.030389082f,-0.08737305f,0.13232724f,0.026197204f,
0.040850125f,0.09086076f,-0.08607089f,-0.079227395f,0.0060206084f,
0.038731292f,-0.073517196f,0.094364166f,-0.055715013f,-0.04063745f,
0.027685788f,0.033061728f,0.021199357f,0.0002777545f,0.031171834f,
-0.03218319f,0.07368218f,-0.004230718f,-0.020500546f,0.008352922f,
-0.010595688f,-0.0065105795f,0.021585528f,-0.042047057f,-0.004786498f,
-0.021947874f,6.15581e-05f,0.014090973f,0.016714135f,0.066635944f,
0.038237825f,0.09625307f,0.004543512f,-0.026382487f,0.054752707f,
0.0345696f,-0.044677034f,0.1046452f,0.030616669f,-0.015588109f,
-0.041242227f,-0.009453073f,0.040549334f,-0.06438838f,-0.051394735f,
0.04658493f,0.006609672f,0.018884188f,0.020077266f,-0.010270977f,
0.045321766f,-0.022740813f,-0.056824118f,0.05893348f,-0.050058052f,
-0.016109567f,-0.06517643f,-0.008176337f,-0.047378585f,-0.034010388f,
0.0358344f,0.050127804f,-0.028671097f,-0.07092847f,0.039644405f,
-0.038497403f,-0.04329926f,0.029816875f,-0.04654138f,0.045082454f,
-0.006788968f,-0.0059611183f,0.039572522f,-0.06578638f,-0.0668111f,
-0.036223084f,0.017090289f,-0.006327662f,0.05880124f,-0.003828726f,
0.023649868f,-0.04445946f,0.039004475f,-0.008738981f,0.06011775f,
-0.013577523f,-0.05464903f,-0.07457735f,0.0195828f,-0.02765857f,
-0.050671197f,0.029953903f,-0.07363832f,-0.02485486f,-0.007226767f,
-0.035442445f,-0.04533742f,-0.009852422f,-0.055942375f,0.0028639913f,
-0.0550587f,-0.05376205f,0.022041872f,-0.021183107f,0.022212166f,
0.039230984f,0.06489357f,0.040716495f,0.05960068f,0.015239647f,
0.030976014f,0.03639428f,0.061708637f,-0.06643246f,0.050913613f,
0.024022045f,0.054185066f,0.04504533f,0.037218004f,-0.011352001f,
-0.019588584f,0.049774226f,0.05623568f,0.05744841f,-0.008480116f,
-0.0492953f,0.021840852f,-0.018656064f,0.030306749f,-0.050001457f,
-0.0044482867f,-0.023838794f,-0.06592106f,0.020994607f,0.0022768609f,
-0.00410503f,0.00303824f,0.03373161f,-0.0351393f,0.00024309766f,
0.04827248f,-0.06593748f,0.07441242f,-0.035419106f,-0.01426017f,
-0.05791283f,-0.03305027f,-0.07371424f,-0.01011604f,0.023463264f,
-0.034930658f,0.039285354f,-0.026412115f,0.05678154f,-0.016433911f,
0.06021577f,0.06747174f,0.052873135f,-0.030771874f,-0.06864072f,
-0.012287519f,0.054296024f,-0.058063414f,0.038450018f,-0.020976074f,
-0.008352538f,0.00391385f,0.055922277f,0.038104285f,-0.016667115f,
-0.04528252f,-0.06775284f,0.024914712f,-0.068006806f,0.05738132f,
0.011394778f,0.024334705f,-0.013249671f,0.02914077f,-0.067508735f,
0.028537564f,0.07624738f,0.038348716f,0.007862271f,-0.001292639f,
-0.03993447f,-0.0033458483f,0.0188147f,0.019326733f,-0.024082486f,
0.0925928f,-0.019347f,-0.044580407f,0.042229928f,0.013367417f,
0.009647038f,0.09023424f,-0.003601347f,-0.06999946f,0.07641156f,
0.063921615f,0.0456567f,0.05461454f,0.05846939f,0.049293395f,
0.052734807f,-0.017189402f,0.020103414f,-0.017124994f,0.014260818f,
-0.030046975f,-0.042302694f,0.021422295f,-0.03432963f,0.07489457f,
-0.055363677f,0.07003202f,0.052044384f,-0.035738423f,-0.059587076f,
-0.039572578f,0.060908962f,0.057140056f,-0.05087618f,0.025508255f,
-0.025152354f,0.053731635f,0.012108635f,-0.06793611f,-0.012844533f,
0.05741935f,0.03704963f,-0.024954831f,-0.03060285f,0.055993248f,
0.018438265f,0.009639748f,-0.0110551845f,0.055581074f,0.039730024f,
0.009940891f,0.05041444f,-0.05435708f,-0.047431633f,0.065936916f,
-0.006829044f,-0.024986772f,0.05287852f,0.020432016f,-0.051392473f,
0.031011995f,0.040508863f,0.0070946114f,0.071460925f,0.0674087f,
0.041495476f,0.03647044f,0.021660276f,0.055533007f,-0.007541761f,
-0.06506717f,-0.04360537f,-0.043674808f,0.06351321f,-0.031323005f,
0.07459827f,0.033303514f,-0.05341646f,-0.06387151f,0.0012951279f,
-0.008003796f,0.0020897875f,-0.05871375f,0.041678526f,-0.028111625f,
0.036172785f,0.05580389f,-0.045948777f,-0.026887922f,-0.056877244f,
0.0043889107f,0.038961563f,-0.057818115f,-0.042889684f,0.06962823f,
-0.018457219f,0.038989075f,0.0015615983f,-0.07038816f,-0.008978464f,
-0.038518265f,0.033273343f,0.017136728f,0.00810737f,-0.016559971f,
0.056407433f,-0.06023821f,0.02976717f,0.03641421f,0.059396643f,
0.019787403f,0.04147524f,0.0021337874f,-0.02624716f,0.005260335f,
0.027872698f,-0.031827435f,0.045655414f,-0.05133457f,-0.07011593f,
0.016349828f,0.039606217f,-0.056730963f,0.013629174f,-0.047796186f,
-0.057671614f,0.014299381f,0.04563113f,-0.027802685f,0.07731737f,
0.04387388f,-0.013525826f,0.0138785625f,-0.05024391f,-0.060938656f,
-0.03185177f,-0.05673707f,0.066258915f,0.06278393f,-0.020642025f,
-0.07180652f,-0.0152574815f,-0.03203601f,0.030999383f,0.08336834f,
-0.032157466f,-0.032383956f,-0.020960115f,-0.013758448f,0.06596219f,
-0.0349225f,0.0077226586f,0.05662086f,-0.038503516f,-0.03547285f,
0.045932308f,-0.029946942f,0.05899672f,-0.044080704f,0.009120343f,
-0.016820587f,-0.08446443f,0.006731768f,-0.003499325f,0.042912416f,
0.04651069f,0.0159749f,0.045531962f,0.015148537f,0.011901983f,
-0.057778403f,0.013283893f,0.04638787f,-0.03941408f,-0.04743854f,
-0.024654109f,-0.07134077f,0.030634118f,-0.049591843f,-0.043381948f,
-0.057526045f,-0.028822936f,0.010570128f,-0.028174546f,-0.057717983f,
0.010667733f,-0.099695474f,0.015434467f,-0.059592515f,-0.06989098f,
-0.053978655f,-0.018704059f,0.040949367f,-0.052992675f,-0.061122857f,
0.023966674f,0.008521063f,0.0040100915f,-0.036094736f,-0.028919633f,
-0.06687382f,-0.07491489f,-0.07151876f,-0.057190955f,-0.01944475f,
0.034509286f,0.023593567f,0.057240985f,-0.023516918f,0.056738887f,
-0.014243153f,-0.030760694f,0.025994625f,-0.06671776f,-0.017148918f,
-0.06274394f,-0.067827955f,0.04222849f,-0.075570755f,-0.014189319f,
0.017248029f,-0.0691404f,0.037804738f,0.047428083f,-0.02857586f,
0.030027062f,0.028261513f,-0.0039079376f,-0.067843504f,-0.052342243f,
-0.078043915f,-0.00728941f,-0.009017578f,-0.07878696f,0.031106146f,
0.024150215f,-3.1923264e-07f,0.0598724f,0.022883829f,0.019770805f,
-0.029269991f,0.014769174f,0.007914674f,0.018657755f,-0.01734847f,
0.018492233f,-0.009119461f,-0.04045501f,0.045308433f,-0.0337138f,
0.003428993f,-0.0041370774f,-0.015144875f,0.035071287f,-0.04323725f,
0.012600896f,-0.01400907f,-0.0583672f,-0.030468397f,-0.04084401f,
-0.013148491f,-0.04768504f,0.032118615f,-0.020554343f,-0.047916666f,
0.030940147f,-0.00080769794f,0.033655655f,-0.053480987f,0.055253603f,
0.019992782f,0.026251875f,0.03361555f,0.039710466f,0.005495673f,
-0.012837504f,0.04995105f,-0.06809948f,0.03985883f,0.043105382f,
0.065017305f,-0.023752794f,-0.035309672f,-0.031351555f,0.011867586f,
0.017978009f,-0.07748218f,0.0035354067f,0.0024178417f,-0.07264533f,
-0.059935004f,-0.03608836f,0.06565963f,0.02796809f,0.0083776135f,
-0.054917015f,0.052142736f,0.078310244f,-0.0068865437f,-0.029409748f,
-0.03279584f,-0.010607229f,0.051358536f,0.018349018f,-0.0034615248f,
0.006192775f,-0.038670428f,-0.07345748f,0.058106758f,0.052983556f,
-0.057084102f,-0.0009037649f,0.059680097f,-0.0023514105f,-0.04191282f,
-0.011896625f,-0.014652668f,0.017484177f,-0.0055738324f,0.046294693f,
0.033995416f,-0.030609148f,-0.07968203f,0.022754755f,0.029850475f,
0.053782687f,-0.027699541f,-0.022870837f,0.013876324f,-0.07382621f,
0.034360602f,0.044919f,-0.017112069f,0.06284699f,0.015281859f,
-0.054466214f,-0.018127093f,0.052571297f,0.05280487f,-0.028038567f,
0.0073339664f,0.031252146f,0.018328162f,0.06454709f,0.03592948f,
-0.043416277f,-0.07871637f,0.01463402f,0.0738761f,-0.025991432f,
0.04489672f,0.022315495f,-0.028335107f,0.055104207f,0.04380535f,
0.027734496f,0.052486856f,0.009287901f,0.06015293f,0.0015140965f,
0.06960338f,0.015927369f,-0.05491223f,0.041874014f,0.052052807f,
0.03328154f,0.019744474f,0.05761694f,0.025291417f,0.017642748f,
0.0074853706f,0.011714999f,-0.03998528f,0.004289257f,0.01675594f,
-0.04723598f,0.039321896f,0.011501051f,0.05644274f,0.01917781f,
-0.031727165f,-0.041935693f,0.06769817f,0.07215476f,-0.042768452f,
0.040788364f,-0.03600729f,-0.05146811f,-0.05510413f,0.06617666f,
0.06837909f,-0.0029597497f,-0.07482345f,0.043735564f,-0.009972192f,
0.03571648f,-0.0019947048f,0.053633217f,0.033707537f,-0.047870755f,
0.00513639f,-0.036886208f,0.031319745f,0.06209113f,-0.009240522f,
0.03525587f,-0.058805283f,-0.022278713f,0.057793804f,0.067918286f,
-0.016938204f,-0.0019685393f,-0.012827569f,0.059973393f,0.075913884f,
0.038980205f,-0.03252696f,0.015987065f,0.010060268f,-0.0066931956f,
0.0040990408f,0.03427966f,0.043018103f,0.04581873f,-0.051367346f,
2.3363913e-05f,-0.0009756447f,-0.027098704f,0.04026995f,-0.009329644f,
-0.050584376f,-0.02995822f,-0.0024724351f,-0.00461193f,-0.06837023f,
0.071042806f,0.06492273f,-0.069336876f,0.031253543f,-0.072608076f,
-0.062214762f,-0.053445093f,-0.026918935f,-0.06366029f,-0.022496656f,
0.009562394f,-0.030565152f,-0.019125342f,-0.01692691f,0.03592707f,
0.066466145f,0.04120751f,-0.0010164449f,-0.060026217f,-0.046044596f,
-0.07223826f,0.047118105f,-0.020347228f,0.065960065f,-0.024847526f,
0.022739997f,-0.06852652f,-0.00027467427f,0.014541876f,-0.042238787f,
-0.036004245f,-0.013542029f,-0.004227693f,-0.014188004f,-0.00040284212f,
0.05374104f,0.014445046f,-0.03135782f,-0.015403165f,0.03591035f,
-0.013069044f,-0.02237086f,0.03167306f,-0.0651605f,-0.05940628f,
-0.015288571f,0.025031917f,-0.054120935f,0.062032484f,-0.05246546f,
-0.038130887f,-0.04170656f,0.045420486f,0.02901362f,0.065373346f,
0.027489243f,0.014275473f,0.042864542f,-0.0063049407f,-0.047665883f,
0.06484175f,-0.06921514f,-0.06518055f,0.019000636f,-0.04148524f,
0.016528022f,-0.0063828263f,-0.026695712f,0.030102799f,0.06186475f,
0.06554741f,0.055243805f,0.029989257f,0.04244701f,0.0037379279f,
-0.0027065824f,0.016734913f,-0.023751989f,0.012161421f,0.043581042f,
4.900528e-06f,-0.022439254f,-0.029108772f,0.009173191f,-0.05523106f,
-0.06870318f,-0.035284083f,0.010947877f,-0.028985856f,-0.04388525f,
0.0568733f,-0.027279912f,-0.0049835993f,0.0580149f,0.043931108f,
-0.01865724f,0.05178164f,-0.060374375f,-0.008386092f,0.027729169f,
0.00042779127f,0.06564979f,-0.059312135f,-0.062640816f,-0.0141888345f,
0.016203644f,-0.011540137f,-0.065756895f,0.013421252f,-0.05184963f,
-0.09000618f,0.10800182f,0.044895727f,-0.019925151f,0.07918543f,
-0.080770396f,-0.03423034f,0.1102729f,-0.038285878f,-0.015055645f,
0.16226901f,-0.06413861f,0.017509576f,0.1629829f,0.04062957f,
-0.08813928f,0.060150784f,0.040658396f,-0.029951582f,0.13864298f,
-0.009284886f,0.023547575f,0.034104884f,-0.09249109f,0.019234087f,
0.13756886f,0.04344771f,0.0038684416f,0.16326243f,0.046201944f,
0.0023877888f,0.11037576f,0.031431124f,0.027814362f,0.070202366f,
0.012846395f,0.008879048f,0.025099523f,-0.05736147f,-0.09957879f,
0.11710362f,-0.013734411f,-0.001960426f,0.11107581f,-0.070325196f,
-0.09822988f,0.110424325f,-0.00627492f,-0.07469311f,0.05048529f,
-0.044546455f,-0.07184649f,0.054527f,0.04580765f,-0.0707352f,
0.0999377f,-0.079238504f,-0.0038879316f,0.08999342f,-0.04902368f,
0.03792243f,-0.005977124f,-0.05626052f,-0.072458506f,-0.011019508f,
-0.022107888f,-0.018899212f,-0.035927862f,-0.018463261f,-0.054809153f,
0.07265814f,-0.08283942f,0.0361719f,-0.014362864f,-0.026187483f,
-0.008717154f,0.054916963f,0.05578168f,-0.09191442f,0.032879915f,
0.031804733f,-0.032692645f,0.09463487f,-0.04706956f,-0.012501301f,
-0.03798582f,0.002860428f,-0.037720427f,-0.0108883f,0.026786594f,
-0.039309043f,0.013236694f,0.030246558f,0.038141795f,0.015785001f,
0.0022150213f,0.0074741333f,0.019018183f,0.029929802f,-0.08195125f,
0.06350074f,-0.043928746f,0.029734515f,0.0750849f,0.016587699f,
-0.0001519561f,-0.0131497085f,0.029040739f,0.006875559f,0.09436998f,
0.05516452f,0.0092121195f,-0.049126737f,-0.005433656f,-0.06501035f,
0.0362767f,-0.032213297f,0.031467553f,0.035395607f,-0.032039862f,
0.010579847f,0.069033094f,-0.041754078f,0.037928913f,0.0906031f,
0.05025087f,-0.007784485f,-0.029001256f,-0.026754577f,-0.03551259f,
0.014128027f,0.040964883f,-0.079960704f,0.09376077f,-0.03362383f,
-0.0040074103f,0.0039622076f,0.0036717416f,-0.075994454f,0.01756742f,
0.024453921f,-0.06700218f,0.044102088f,0.009701933f,-0.074656986f,
-0.012297942f,0.052522097f,-0.0023009311f,0.09026509f,0.015346171f,
-0.007196632f,-0.025434962f,0.015112641f,0.04188148f,0.046780437f,
-0.032490168f,-0.093649775f,0.04802182f,-0.047480524f,0.016624704f,
0.04931475f,-0.0047715316f,-0.075999446f,0.0815595f,0.032145653f,
-0.002788187f,-0.014567359f,0.052634183f,-0.0032817945f,0.10627464f,
-0.076926984f,0.029814968f,-0.014865377f,0.031877223f,0.018229935f,
-0.023898374f,-0.03203748f,0.020626606f,0.08096814f,-0.008586616f,
0.03985826f,0.0515647f,-0.064609185f,0.008052038f,0.08820035f,
-0.08394131f,-0.010961257f,0.0559059f,0.005325228f,0.026603281f,
0.065057054f,-0.0046215546f,-0.06729807f,0.05763348f,0.032233447f,
0.025826912f,-0.027992167f,-0.045998666f,-0.032224707f,-0.034366224f,
-0.035946246f,-0.044043142f,0.06253388f,0.065609075f,-0.030065313f,
0.07637345f,-0.06611008f,-0.031367525f,-0.0033403093f,-0.06577813f,
-0.051402036f,0.00038610754f,-0.015001107f,-0.044360086f,0.0769565f,
0.03626881f,-0.025552813f,0.018985268f,-0.037694324f,-0.035401184f,
0.05939246f,0.061962534f,0.05645456f,0.05508611f,0.0439308f,
0.0017380839f,0.04109879f,0.018066922f,0.008937151f,0.076669246f,
-0.06232008f,-0.07415095f,-0.008417375f,-0.03501216f,0.01899192f,
0.109868266f,-0.057296604f,0.033892278f,0.038193922f,-0.010718975f,
-0.017529964f,0.07211577f,-0.03624294f,-0.046390772f,-0.011549284f,
0.011141945f,-0.068186805f,-0.05712298f,0.045333732f,-0.046873014f,
0.041526794f,-0.06284936f,-0.06034507f,0.014333618f,-0.002455739f,
0.019962015f,0.0024833903f,-0.04336087f,-0.04177014f,-0.049572617f,
0.07356841f,-0.02183203f,0.014693663f,0.06501822f,0.07082638f,
-0.060517855f,0.058719374f,-0.05312014f,-0.016620954f,-0.023326961f,
-0.023448795f,0.07063453f,-0.04028901f,-0.027818799f,0.0059933956f,
-0.066582635f,-0.020485323f,0.054495327f,-0.048709102f,-0.032727007f,
-0.009730846f,-0.03519768f,-0.030849006f,0.069522396f,0.056442067f,
-0.03546779f,0.00441199f,-0.025052028f,0.06376911f,-0.05528988f,
0.009822041f,-0.021391839f,0.004727103f,0.005668364f,0.01809108f,
-0.035381224f,-0.048246942f,-0.028928755f,0.052117605f,0.0236907f,
0.044355758f,-0.0053267977f,-0.051699445f,0.039217226f,0.065530784f,
-0.038233276f,-0.0039743274f,-0.018048715f,-0.059020914f,0.030068573f,
0.008065562f,-0.007409886f,0.03597994f,0.05946343f,-0.011398489f,
-0.0604422f,0.04792299f,0.0026776434f,-0.022880789f,0.08735195f,
0.037650418f,-0.035122994f,0.057867292f,-0.0423924f,-0.027518017f,
0.055671394f,0.050566535f,0.041748982f,0.030863527f,0.07109485f,
-0.0010436777f,-0.03969208f,-0.011599345f,-0.057099253f,0.02785438f,
-0.009059668f,-0.014714525f,0.0856523f,-0.029361881f,0.066196024f,
0.049193464f,-0.061796773f,0.03881845f,-0.028007554f,-0.045408737f,
0.008469133f,-0.051644783f,0.01014661f,-0.06984326f,-0.049401812f,
0.049956974f,-0.052040268f,-0.022513434f,0.01577669f,-0.0427888f,
0.08975822f,-0.06677084f,-0.04332963f,-0.030241784f,0.032161407f,
0.071232915f,-0.057273645f,0.004924416f,-0.044469982f,0.067184016f,
0.052040193f,-0.0022426066f,0.049948454f,-0.036070358f,0.06755054f,
-0.01489102f,-0.053854298f,0.045529358f,0.021254838f,0.034456804f,
0.060264807f,0.0218511f,0.070257805f,-0.003490241f,0.048616998f};
float layer1_bias[] = {
-0.02049743f,0.059255693f,-0.05318557f,0.007829206f,-0.041037392f,0.028987655f,0.058736976f,0.016186383f,-0.06990214f,7.165033e-05f,0.05331949f,0.0014776109f,0.03423578f,-0.05956593f,0.01585079f,-0.03866421f,-0.051582087f,-0.062206004f,0.0052711973f,-0.06565464f,0.015027584f,0.039559785f,-0.017466193f,-0.06913262f,0.025216693f,-0.041483946f,0.02409666f,-0.045353282f,-0.05220281f,0.03266415f};
//Layer2 Weights 
float layer2_weight[] = {
-0.04982638f,0.015299575f,0.09813449f,0.17380016f,0.008349611f,
-0.12579985f,0.12761167f,-0.15586023f,-0.016892867f,0.037489425f,
0.15673363f,-0.11994285f,0.13559335f,-0.032057643f,0.17493287f,
0.0337309f,-0.093165986f,0.13957834f,0.014838595f,-0.10934375f,
0.20129253f,0.17957842f,0.15848456f,0.1431507f,-0.111473516f,
0.13017203f,0.06343097f,0.1862024f,-0.049113598f,0.039092f,
0.1159882f,-0.05512395f,0.13661864f,0.028846845f,0.16148642f,
-0.037884377f,0.1639688f,-0.07359038f,-0.07124761f,-0.18743655f,
-0.11489129f,0.08939446f,-0.17108402f,0.0039013405f,0.042980004f,
0.14147043f,0.09298809f,-0.012006655f,0.18516882f,0.02917451f,
0.05469412f,0.10255873f,-0.13520397f,0.14437376f,0.0067199706f,
-0.12942255f,-0.13642275f,0.097755715f,-0.025726188f,-0.12117332f,
-0.018359141f,-0.026301106f,0.06441397f,0.086008005f,0.0069557815f,
0.11138833f,0.015595051f,0.017997181f,0.11524227f,-0.13191038f,
0.09519542f,-0.18445787f,-0.11574813f,0.14255685f,-0.008834843f,
0.1566584f,0.1773401f,0.0002263885f,-0.03923979f,0.07041163f,
0.071052015f,0.032107368f,0.0032532106f,0.09661978f,0.030451737f,
0.009562218f,0.0070637236f,0.04901547f,-0.06968684f,-0.021469371f,
-0.13443425f,0.0576676f,-0.15280002f,-0.084175356f,0.027486635f,
-0.16891876f,-0.016431332f,0.15611923f,-0.0064219506f,-0.06964396f,
0.10937432f,0.07471519f,0.13231751f,0.05418451f,0.07169761f,
0.109270066f,-0.117505416f,-0.14144063f,0.14819807f,0.060047492f,
-0.04241613f,-0.11173847f,-0.118544556f,-0.12907958f,-0.029295046f,
0.082689814f,0.04797292f,0.0736879f,0.071505494f,-0.09123115f,
-0.12612402f,-0.104527816f,-0.03574829f,0.11110644f,-0.1037225f,
-0.121737696f,-0.104560375f,0.13632059f,0.15402067f,0.011465154f,
0.04186266f,-0.00045065169f,0.06997886f,0.033464625f,0.058715984f,
-0.061953932f,-0.07119683f,0.12035432f,-0.098232016f,0.16618317f,
0.018771317f,-0.10761547f,0.016283404f,0.09445981f,-0.1215474f,
-0.06239529f,-0.055453904f,-0.16271594f,-0.05603152f,0.06625598f,
-0.17642944f,-0.160689f,-0.12111341f,0.085342586f,0.058672864f,
-0.007120744f,-0.09108309f,-0.13378747f,-0.17559789f,0.034999646f,
0.030760229f,-0.040155277f,-0.07193069f,0.03968274f,0.017083334f,
-0.051766284f,-0.11664264f,0.0483903f,-0.023246458f,0.045152795f,
0.019644074f,0.06027211f,-0.19748355f,0.0052769724f,-0.07395612f,
-0.1306792f,-0.098185726f,-0.056600157f,0.023135776f,0.023776714f,
0.14687882f,-0.06704735f,-0.0076146005f,0.10860227f,0.110652566f,
-0.07623912f,0.085404284f,-0.053444687f,-0.14625743f,-0.12886228f,
0.13607392f,-0.05582813f,-0.010206073f,0.06071769f,0.059820715f,
-0.047236197f,0.022609657f,-0.0063387556f,0.109010644f,-0.0024178328f,
-0.09995596f,-0.021107096f,-0.1061074f,0.15782651f,0.05556327f,
0.083154626f,0.055812377f,-0.14202592f,-0.15342996f,0.13930534f,
0.05804936f,-0.082100205f,-0.069175616f,0.059712816f,-0.11163819f,
-0.095615394f,-0.115249865f,0.116208665f,-0.090814225f,-0.01894764f,
0.06963737f,0.12939842f,0.17247477f,-0.17124563f,0.096742265f,
-0.11757344f,-0.085846126f,-0.16576652f,0.005509732f,-0.073113106f,
0.17635652f,-0.12654082f,0.11012146f,-0.13567187f,0.1755906f,
0.030298268f,-0.11659432f,0.12536475f,-0.11607536f,-0.12404984f,
0.112856805f,-0.2088749f,-0.16997895f,-0.11626506f,0.10766667f,
-0.06449704f,0.03621847f,-0.19283034f,-0.06953028f,-0.058896717f,
0.055503152f,-0.036319714f,0.06415832f,-0.14754926f,-0.031895507f,
-0.164508f,0.06464638f,-0.06520587f,0.062847845f,0.039533224f,
-0.06970833f,0.108488284f,0.037415843f,0.076844946f,0.05773107f,
-0.065136336f,-0.026267814f,0.10416242f,-0.11750648f,-0.24113463f,
-0.057694543f,0.08957319f,-0.18012463f,-0.01393189f,0.029697768f,
-0.1490795f,-0.114004225f,0.08943421f,-0.13466145f,0.07937486f,
-0.14117277f,0.13896179f,0.069330245f,0.09192888f,0.056764185f,
-0.1758437f,0.098830216f,-0.0120567195f,0.08505552f,0.12809129f,
-0.1412724f,-0.11045491f,-0.030746525f,0.11092633f,-0.08963451f,
-0.08316743f,-0.03515145f,-0.06811679f,0.09988744f,-0.039794095f,
-0.12308527f,-0.012848187f,-0.14842032f,-0.08788365f,0.064913385f,
0.0026803878f,0.16308244f,-0.045288954f,-0.020612545f,-0.11356239f,
-0.035536442f,-0.13148336f,-0.07915755f,0.04241635f,0.017288478f,
-0.075677104f,0.01976721f,0.006343157f,-0.104419924f,-0.17844595f,
-0.0021933517f,-0.08898249f,-0.046024162f,-0.09033014f,-0.13842338f,
0.06855445f,-0.12592891f,-0.1755659f,0.08217465f,-0.050885085f,
-0.09471078f,-0.15701514f,0.17623046f,-0.026140792f,0.016900364f,
0.19178626f,0.060827468f,0.024130251f,0.13146381f,-0.15552124f,
-0.042748634f,6.5940665e-05f,0.10206167f,0.13585909f,-0.12849794f,
-0.060124278f,0.18727677f,0.0036193642f,0.013251851f,-0.16835523f,
0.17646402f,0.18722498f,0.16176961f,0.09276961f,-0.107129216f,
0.17956676f,0.0014276598f,0.13550551f,-0.006968789f,0.022013739f,
-0.13378023f,0.0046479837f,-0.009384246f,-0.15958282f,0.031169942f,
-0.14275269f,-0.111280695f,0.1381701f,-0.17921245f,0.1273639f,
0.06728825f,-0.18185838f,-0.1649071f,0.09559884f,-0.11951404f,
0.13092121f,0.07444376f,0.046948463f,-0.06330191f,0.13210726f,
0.10136173f,0.07898643f,-0.11347768f,0.06711938f,-0.11272636f,
0.07776361f,0.043938566f,-0.10288468f,0.026832825f,-0.030378714f,
-0.015274344f,0.15215386f,-0.09159711f,0.15162003f,-0.09629087f,
-0.061902225f,0.04857269f,-0.07189307f,0.11156889f,0.05603143f,
-0.15363388f,0.064572796f,0.16760975f,0.011288783f,0.110037595f,
-0.05885148f,-0.069975264f,-0.035677068f,-0.14836252f,0.033703268f,
-0.063621484f,0.030110106f,0.14700182f,-0.15630883f,-0.086426176f,
0.0035850836f,-0.10941298f,-0.00407768f,0.14300413f,-0.10066946f,
-0.0092204f,0.062272154f,0.12944642f,-0.0034739194f,0.063193046f,
-0.12094909f,-0.086964354f,-0.10202991f,0.13037744f,-0.07346944f,
0.06284838f,0.0011295361f,0.0024423706f,0.020475682f,0.040504716f,
0.097891524f,-0.061565142f,0.049509462f,0.23410472f,0.02320004f,
-0.123731144f,-0.10868809f,0.20615508f,0.17621149f,-0.09752557f,
-0.108832724f,0.11386253f,-0.16735688f,0.07993773f,0.14708143f,
-0.0023075365f,-0.028285425f,0.108532324f,-0.0047033336f,-0.17465867f,
0.1641694f,0.078560166f,-0.042370416f,0.0244828f,-0.037122287f,
-0.028206766f,-0.17786558f,-0.1352169f,0.02104043f,-0.10628177f,
0.06161672f,0.15064926f,-0.08042699f,-0.009195984f,-0.10368755f,
-0.16850396f,0.030964114f,-0.06619421f,0.13155676f,0.07661207f,
-0.027807467f,-0.06889204f,-0.0459372f,-0.09477162f,-0.1482687f,
-0.037029173f,-0.17547524f,-0.10861374f,0.117889725f,0.071032576f,
0.06161976f,-0.0976264f,0.07654996f,-0.07583879f,-0.0672362f,
0.027806355f,0.014346137f,-0.20060706f,-0.06798119f,-0.11818413f,
-0.010572154f,-0.052974533f,-0.024401423f,-0.039962884f,-0.071957394f,
-0.13154201f,0.043640018f,-0.100368805f,-0.10494651f,-0.18507533f,
0.06179678f,-0.13546406f,-0.09618403f,0.04132653f,0.030906674f,
0.14882469f,0.0540728f,0.13475041f,-0.053713914f,-0.09076181f,
0.0076998714f,-0.081763715f,0.14321344f,-0.018828103f,0.04798269f,
-0.06508663f,0.004392703f,0.14817485f,0.013499376f,0.08167647f,
-0.03994485f,0.015327139f,0.043375723f,-0.09275637f,0.044966225f,
-0.15025176f,-0.13954405f,-0.0009383803f,-0.09549216f,-0.10875875f,
-0.1797518f,0.15450583f,0.07143495f,0.11853554f,-0.02977395f,
-0.12652758f,-0.17312388f,-0.03714205f,-0.031375773f,-0.15183459f,
0.018725708f,0.05738085f,0.034162823f,0.09669216f,-0.12267517f,
-0.107911445f,0.10361614f,0.12458067f,-0.06730791f,0.09426114f,
-0.16480194f,-0.08806969f,-0.048684873f,-0.16438666f,-0.14614171f,
0.17905013f,0.019587886f,0.07835649f,-0.11847362f,0.102305084f,
-0.044276014f,0.08380338f,-0.15476206f,-0.031105295f,-0.014103636f,
0.07431368f,-0.25890893f,-0.018152453f,0.08091744f,-0.21298803f,
0.02566714f,0.020967439f,0.087236166f,-0.10854236f,-0.18986411f,
0.042734932f,0.035442386f,-0.004675396f,0.077719055f,0.11847219f,
0.15593418f,0.103666835f,0.100440666f,0.04012138f,0.017497214f,
0.07374541f,0.10002294f,0.029870417f,-0.10855134f,-0.12616935f,
-0.09830362f,-0.035349663f,0.003692589f,-0.118678994f,0.016448816f,
0.07610609f,-0.20513515f,0.14308305f,0.04530757f,-0.08565814f,
0.12044223f,-0.18839918f,-0.05060735f,0.046621803f,-0.19327049f,
-0.15986638f,0.031267203f,-0.19208841f,0.071399696f,-0.18881254f,
0.120969355f,0.003552666f,0.06516915f,0.07200575f,-0.033617634f,
-0.0794282f,0.14709407f,-0.013539593f,0.03518501f,0.07819939f,
-0.032249343f,-0.11318367f,0.023775537f,0.06390247f,-0.10328377f,
-0.072011046f,-0.16094993f,0.0034607982f,0.05364298f,-0.097530626f,
-0.13152729f,-0.08189773f,-0.019974766f,0.11983597f,0.14950843f,
-0.115974076f,-0.11583714f,-0.13480619f,-0.17285818f,-0.16074176f,
0.013340111f,0.07657928f,0.045868248f,0.0073406617f,0.043373134f,
-0.14243217f,0.05879889f,0.070645064f,0.1354192f,-0.056328714f,
0.123696946f,-0.054783445f,0.049008306f,-0.15738256f,-0.1329539f,
0.061173365f,0.020409767f,0.025430588f,0.110991f,0.106151216f,
0.14814171f,0.11209991f,-0.112422414f,-0.04631826f,0.031727113f,
0.17064227f,0.12997071f,0.2515381f,0.06420059f,0.18075591f,
0.0952949f,-0.14287719f,-0.11509756f,0.021217136f,0.06286271f,
-0.1045854f,0.14214997f,0.11827712f,-0.053320903f,-0.13869126f,
0.011082453f,0.044571735f,-0.166753f,0.04325412f,0.16715585f,
-0.105008714f,-0.069700696f,-0.074361354f,0.03850851f,0.118723795f,
-0.10106336f,-0.013847256f,0.10811462f,-0.11000772f,-0.17475864f,
0.05347875f,0.11793541f,0.11771166f,0.13740875f,0.040664148f,
-0.103204206f,0.056710176f,-0.15366502f,-0.069155395f,-0.039837915f,
0.18914947f,0.030583803f,0.008430625f,-0.043201488f,-0.1585207f,
0.19973987f,0.13186191f,-0.073127374f,-0.02584339f,0.07095768f,
0.096369885f,0.026678177f,0.05242945f,-0.045248225f,0.14241478f,
0.09063709f,-0.15057085f,0.0950995f,-0.1265209f,0.12032356f,
0.070086345f,-0.103208356f,-0.06537599f,-0.16263618f,-0.09777493f,
-0.011809036f,0.11947091f,-0.1622936f,-0.18166582f,0.041056782f,
0.12182689f,0.100361615f,-0.026046207f,0.10923072f,-0.09199273f,
-0.11555804f,0.03627145f,0.1298257f,-0.04369539f,-0.15173846f,
-0.0920719f,-0.22496232f,0.093224235f,-0.010632005f,-0.11514547f,
-0.07169292f,-0.08278974f,-0.17562734f,-0.11269588f,0.15778784f,
0.1470775f,0.078973256f,0.0607187f,0.106764585f,-0.078199156f,
-0.10831935f,0.043532737f,0.1335685f,0.12261021f,0.08208953f,
-0.05862847f,-0.0042913514f,-0.14038654f,0.0864965f,0.14499907f,
-0.13617411f,0.047453966f,0.16190337f,-0.07986254f,-0.08665512f,
-0.13318115f,-0.0066977125f,-0.14952682f,-0.11810721f,0.13355863f,
-0.09519825f,-0.040892247f,-0.06910951f,0.08134769f,0.16587926f,
-0.11237509f,0.15756634f,-0.16777599f,-0.0098470645f,-0.062532604f,
-0.1716919f,-0.019647982f,0.038385477f,-0.006553348f,0.114950895f,
-0.018114218f,-0.14390348f,-0.18357532f,0.013318181f,0.08321144f,
-0.031918246f,0.057143137f,-0.03017591f,-0.12179426f,-0.09241177f,
-0.12910569f,0.016933177f,0.09599548f,0.026750768f,-0.112056755f,
0.1401979f,0.16462183f,-0.073492944f,-0.078555614f,0.052153774f,
0.14880756f,-0.14132957f,0.08408585f,0.0836767f,0.029992152f,
0.14188842f,0.044499412f,-0.1371095f,0.12619619f,0.15090244f,
-0.086769775f,-0.01965836f,0.11095138f,-0.031194761f,0.08143091f,
0.13782513f,-0.12038518f,-0.17370336f,0.028588595f,-0.13926376f,
-0.097171f,0.1310466f,0.12910563f,0.09315191f,0.16793078f,
-0.033449084f,0.07769371f,0.118960395f,0.08931913f,0.0057525183f,
-0.0056970655f,0.18678771f,0.068254605f,-0.12786299f,0.10521476f,
-0.02659829f,-0.0406936f,0.052776914f,0.09149451f,-0.1387513f,
0.09050297f,-0.1554627f,-0.082293555f,-0.16838278f,-0.14802188f,
-0.0046194475f,0.21312378f,-0.1753656f,-0.07183388f,-0.091236666f,
-0.16206034f,-0.086432606f,-0.18364817f,0.029548105f,-0.031720567f,
0.08504172f,-0.12051707f,-0.06640552f,0.16237256f,0.07742049f,
0.14995961f,-0.13642453f,0.010250514f,0.05397664f,0.09049926f,
0.07626656f,0.010169273f,0.0980809f,0.02511733f,0.11960499f,
-0.1473549f,-0.1808044f,-0.1065374f,-0.05194655f,0.14433816f,
0.03242612f,-0.14719819f,-0.117734425f,0.04072377f,-0.049158603f};
float layer2_bias[] = {
-0.16834866f,-0.10737734f,0.14133348f,0.015274053f,0.05216457f,0.04109295f,0.12587255f,0.11020854f,-0.025082182f,-0.147821f,0.16794647f,-0.02717082f,0.15828733f,0.008334282f,-0.065673895f,-0.14585787f,0.08742201f,-0.12229473f,-0.10181654f,-0.1587654f,0.11697191f,0.13031512f,-0.15492988f,-0.056453943f,0.0406946f,-0.12942505f,0.10603104f,0.1045807f,-0.0020292588f,-0.11583344f};
//Layer3 Weights 
float layer3_weight[] = {
-0.19116561f,0.018010158f,-0.16021627f,-0.022984255f,-0.17663555f,
-0.13855602f,0.01934954f,0.0447781f,-0.13474093f,-0.19534984f,
0.051230386f,-0.18973966f,-0.13535546f,-0.10264069f,-0.18650049f,
-0.087594956f,0.034062997f,-0.3074296f,-0.0037857187f,-0.29803056f,
0.041639365f,0.14661512f,-0.07248705f,0.012819117f,0.031672336f,
0.019680707f,0.040967382f,-0.084128164f,-0.18993507f,-0.0481327f,
-0.068363845f,0.06355405f,-0.1546159f,-0.026717821f,-0.0315273f,
0.0034000054f,-0.14447233f,-0.11040075f,-0.170133f,-0.017757958f,
0.08580821f,-0.19012427f,-0.23114066f,-0.17845829f,0.0012691648f,
-0.030299611f,0.025976183f,-0.18409517f,-0.060116924f,-0.03573487f,
-0.088731155f,0.116804466f,-0.14820305f,-0.1157479f,0.02431752f,
-0.093563825f,0.18091945f,0.03463184f,-0.1481407f,-0.196648f,
-0.087944604f,-0.06940505f,-0.21044174f,-0.20519537f,-0.1188235f,
-0.057906978f,-0.07902415f,0.104468614f,-0.1277005f,-0.15384853f,
-0.0706041f,-0.1976908f,0.033586085f,0.081873044f,0.10245167f,
-0.043856125f,-0.13264674f,-0.19232816f,0.023706632f,0.108377665f,
-0.0025569173f,0.11612075f,-0.07443572f,0.06422978f,0.029912671f,
-0.01803999f,0.0222413f,-0.022141507f,0.10324349f,0.034872714f,
-0.16958103f,-0.020167943f,-0.07579007f,-0.17920674f,0.06962235f,
0.07957204f,0.056202274f,0.122923315f,-0.13393196f,-0.058469772f,
0.15960038f,-0.16866311f,-0.23416217f,0.04522973f,-0.18682522f,
0.026361238f,-0.065405406f,-0.11591172f,-0.051239505f,-0.11663096f,
-0.054805413f,-0.16781327f,-0.26210698f,-0.053987093f,-0.12574303f,
-0.07184835f,-0.16805445f,-0.28555533f,0.0499124f,0.08849845f,
-0.1695119f,-0.101204194f,0.0117851775f,-0.07982028f,0.053663544f,
0.12516043f,-0.1094783f,-0.07291581f,-0.028052054f,-0.09397873f,
-0.035431948f,0.050976697f,-0.07092988f,-0.026215835f,-0.09247169f,
0.031908635f,0.060863174f,-0.16291825f,-0.13046588f,-0.08373262f,
0.099165015f,0.050321374f,-0.09224053f,-0.09590938f,-0.18795379f,
-0.12698478f,-0.17965436f,-0.16892233f,-0.12566125f,-0.08561746f,
-0.19639213f,-0.20286076f,0.087671764f,-0.2026135f,-0.021143997f,
0.074041136f,-0.14085744f,-0.050370663f,0.02181369f,0.117236555f,
0.065231465f,-0.14192219f,-0.061440762f,-0.14729144f,-0.20232256f,
0.04909769f,-0.01744585f,-0.08563456f,-0.014058035f,-0.10354879f,
0.052315477f,0.037025403f,-0.04971876f,0.029086113f,-0.122852154f,
0.0120671475f,0.080713846f,-0.13280033f,-0.18406698f,0.05473133f,
-0.13964494f,-0.06398909f,-0.18539266f,-0.14842911f,0.105349444f,
0.14309281f,-0.15092444f,-0.05471807f,-0.13819851f,-0.13903353f,
0.111488074f,0.06066543f,-0.013680154f,-0.090094216f,0.033786118f,
0.002860788f,0.031285774f,-0.07587393f,-0.17781936f,-0.21775165f,
0.05967655f,-0.11278386f,-0.19086857f,0.014588719f,0.07881579f,
-0.091946036f,-0.09686418f,-0.17749447f,-0.009769085f,0.01975119f,
-0.14502458f,-0.103242874f,-0.1645144f,-0.10922256f,0.11773843f,
0.042422127f,0.046438787f,-0.10513438f,-0.038399056f,-0.083394475f,
0.1081104f,-0.05843975f,0.11781948f,-0.067872204f,-0.17937571f,
0.021033684f,-0.03731819f,-0.16795182f,0.02511711f,0.14391078f,
-0.090728834f,0.14170374f,-0.06951642f,0.04457813f,-0.069449365f,
-0.053132206f,-0.13837536f,0.12299711f,0.09122735f,-0.098296225f,
-0.07673468f,-0.20558843f,-0.14742215f,0.06937412f,-0.00014601936f,
0.09737696f,-0.061598018f,-0.002990652f,0.011482003f,-0.12725669f,
-0.014796225f,-0.06434419f,-0.06651219f,-0.19034196f,-0.087986805f,
0.07467291f,0.03311298f,-0.24050876f,-0.010880245f,0.08193819f,
-0.1899206f,-0.17811663f,0.025099413f,-0.21260452f,-0.01653941f,
-0.22199664f,0.038216345f,0.0063447775f,-0.0069138133f,0.06252517f,
0.01593227f,-0.11121238f,-0.010998112f,-0.16514216f,-0.020528838f,
0.15123424f,-0.13789043f,0.041889176f,-0.076236285f,0.13744752f,
-0.069072574f,-0.25078967f,-0.085483f,0.01943509f,-0.15684895f,
0.11411852f,-0.029595146f,-0.26818213f,0.10850724f,-0.1680524f,
-0.017535273f,0.11822588f,-0.17458673f,0.0071788444f,0.050794717f,
0.049376585f,0.13454899f,-0.1588434f,-0.14180262f,0.045773126f,
-0.070067756f,-0.119220756f,-0.045540303f,-0.19261713f,0.1268879f,
0.048471473f,-0.21955188f,-0.16425419f,0.037151467f,0.08101579f,
0.055432245f,-0.15280117f,-0.082566075f,0.012816299f,-0.18049155f,
-0.04023909f,0.11131389f,-0.165495f,-0.1577546f,0.017342407f,
0.034979936f,-0.042691853f,-0.21259841f,-0.034675702f,-0.07303709f,
-0.1396223f,0.08331892f,-0.050085403f,0.088120475f,-0.009991263f};
float layer3_bias[] = {
-0.00092063315f,0.17292364f,-0.16157661f,-0.06843828f,0.05649531f,-0.06644928f,-0.12687531f,-0.106719054f,-0.15911745f,0.07047095f,0.16473287f};
//Classifier Weights 
float classifier_weight[] = {
0.111009926f,-0.050551843f,-0.2511158f,-0.24586399f,-0.042879585f,
0.033468172f,-0.10234196f,0.2659077f,0.074536845f,0.034125328f,
0.18758239f,-0.07382878f,0.06523158f,-0.052500486f,0.10100219f,
0.178181f,-0.047550894f,0.21201353f,0.05547065f,-0.11346258f,
0.2403594f,-0.1285225f,-0.22947878f,0.082655184f,-0.14766444f,
-0.027762612f,-0.05950151f,-0.06920683f,-0.13610609f,0.22022398f,
0.101155296f,0.089623965f,0.13948263f,-0.2577549f,-0.020707814f,
0.057102602f,0.14356719f,-0.16244514f,0.034611266f,-0.10602833f,
-0.21787436f,-0.26174623f,0.08728837f,-0.14074074f,0.064597115f,
0.05306722f,-0.034761447f,-0.17567174f,-0.08949512f,0.228837f,
-0.24910967f,0.13104804f,0.090035f,-0.1979146f,0.17757556f,
-0.19642998f,-0.21741678f,-0.17471664f,0.2615802f,-0.02446613f,
0.20304962f,-0.036143284f,0.022865009f,-0.09212786f,0.123015f,
0.04418917f,0.06097562f,0.09602393f,0.2123781f,-0.10022956f,
0.070034415f,0.16840418f,0.18970522f,0.012279017f,-0.050319068f,
0.15537554f,0.059908196f,0.003920165f,-0.14277758f,-0.22100453f,
0.108934455f,-0.14261517f,0.14537853f,-0.28507096f,-0.12378311f,
0.101784244f,-0.1211746f,0.27378947f,0.024596399f,-0.038755275f,
-0.22345251f,0.11518298f,-0.15211338f,0.07716281f,0.057596497f,
0.036395356f,0.17838615f,0.14206824f,0.1455141f,-0.03021078f,
-0.011480258f,0.10317455f,0.068495855f,0.056401733f,0.026987469f,
-0.24729113f,0.16505075f,0.18805118f,0.21355456f,-0.0006703052f,
-0.053137094f,0.030914135f,-0.020335315f,-0.11803076f,0.15861331f,
0.014006026f,0.24446175f,-0.2763037f,-0.047842234f,0.2568759f,
0.12600532f};
float classifier_bias[] = {
-0.03875305f,0.020907748f,-0.17181472f,0.103813626f,0.24600542f,-0.13969766f,-0.09362035f,-0.02018493f,0.15278873f,-0.08565913f,-0.07334751f};
